4096 64
AAAAAA 0.010188028 0.7266195 -0.061779942 -0.326606 -0.051979966 -0.26426387 -0.46830502 0.42933553 -0.10362268 -0.5945188 0.6415492 -0.48661482 -0.11402959 0.31866786 -0.5013281 -0.42568254 0.11975537 0.36261034 0.23518972 0.4365233 -0.7175418 0.42710996 0.0011171127 -0.20715065 -0.41494408 0.44989014 -0.35321304 0.49500933 0.07530898 0.08361456 0.17316623 0.14119844 -0.3035783 -0.029188385 0.012859657 0.600845 -0.4097001 0.11250319 0.40639937 0.4910932 -0.117254 0.15017553 0.030454006 -0.46845803 1.2337446 -0.7719889 0.111258455 -0.056548208 -0.030559082 -0.7296317 0.3504134 0.729824 0.020845216 -0.13155682 -0.3069229 0.10864512 0.18490884 -0.37997496 0.5585249 -0.21863744 0.093510926 0.43782172 -0.13445747 0.4109837
TTTTTT 1.0446147 0.27458647 -0.24068975 -0.25839573 -0.071672805 -0.38456234 -0.1425492 0.3350232 -0.061063144 0.072984524 0.042553373 -0.0019747198 -0.45432857 0.07212063 -0.863736 -0.701592 0.11210898 0.11464061 0.16102453 0.63437897 -0.69715494 -0.027162736 0.44353083 -0.5105979 0.48165298 0.66422147 -0.51613635 -0.1687987 0.14492418 -0.17717406 -0.36193955 0.2752649 -0.11622923 0.11812633 -0.24972731 -0.17635277 -0.33745706 0.45407245 -0.110646434 0.19724056 -0.61756635 0.27775034 -0.075340115 0.59905773 0.7097823 -0.3002002 0.15250592 -0.0014417589 -0.26807287 0.58463913 0.3717353 0.51840675 0.6097462 -0.004119423 0.5380253 -0.026056813 0.16197957 0.30924648 0.80670196 0.5012526 -0.40398717 0.32543656 0.014300216 0.32560122
AAAAAT -0.1410698 0.43201566 -0.081497036 -0.15013486 -0.3432911 0.24951115 -0.07975518 0.1992726 -0.39230198 -0.43082994 0.49152574 -0.2023048 0.15270028 0.37039128 -0.74396414 -0.32140762 -0.08614141 0.106476784 -0.08405927 0.55078495 -0.74878633 0.31187174 0.090110846 -0.26907587 0.015416602 0.512204 -0.07965572 0.16818267 0.21099989 0.028312184 0.022957461 -0.13525687 -0.2121319 0.02261349 0.047693145 0.62312585 -0.12084025 0.40425974 0.40885925 0.09571741 -0.21519172 0.08132117 -0.061805267 -0.6953433 1.2123736 -0.37505817 0.35075608 0.07853836 0.15685806 -0.72176814 0.5047449 0.71152365 0.10983195 -0.2934587 -0.43796256 0.26555043 0.22681005 0.031004041 0.35803056 -0.4855019 -0.08821835 0.3240128 0.19293125 0.122699045
ATTTTT 0.8572358 0.4585584 -0.109028906 0.12977175 -0.15128353 -0.39825162 0.010061501 0.2186977 -0.10113522 0.38756347 -0.24838252 -0.25726116 -0.5429783 -0.13386953 -0.885375 -0.7444261 -0.187292 -0.098687835 -0.1829177 0.4196136 -0.42236295 0.3894827 0.40495026 -0.11758479 0.3056709 0.41391456 -0.09144664 -0.05693447 0.14301792 0.19408083 -0.43909812 0.17233683 0.11800911 0.26212314 -0.4654026 -0.026960002 -0.6162225 0.82383186 0.061068982 0.13608819 -0.3487808 0.3341405 -0.28523532 0.69927603 0.5734579 -0.4362202 0.23689252 0.08792374 -0.14905447 0.4890626 0.3639438 0.4515968 0.43099368 0.28887087 0.18599738 -0.28829142 -0.10619822 0.09493772 0.5878667 0.359337 0.11240298 0.30500406 0.078837626 0.29772595
TTTAAA 0.064494014 0.79363394 -0.6661745 -0.26175213 0.08613471 -0.0682498 0.103431694 0.48651648 0.3920507 -0.45698455 0.61420786 -0.19889106 -0.02927785 0.056430772 -0.7081097 -0.07815739 0.29750073 0.5382876 0.13149822 0.034664843 -1.0200098 0.25465962 0.33664623 -0.39003128 0.08156326 0.67153555 -0.4466562 0.37106842 -0.075395666 -0.34029827 0.28353348 0.11247863 0.19823495 0.1666741 0.020264013 0.5869415 -0.8733662 0.6083292 0.15021347 0.31580833 -0.6392723 0.3964266 -0.31330672 0.61458296 0.55751896 -0.67177534 0.068172365 -0.008245367 -0.4652491 0.09975276 0.058431447 0.4712391 0.6090731 0.10745311 0.066002354 0.11326386 0.50947106 -0.07390567 0.47316158 -0.018524343 -0.3872362 0.2871699 -0.54174644 0.12973882
TTTTAA 0.24973053 0.4801863 -0.67004246 -0.3573312 0.10680177 -0.19966279 0.07015834 0.25624263 0.3010318 -0.3744453 0.4080019 -0.275066 -0.07641891 0.21028735 -0.73522425 -0.40237737 0.2317817 0.20247209 -0.05599504 0.28743026 -0.83968467 -0.14884493 0.33073428 -0.36264023 0.39427614 0.5584211 -0.56704473 0.22550197 -0.27946764 -0.31159383 0.11365594 0.060776353 0.1367229 0.16982122 -0.31997475 0.3104632 -0.8043883 0.4712939 -0.0055007646 0.3842125 -0.8945393 0.49643788 -0.25919476 0.8285186 0.7296346 -0.3685571 -0.08876975 0.14529775 -0.46011105 0.3076974 0.056645874 0.38816082 0.73608714 0.0031275745 0.16212519 -0.13495623 0.4045606 -0.19865079 0.70421326 -0.03407012 -0.63865554 0.28362393 -0.48602146 0.2861936
TTAAAA 0.24488647 0.68240696 -0.46922132 -0.14851685 0.17258553 -0.01011444 0.07601472 0.46948433 0.22716554 -0.54157263 0.68216264 -0.2659304 0.020969661 -0.027017636 -0.4629532 -0.23145163 0.27254 0.63405216 0.37389022 0.24832585 -0.9297643 0.3687307 0.24069488 -0.3004687 0.05914227 0.8374687 -0.32406136 0.5040154 -0.119627 -0.081352785 0.5586874 0.051380455 0.051367123 -0.25103965 0.28847975 0.8175901 -0.7360358 0.27957848 0.34325245 0.24017 -0.5388933 0.540665 -0.26916972 0.21054235 0.681326 -0.6700374 0.043036863 -0.26581877 -0.42412913 -0.2486522 0.17027153 0.52913946 0.4038836 0.31189787 -0.09623731 0.033283282 0.34693635 -0.29141045 0.5142974 -0.15807705 -0.36088586 0.56382865 -0.39281154 0.19342189
TTTTTA 0.47713903 0.41753018 -0.5276382 -0.52978075 -0.1994477 -0.29824203 0.26272357 0.45620766 0.11946318 -0.19855723 0.0768389 -0.15697947 -0.019207247 0.2931199 -0.8464308 -0.52208334 0.071672015 0.19068205 -0.055534124 0.32665592 -0.86716694 -0.15888996 0.3565571 -0.56670505 0.4465863 0.32317808 -0.47113875 0.31497797 -0.30230975 -0.24293795 -0.21748972 0.02628286 -0.16390993 0.2559203 -0.4470615 -0.02665373 -0.49264598 0.5533056 -0.022474563 0.4620889 -0.510473 0.5759205 -0.02132465 0.96738756 0.777696 -0.41989362 0.15370068 -0.041646726 -0.25456443 0.1381364 0.018278135 0.25056437 0.64302635 -0.028104376 0.33862996 -0.11811511 0.22894329 -0.0042815725 0.5503639 0.15497538 -0.43968466 0.17679651 -0.15709592 0.34079453
TAAAAA 0.352856 0.8943594 -0.27246168 0.040593024 0.0022511976 0.06426978 0.011612003 0.2620909 0.07594351 -0.6811842 0.86419165 -0.27485487 -0.026016533 -0.2925877 -0.42181224 -0.3348474 0.5024733 0.44130576 0.3158757 0.37125596 -0.8751495 0.25068134 0.24028106 -0.15914896 -0.1315068 0.5694076 -0.2699315 0.32923782 0.19181462 -0.036530394 0.24088131 0.122051686 -0.042327497 -0.0049335468 0.13271752 0.94937396 -0.5463475 0.21190366 0.33115387 0.35790607 -0.17909016 0.3696436 -0.07157709 -0.22483669 0.747721 -0.45853975 0.011912678 -0.004447437 -0.19209112 -0.29281896 0.35723084 0.6136247 0.38600805 0.24529423 -0.40272173 0.25735533 0.19128333 -0.24026915 0.5373778 -0.009742284 -0.19043215 0.51078725 -0.37192872 0.01943817
TATTTT 0.4791097 0.47358838 -0.16372108 0.012024353 -0.4198872 -0.3881455 0.40341687 0.27781212 -0.028676635 0.31250402 -0.40851068 -0.3064227 -0.48031887 -0.47330835 -0.6891094 -0.7841449 0.09789156 0.33661804 -0.3602855 0.41131416 -0.5683068 0.07097389 0.400029 -0.10233393 0.10545517 0.47451118 -0.12464192 -0.42570153 0.41501004 0.32543388 -0.4291701 0.39831275 -0.2395443 0.0811541 -0.14397845 0.06796829 -0.2421912 0.70173115 0.012788289 -0.23322229 -0.122895285 0.5930977 -0.25086805 0.81945586 0.57744086 -0.3942715 -0.014264377 0.06865897 -0.3173985 0.33150247 0.9344248 0.49691236 0.2580585 0.41008464 0.38746023 -0.2637294 -0.095247574 0.20081684 0.4248011 0.02070794 0.04766815 0.2903537 -0.14665505 0.1401522
AAAATA -0.31759992 0.34482977 -0.26393676 -0.1983446 -0.3360676 -0.08700781 0.27250332 -0.03306967 -0.5732682 -0.35409048 0.5824435 -0.26795998 -0.18548873 0.55443376 -0.91762346 -0.41083705 -0.0925063 0.45544258 0.005857774 0.62581944 -0.8363214 0.25216305 0.1799612 -0.27478987 -0.08008984 -0.13945574 -0.17545432 0.29149213 0.28627098 0.27125478 -0.36963248 -0.14469384 -0.25069374 -0.2212179 -0.18954623 0.5808927 -0.37401158 0.28444976 0.40022206 0.32873482 -0.16616029 0.152635 0.003981378 -0.6222716 1.0768268 -0.09829502 0.46410015 -0.07467255 -0.08925566 -0.6201662 0.6981504 0.023354093 0.10305065 -0.34586325 -0.37205797 0.275757 0.37699872 0.01776639 0.57015175 -0.5922196 -0.041194934 0.037446134 -0.015281574 0.10356513
AGAAAA 0.14003316 0.5327494 -0.0078649465 -0.28726077 -0.3425613 0.15519033 -0.4996821 0.32724255 0.029407758 -0.18838482 0.22209959 -0.52720296 -0.030113501 0.37024698 -0.13330314 -0.22166839 -0.09853043 0.23044473 -0.20106432 0.46081695 -0.3446389 -0.4994812 0.3098243 0.032423235 -0.54958636 0.5417954 -0.37321758 0.09291898 -0.04579025 -0.1792881 -0.14853069 -0.21969795 -0.11954543 -0.05495249 -0.047985103 0.15911211 -0.1051308 0.107860126 0.6782136 0.50017905 -0.01428901 0.2944074 -0.60081637 -0.5309567 1.0740122 -0.79292923 0.36483344 -0.23191305 -0.14541525 -0.20680717 0.22910531 0.6264888 -0.49294987 -0.0022541198 -0.23401102 0.042739954 0.07858376 -0.25698823 0.42218414 -0.6140539 0.29809436 -0.0016206768 -0.3413886 0.07068371
TTTTCT 0.40109098 -0.2709685 -0.14543115 0.005949786 -0.38713658 -0.24647093 -0.120530106 0.4350666 -0.14229026 0.27559057 0.078957334 0.25013122 -0.5789672 0.2114396 -0.42660934 -0.4499218 0.5767033 0.00019882077 0.3407651 0.15859681 -0.30861372 0.15107581 0.3338479 -0.3865344 0.04753609 0.2663901 -0.43820238 0.05849435 0.4982124 0.1907796 0.025808271 -0.24680178 0.04477645 0.041445848 -0.19664879 -0.07262273 -0.4478896 0.6881934 -0.11934915 -0.09665324 -0.04124239 0.06420716 0.038536064 0.38821742 0.10306744 -0.43808267 0.27667582 -0.16675906 -0.22966456 0.5128945 0.4676764 0.20137757 1.0473361 0.24455293 0.28461817 0.024711395 0.0037280298 0.82050794 1.114304 0.20480783 -0.29421368 0.2854382 0.18184093 0.23292072
AAGAAA -0.08027013 0.68896365 -0.0019038672 -0.1244235 -0.62527484 0.11718449 -0.26172146 0.027381487 0.19799684 0.023913512 0.42247424 -0.2852301 -0.09028531 0.5206419 -0.005217043 0.044976734 0.121477626 -0.01901698 0.033787753 0.45902735 -0.26012215 -0.16428307 0.27653864 -0.13111794 -0.32098112 0.21666235 -0.47751093 -0.26801872 0.23815799 -0.0077700177 -0.2078152 0.13819902 -0.22279812 -0.10403666 -0.032913584 0.13367692 -0.3353615 0.07102343 0.57054114 0.48808256 -0.03304207 0.13065098 -0.5341871 -0.4478268 0.96784717 -0.7427909 0.04279565 -0.3163368 -0.11612274 0.10402753 0.27030957 0.526274 -0.18700294 0.00089923135 -0.27934825 -0.112090096 -0.01692858 -0.53353894 0.47042492 -0.8245312 0.37424263 0.12812252 -0.2973231 0.49563015
TTTCTT 0.39064193 -0.09945956 -0.2978521 0.120374426 -0.3384571 -0.3069137 0.1553574 0.4960786 0.036282465 0.14057234 -0.11276613 0.11301214 -0.1579336 0.030361472 -0.81844044 -0.54680026 0.3236221 0.18766288 0.44576097 0.10494415 -0.13578248 0.16158202 0.17812772 -0.3189836 -0.30851704 0.3145798 -0.21666603 -0.09283571 0.36695606 0.06608492 0.08928856 -0.51985115 -0.35460898 -0.06734423 0.17600356 -0.3987476 -0.19725561 0.6742077 0.31949627 -0.277102 -0.19311135 0.0065271766 0.14467606 0.37973398 0.047432322 -0.24778567 0.13267256 0.05992849 -0.1884296 0.48489207 0.30913386 0.23271257 0.83213943 -0.0054548103 0.25146663 -0.359917 0.26195604 0.61914027 1.2309022 0.086903125 -0.16679934 0.34496427 0.25139353 0.22381972
CTGCTG -0.059779305 0.39864758 0.3662575 -0.10469204 -0.4702553 -0.17129792 -0.06773457 -0.020388337 0.18453737 0.3861587 -0.07887615 -0.04146217 0.101479545 0.22580826 0.18121694 0.26197904 0.2765608 0.01630733 -0.023301879 0.033606824 0.37973452 0.21826027 0.606622 -0.2186003 -0.3397897 0.061747994 -0.15707524 -0.38930258 -0.35113788 0.71498454 -0.0010452678 0.10127243 -0.20901345 0.11697831 0.03288731 0.14464793 -0.1646906 0.52348256 -0.7589423 -0.22940612 -0.50364876 0.9647588 0.29036602 -0.21216412 0.007904133 0.13197063 -0.10919362 -0.122994706 -0.5217293 -0.25121996 -0.5472745 -0.022934694 -0.16833077 0.018230593 0.3272323 0.6608745 -0.09988335 0.19834353 0.3661545 -0.35344744 -0.39339584 -0.121780135 0.09850933 -0.19709134
CAGCAG -0.01512741 -0.21468343 0.11911118 0.18439591 0.6274669 0.022680737 -0.17038871 -0.0047322563 0.8216368 0.69041324 0.2023894 -0.090305 0.4753961 0.3930511 -0.2347754 -0.6010486 0.2610318 -0.36779982 0.2624174 0.5748311 -0.34546095 -0.3727817 0.38726175 0.34194413 -0.3441947 -0.14320482 0.24277607 -0.029309394 0.11247388 0.054019544 -0.13866155 0.0815341 -0.014546828 0.09898841 0.38091195 0.021268088 -0.3874255 0.4766819 -0.3807211 -0.08133552 0.053580098 0.14401162 0.31840187 0.40659901 -0.2953654 -0.15185459 0.38821495 -0.33252499 -0.15595584 -0.48523828 0.24121627 0.08323074 -0.6971576 -0.17769475 -0.27674708 0.16712183 0.14655861 -0.19604906 0.35642922 -0.07696063 -0.2599734 -0.43246067 -0.3326976 0.03554912
AAAGAA -0.13965619 0.7766191 -0.14478052 0.1843103 -0.5586992 -0.024510719 -0.22616823 0.20805323 0.46984023 -0.0637361 0.4509569 -0.22803274 -0.16694668 0.19237183 -0.36427027 0.37772384 0.05142065 -0.112531744 -0.051302917 0.058333628 -0.4232254 -0.1325225 0.21252257 -0.36679375 -0.55116075 0.049239118 -0.37641382 -0.032856487 0.20440084 0.2083748 -0.07161188 0.29678628 -0.43303573 0.012549498 0.005968661 0.12939595 -0.6382307 0.05529016 0.19175664 0.37195268 0.3664482 0.36561632 -0.17338185 -0.4709721 0.78507555 -0.75534976 0.15252057 -0.54461664 -0.009589627 0.27949333 0.38154134 0.39984334 -0.04763855 -0.21931165 -0.4119593 0.04748181 0.16897184 -0.53280896 0.5209314 -0.36933076 0.41527975 0.25125572 -0.12785137 0.77574867
TTCTTT 0.37514234 0.22644614 0.049645096 0.013969657 -0.41439205 -0.5378263 0.21859977 0.43337163 0.38552445 0.28418532 -0.050859448 0.012082268 0.16805543 -0.09783954 -0.59850955 -0.42754033 0.65324694 0.34867722 0.36417922 0.19842228 -0.4162064 0.22548263 0.3217526 -0.3069353 -0.1302794 0.47796753 -0.48760787 -0.122781515 0.3958942 0.037885357 -0.22932406 -0.62928426 -0.3199335 -0.14982025 -0.00919414 -0.47489572 -0.057315335 0.40954414 0.3831083 -0.036540452 -0.36606136 0.048112515 0.096248336 0.47279605 0.266033 0.18005502 0.4032336 0.34177634 -0.20920306 0.039266873 -0.0019390625 0.30027944 0.542302 -0.42529353 0.3093713 -0.11891885 0.56747437 0.61083424 0.868385 0.2574962 -0.027534455 0.21219979 0.084628165 0.34322426
TGTTTT 0.32422245 0.21533322 -0.05149148 -0.5337113 0.07445164 -0.1929733 0.32630098 0.035556167 -0.016452149 -0.34485897 -0.02440203 -0.020680318 -0.041594964 0.047317505 -0.65731454 -0.6888415 0.6594171 0.05604796 0.062024396 0.2281803 -0.4332461 0.0047526923 0.5756541 -0.49095216 0.14746833 0.17511633 -0.6013111 -0.395478 -0.5285072 -0.49317107 -0.53609747 0.29782972 -0.6264433 0.5059933 0.14768727 -0.097284384 -0.59044915 0.18490684 -0.3128721 -0.6033913 -0.08736989 0.2836093 -0.039260704 0.13128619 0.7697101 -0.039205577 0.103325605 -0.15002905 -0.24067983 0.11413693 0.45502478 0.30335966 0.5242437 0.06419478 0.42775902 -0.007427326 0.009423235 0.50712806 0.629144 0.41968644 -0.005064051 0.35959008 0.47620752 0.42354313
AAAACA -0.0382542 0.726355 0.3592694 0.105913855 -0.05807966 -0.28839117 0.4156268 0.29444328 -0.22044082 -0.26221937 0.6467815 -0.3593934 0.13523261 0.6251992 -0.69026834 -0.20722093 0.52230316 0.62166554 0.23829919 0.7605912 -0.09791828 0.27164766 0.26281703 -0.096889295 -0.2509146 0.42020544 0.04115219 0.31843108 0.2738786 -0.11742503 0.09836809 0.28794438 -0.36928985 0.08349542 -0.37618855 0.16332518 -0.2619094 -0.096602246 0.33810782 0.32690644 0.016427144 0.23120883 0.05689251 -0.22117141 0.49063483 -0.24709754 -0.010289227 -0.056500483 0.207187 -0.19202925 0.13331588 0.48296282 -0.6012406 0.41417852 -0.44495237 0.48444778 0.11741628 -0.14304379 0.7028369 -0.119731426 0.4412944 0.4177749 -0.619977 0.35772958
GAAAAA 0.18874481 0.37972495 -0.096932285 -0.6034966 -0.093171224 -0.05631934 -0.36215624 0.31823954 -0.1844754 -0.18888026 0.49915385 -0.544058 -0.19939332 0.71008545 -0.38972554 -0.17147979 0.17647365 0.36372352 -0.065789856 0.30839968 -0.35509688 0.06852165 0.0127730435 0.01829795 -0.64443314 0.2956456 -0.64601433 0.39247844 -0.12110346 0.019099291 -0.09928274 -0.13595773 -0.019274656 0.009870317 -0.07322292 0.35766256 -0.08641502 0.28833324 0.66000533 0.28470978 -0.009708164 0.053563565 -0.3675436 -0.5285509 1.0743952 -0.4431991 -0.09122895 -0.16144553 0.07717358 -0.5162157 0.15894385 0.7985126 -0.50537 -0.21592739 -0.21819855 -0.0782298 0.04332548 -0.22816426 0.4183988 -0.52665263 0.49788055 0.08405254 -0.19977278 0.16676755
TTTTTC 0.83199155 -0.27925554 -0.107513584 -0.21892992 -0.33673224 -0.25023413 -0.05765379 0.3558943 -0.036847986 0.04633118 -0.117524445 0.3436394 -0.2930143 -0.18376492 -0.5593662 -0.69531995 0.22573617 0.08644127 0.36776048 0.4939091 -0.29773563 0.107773505 0.161801 -0.20560914 0.13870281 0.4565607 -0.45210752 -0.14601605 0.35264233 -0.20500937 -0.21831813 0.1070166 0.1586164 -0.09656586 -0.3081937 0.04384606 -0.46328697 0.66489846 -0.3468224 -0.20664515 -0.13346943 -0.09346099 -0.04151121 0.24287607 0.38331962 -0.55499226 0.017622264 -0.16243514 -0.18214813 0.6049033 0.5908898 0.14205821 0.5146924 0.2751326 0.53263324 0.2008295 0.09454718 0.69905794 1.0174559 0.26931855 -0.05151463 0.3832569 0.009427434 0.29219982
AATAAA 0.031206163 0.87717605 -0.6844774 0.48177987 -0.053515475 -0.28086096 -0.021686444 -0.25024515 -0.02849811 -0.23719154 0.7221281 -0.16557233 -0.3631564 0.20294817 -0.6513311 -0.07340668 0.22591181 0.26334968 0.2021248 0.3541426 -0.69288015 -0.049096856 0.25414512 -0.37867448 -0.10222787 -0.22134271 -0.32955575 0.07728472 0.34238693 -0.006112828 -0.05794797 -0.02729396 0.04052349 0.19842026 -0.3290205 0.85385925 -0.4099082 0.48649013 0.1347182 0.09589909 -0.4112039 0.56208223 -0.33113188 -0.4023182 0.71671575 -0.15518147 0.18494608 -0.08447371 -0.18756917 -4.596678e-06 0.2785035 0.058057737 -0.19736756 -0.025977008 -0.40797138 -0.29101065 0.43379146 0.03874904 0.61270446 0.08700296 0.32462725 0.10877934 -0.24500167 0.26216897
TTTATT -0.0054314192 0.3657848 0.11664105 -0.5677246 -0.42825472 -0.20637162 1.0357962 0.7886372 0.21908282 0.04170763 -0.25211236 -0.018117856 0.2742987 0.09368593 -0.36115617 -0.7227177 0.15285522 0.19986121 0.03383354 -0.20118152 -0.7416463 0.146729 0.42139482 -0.26973185 0.28571093 0.64107084 -0.3784122 -0.27838016 0.39924514 0.13228543 -0.25657693 -0.041954327 -0.2655456 -0.005642447 0.15577872 0.12923808 -0.059969608 0.78709763 -0.009839362 0.15676801 -0.44973147 0.33022583 -0.07949219 0.66653603 0.5290312 -0.39088136 0.185121 -0.20050995 -0.11062244 -0.20380911 0.4939561 0.3687711 0.3830662 -0.0994823 0.20714602 -0.074206814 0.06991789 0.08721869 0.46202186 0.18537202 -0.046740126 0.41582194 -0.23907684 0.26175234
TTATTT 0.2758116 0.3682919 -0.06200387 -0.18679689 -0.27217367 -0.19285652 0.8561624 0.50452465 -0.043240204 0.30648854 -0.54216737 -0.114279024 -0.10564879 -0.093796015 -0.42075595 -0.7222529 0.17503893 0.1144926 0.14816925 0.08520449 -0.4884383 0.24576157 0.27785134 -0.23227417 0.16325182 0.5661476 -0.112730995 -0.120703205 0.6550529 0.23967296 -0.095227264 0.06203861 -0.374588 0.026808746 0.37048158 0.15038936 -0.15442207 0.84664714 0.22755979 -0.025329383 -0.37052038 0.6682462 -0.2327814 0.6036142 0.40964794 -0.47278205 -0.16170713 -0.20462714 -0.09068355 -0.028085787 0.7958024 0.53464776 0.22907706 0.18061727 0.54588443 -0.19270702 -0.034675438 0.08781369 0.46160868 0.049138024 0.0151700815 0.38499293 -0.011067313 0.42565227
AAATAA -0.13446502 0.5970984 -0.58327967 0.15246806 -0.16657892 -0.1013041 0.25417325 -0.36413643 -0.4940546 -0.1843001 0.42401433 -0.30077508 -0.25879472 0.48822013 -0.69581294 -0.23184691 0.06513914 0.05718386 0.12502424 0.42163423 -0.5225648 -0.03677827 0.16082194 -0.34439775 -0.17430003 -0.31223318 -0.26012057 0.0037553993 0.5351698 -0.07499824 -0.13526362 -0.10099946 -0.042425442 0.09481031 -0.21512008 0.7760826 -0.30423272 0.40732646 0.4164425 0.43665382 -0.769322 0.33889645 -0.24110565 -0.60307485 0.8698873 -0.072507955 0.16435206 0.01124539 -0.05560751 -0.27104568 0.41028264 0.17406942 -0.007547857 -0.28883922 -0.2165315 -0.024400765 0.5024406 -0.07352548 0.7136738 -0.29308996 0.15042543 -0.015306436 -0.16708851 0.3240826
AAAAAG 0.14300235 0.8285894 -0.07573008 -0.2434435 0.10635691 -0.20323771 -0.30086964 0.1863647 0.342163 0.03944255 0.38251892 -0.5498167 -0.16767024 -0.15294209 -0.43427294 -0.15827276 0.20121303 0.15717866 0.18976954 0.41679928 -0.54362416 0.3431442 -0.17724416 -0.2605222 -0.7914224 -0.054697312 -0.7226834 0.30354062 -0.0010315063 0.29776463 -0.044566356 0.299848 -0.27689743 -0.02219748 0.18523447 0.49663928 -0.5431703 0.1668678 0.2432823 0.6607128 0.12076071 0.13891105 0.24820967 -0.38867143 0.82058764 -0.8236479 0.21374628 0.054459713 0.115802936 -0.48334825 0.18614171 0.1370343 0.08099853 -0.12159067 -0.2935951 0.12543838 0.34359765 -0.60777485 0.31094393 0.06875634 0.16512878 0.48387915 -0.08622045 0.40534306
CTTTTT 0.6962337 -0.016998768 -0.17220594 -0.10878195 -0.42062846 -0.5783945 0.12481161 0.08813901 0.68989813 -0.04705716 -0.10812107 0.1985859 -0.24504368 -0.021353172 -0.68439555 -0.28852475 0.0919014 0.2881321 0.3196093 0.6565799 -0.52549714 -0.14584908 0.34639558 -0.39493906 0.35252687 0.5488372 -0.63001436 -0.13730805 0.106137395 -0.129092 -0.34702188 0.18163869 -0.34422493 -0.1685509 -0.18095568 -0.15314798 0.02768872 0.5300789 -0.11884173 0.431519 -0.48966235 0.33765256 0.4168743 0.2536508 0.43471545 0.06487149 0.13711628 0.08055671 -0.22902022 0.0122274775 0.20525014 0.8404654 0.60518557 -0.42763802 0.63479304 0.2908198 0.39064208 0.5255454 0.3150823 0.22359987 -0.18585946 0.15708254 -0.31392914 0.2734348
CTGCAG -0.11082875 0.09290178 0.34885517 -0.022657221 0.14198126 -0.005004488 0.08893129 -0.22810909 1.0471082 0.40876296 0.45922625 0.03177849 0.46956354 -0.008401301 0.008903567 0.14081764 0.06533691 0.19814846 -0.2664642 0.68031216 0.08414756 0.16124274 0.13824634 0.25125134 -0.7015526 0.0035964604 -0.13171919 0.04763785 -0.28256232 0.21386737 -0.012807142 -0.14697434 -0.36951476 0.3809365 -0.050148074 0.20528272 -0.29909652 1.0665299 -0.72580993 -0.18481368 -0.41150576 0.11633663 0.027878057 0.24395221 -0.341854 0.20063756 0.0030172563 -0.39200717 -0.54470044 -0.27612543 -0.083560064 0.015926706 -0.3720582 0.09445091 0.42547095 0.2420629 0.07509395 -0.073012546 0.42545754 -0.43717134 -0.59765166 -0.6766601 -0.0795912 -0.39421982
TTTTGT 0.4185325 0.37606207 -0.38320822 -0.16054103 0.057081826 -0.9936407 0.025811644 0.09485282 -0.13777794 0.1460566 0.027294919 0.12596054 -0.2233176 -0.39877594 -0.6470722 -0.49887478 0.5187966 0.01453468 0.21908656 0.41839284 -0.18202685 -0.0821807 0.5816235 -0.11354867 0.7437927 0.35318092 -0.43122855 -0.07472546 -0.08927035 0.10333029 -0.52550507 0.38087156 0.2440309 0.34531766 0.108460024 -0.045735467 -0.59532636 0.83477885 0.15523174 0.5557336 -0.5291588 0.43764085 -0.04938351 0.21646763 -0.08977108 -0.32359022 0.6106874 -0.214807 -0.01974991 0.56206685 0.30772465 0.60200703 0.20693047 -0.37690127 0.43708268 -0.070994444 -0.037356224 0.4101764 0.18420893 -0.10358506 -0.22057056 0.36117938 0.43525735 0.39295793
CATTTT 0.53766894 0.37411398 -0.04846616 0.28354773 0.20566197 -0.41162074 0.0919565 0.27228174 0.32023764 0.83489156 -0.35932037 0.19638816 -0.49209687 0.047010213 -0.9439152 -0.6682406 -0.24507816 -0.36502323 0.23356399 0.16586715 -0.02146608 0.06242216 0.46867615 0.06752552 0.40110293 0.23156413 0.034112915 0.19073717 0.11620459 0.3463987 -0.5544685 -0.22314623 -0.27293462 0.29539105 -0.29049495 0.124238715 -0.80928177 0.46348196 -0.010177204 0.12090528 -0.46848372 0.07664697 -0.249711 0.45856267 0.82573384 -0.15527189 0.48456952 -0.051021755 -0.12812427 0.06427444 -0.17123055 0.7446224 0.7588902 0.53118485 0.21654646 0.10315219 -0.030001607 0.17487307 0.36153874 0.16106959 0.15618551 0.033683196 -0.19778334 0.35097474
ATAAAA 0.4071429 0.95823544 -0.43004352 0.4797982 -0.0051332098 -0.122512184 0.02927859 -0.118949264 0.041388594 -0.39370543 0.56902486 -0.3046259 -0.39274928 -0.4869833 -0.39786214 -0.38015938 0.41482577 0.24189693 0.18985693 0.14528629 -0.8553217 -0.11141351 0.22800271 -0.26846418 -0.3258425 -0.019233588 -0.29790267 0.3132388 0.15023124 -0.062426526 -0.07852855 -0.1612685 0.011406811 0.3204654 -0.18627715 0.91704154 -0.2890011 0.4318567 0.5419178 0.08159969 -0.40215316 0.4596503 -0.34689605 -0.41151446 0.7322869 -0.31269386 0.16049512 0.04379706 -0.35873693 -0.3859185 0.124109626 0.2780256 -0.27655965 0.31076998 -0.5100796 0.06272809 0.28673443 -0.026888356 0.6155057 0.08928777 0.26450706 0.3904416 -0.5034731 -0.052046396
TTTTAT 0.11824078 0.28174573 -0.11556629 -0.72688407 -0.5503809 -0.12084079 0.8500472 0.6510327 0.07720081 0.12494954 -0.13366023 0.16741087 -0.055409025 0.105640024 -0.5351096 -0.6263313 0.114353865 -0.07178281 0.02344365 0.030708903 -1.0896574 -0.23474854 0.3618524 -0.41065773 0.70869744 0.33967787 -0.5591749 0.18344353 0.059779644 0.0361988 -0.18942255 -0.10578586 -0.21636945 0.37690848 -0.19513863 0.24984583 -0.010962176 0.8546752 -0.1289114 0.43491936 -0.3721275 0.32150573 0.11944681 0.6412697 0.47793734 -0.33378914 0.2246787 -0.38518587 -0.07949696 -0.15309352 0.25319937 0.1813057 0.3469957 -0.124161735 0.24485828 0.14012192 0.02751989 0.29294878 0.5409696 0.05571499 -0.23412275 0.4599813 -0.20738846 0.5217376
AAAATG -0.49998268 0.41031668 -0.39154232 -0.21275882 -0.29028058 0.09739496 -0.36185944 -0.032037836 -0.18260564 -0.060763728 0.15864027 -0.5161834 0.6414086 0.26250243 -0.54889834 0.095083304 0.006426028 -0.025359822 -0.034412257 0.65838134 -0.725134 0.21428102 0.035936005 -0.14602913 -0.27931565 0.6951818 0.12525295 -0.096839115 0.448407 0.3710164 0.06159028 -0.16338201 -0.10850524 0.7273138 0.24467532 0.43532085 0.30724815 0.4982386 0.2979265 0.05654559 -0.082852446 0.50452197 -0.20124088 -0.8221292 0.63021916 -0.36998197 0.45147306 0.16448678 0.30632275 -0.438219 0.14771861 0.44587818 0.3090835 -0.19563866 -0.2732877 0.3345636 0.15604387 -0.054386124 0.28560677 -0.35265312 -0.19080703 0.9649812 -0.1129874 0.22374998
ACAAAA -0.32565376 0.47275507 -0.019667363 0.37956133 0.08344157 -0.22733854 -0.25674146 0.66910416 -0.29447278 -0.5811492 0.06835879 -0.511276 -0.0053388053 -0.26987505 -0.41461375 -0.15548885 0.11012867 0.1435514 -0.12985171 0.39453927 -0.51319027 0.002087735 -0.46080172 -0.31346807 -0.6514659 0.023336055 -0.11465249 -0.18672672 0.02680421 -0.14360167 -0.10259413 0.03129946 -0.5383795 -0.1889136 0.00039087818 0.25849754 -0.73972845 0.32052374 0.27867317 0.06023127 -0.54442966 0.21809976 0.074706934 -0.12686923 1.1385123 -0.6029631 0.28770262 0.10117981 0.5633272 -0.6518649 -0.0582247 0.75057524 -0.3788387 0.12836453 -0.6854452 0.30223465 0.24856827 -0.010207111 0.3064953 -0.22890592 -0.2495353 0.44945925 -0.22046432 0.1674175
GCTGCT -0.020799411 -0.030422254 0.51030487 -0.2968786 -0.6747042 -0.07429895 -0.26120618 0.17174892 0.32444826 0.43978745 -0.4365687 0.3998388 -0.009845911 0.5181122 0.010240599 0.06977857 0.3262039 0.18815401 0.2079018 0.13032192 0.11450827 -0.03405432 0.99103343 -0.092820376 -0.474485 -0.06856356 0.27087742 -0.32854512 -0.20115834 0.292289 -0.40155643 0.50091094 0.06106017 0.25479507 0.24727257 0.41967326 -0.09912379 0.31362203 -0.35082176 0.038945463 -0.5111261 1.0596457 0.33401227 -0.094333835 0.07337748 0.05267401 -0.5199255 -0.11635039 -0.6189021 -0.2634094 -0.5197541 -0.2286802 0.062381607 -0.024968212 -0.06352071 0.28155214 0.032715403 0.3234633 0.5718951 -0.17482798 -0.03441875 0.20560983 0.3058064 -0.18065877
AGCAGC -0.33317208 -0.13205387 0.22417751 0.19649346 0.16495104 0.062324263 -0.307379 0.33350626 0.33026406 0.75372535 -0.26038033 -0.19867879 0.30022585 0.5673119 -0.28254163 -0.761449 0.7434088 -0.2312187 0.6069013 0.60957235 -0.06722163 -0.10422684 0.31575418 -0.12268609 -0.25949138 -0.0058717355 0.34811932 0.21016058 -0.09326163 -0.1212358 -0.31160828 0.1429879 0.19349426 -0.18434809 0.6087445 0.16674349 0.051255714 0.6184533 -0.2995357 -0.26495913 0.3050157 0.273252 0.48036158 0.109907925 0.02066198 -0.3708144 0.11748203 -0.34881774 -0.3125954 -0.20473205 0.112621725 0.06228714 -0.41931865 -0.07960831 -0.5712968 0.010436678 0.36130226 -0.5264173 0.33433816 -0.05978554 0.038274795 -0.45461807 -0.49967247 -0.28300518
AAAATT 0.17219001 0.5478051 0.35523766 0.06269649 -0.3810748 0.29876468 0.2849283 0.016209962 -0.28758922 0.04321788 0.30563894 -0.30224866 0.23210889 0.056977488 -0.57467616 -0.5350269 -0.21663618 -0.20783651 -0.139226 0.50552166 -0.46129063 0.8581043 0.39755148 -0.158611 -0.09091591 0.4413978 0.009303947 -0.02636379 0.26145336 -0.08147938 -0.10056806 -0.20104977 -0.5581873 -0.32288536 -0.010208496 0.6202088 -0.25356314 0.73091906 0.58223295 -0.077523164 -0.27349225 0.20487145 0.08976499 -0.4662204 1.3136953 -0.23982798 0.4571452 0.0010337095 0.38585383 -0.44201532 0.39183554 0.84753424 -0.021150632 -0.41867715 -0.40710488 -0.10557341 0.1857611 -0.15181209 0.46335563 0.19848481 0.35524973 0.11012787 0.554739 0.24980076
AATTTT 0.602585 0.42302492 0.16286066 0.40470845 -0.21934792 -0.18952206 0.23403692 -0.06693006 -0.08046049 0.29327476 -0.22556566 -0.14735055 -0.1051568 -0.094135955 -0.8185003 -0.25896236 -0.1867513 -0.46525884 -0.20059331 0.73626804 -0.34504643 0.59706163 0.52703965 -0.24146158 0.39054763 0.48732156 0.03433438 -0.21578917 0.28241134 -0.09120043 -0.34942248 0.264634 -0.22929797 0.20681034 -0.7683296 0.34556985 -0.3707828 1.1204739 0.18143894 0.09384721 -0.064752035 0.40958172 -0.07429307 0.19995193 0.6639432 -0.40372193 0.05289939 0.25955677 0.058706455 0.3148902 0.5075673 0.49308643 0.15976907 -0.49548376 -0.1681793 -0.5055592 -0.010816491 0.14772733 0.7814122 0.32707593 0.20946315 0.04932548 0.54556775 0.6785906
AAAAGA 0.057982095 0.8100025 0.15740147 -0.0005328095 -0.22876339 0.07760523 -0.20529728 0.16319317 0.40805164 -0.27178693 0.40980804 -0.49729717 -0.07439725 -0.0013154119 -0.4024685 0.29690605 0.260386 -0.018355832 0.30343214 0.15392736 -0.77156216 0.3835615 0.096622564 -0.5358759 -0.57736105 -0.06301523 -0.37704393 0.16917054 0.28032228 0.45036718 -0.16023551 0.3302472 -0.39698702 -0.0015983466 0.1260065 -0.031624474 -0.6090327 -0.08265473 0.311553 0.71654576 0.10010132 0.032354835 0.051068537 -0.5113668 0.9074629 -0.6347863 0.1764679 -0.6161545 -0.14384419 0.024786187 0.5289606 0.1027883 0.07400168 -0.23555237 -0.39232484 0.44249907 0.11413221 -0.48331833 0.20888174 -0.13550664 0.36853224 0.40257707 -0.14697531 0.6714954
TCTTTT 0.5392759 0.45705807 -0.08877766 -0.039912637 -0.36637637 -0.4270658 -0.0740777 0.3504274 0.57637197 0.034492213 -0.18678035 -0.012122027 -0.24642232 -0.18549679 -0.781412 -0.49006778 0.4154117 0.37088272 0.069641925 0.4223519 -0.42075065 -0.007229169 -0.0068289316 -0.5305163 0.018747715 0.60799986 -0.4233 -0.14945537 0.096766844 0.013062368 -0.3250691 -0.45786893 -0.35501012 0.012628097 -0.18675318 -0.28614113 -0.026347911 0.16816485 0.20646293 0.052941192 -0.3652736 0.23885153 0.47621176 0.55604863 0.38912216 0.58115876 0.4831701 0.50528824 -0.39637485 0.02186227 0.19750224 0.6347145 0.40937206 -0.38513717 0.6285229 -0.03136398 0.57852525 0.52615315 0.64861375 0.11574061 -0.023868976 0.043150555 0.0726574 0.66710025
CAAAAA -0.1890554 0.33469263 -0.057560246 0.20953481 -0.08202768 -0.13556017 -0.54534173 0.3802994 -0.3075746 -0.49023014 0.11600476 -0.28483427 -0.03330726 0.1279574 -0.061742723 -0.2753807 -0.23284 0.26538873 0.24249113 0.3329181 -0.72656363 0.23828469 -0.13738616 -0.38220945 -0.32405934 -0.22553797 0.075196564 0.19720253 0.106092274 0.17583081 -0.050762687 0.1451272 -0.76822466 -0.14880693 0.13627686 0.38481382 -0.6849698 0.15275528 0.03171726 0.13187578 -0.34638044 0.035102583 0.16241692 -0.21754853 1.0412492 -0.7477174 0.7895407 0.13947617 0.08932053 -0.7147349 0.035451133 0.5584484 -0.23713638 -0.08053168 -0.36931467 0.38583487 0.15524623 -0.17354885 0.41972432 -0.27701512 0.046090998 0.5026406 -0.15341361 0.6937197
TTTTTG 0.62333244 0.54741615 -0.17745906 0.108273335 0.33611655 -0.65966696 0.021661699 0.49554572 -0.12541191 0.3965007 0.019821083 -0.15356357 -0.48133507 -0.2401274 -0.5530862 -0.563787 0.26609263 -0.09119197 -0.110133976 0.41426677 -0.49143347 -0.19198954 0.7739266 -0.30848002 0.5315476 0.50100267 -0.3949352 -0.32611468 0.18166141 0.3477677 -0.34529504 0.44589245 0.022765312 0.33795843 0.13236009 -0.27331308 0.10256698 0.468653 0.13042168 0.32066283 -0.5266698 0.38892376 0.07688732 -0.015151168 0.1902769 -0.10695674 0.48132083 0.03003596 -0.12074648 0.753518 0.27200338 0.5580229 0.4233167 -0.406151 0.54397315 -0.058199517 -0.036027104 0.4238603 0.29203793 0.10068959 -0.21250463 0.24898684 0.0036594612 0.3096775
CAGCTG -0.03387378 0.29402503 0.30191952 0.124785975 0.25111893 0.01869326 -0.16345792 0.3772902 0.21463315 0.4931661 -0.48645157 0.15476967 0.17140535 0.63881534 0.3158131 -0.16945286 0.521769 -0.5607701 0.56452817 -0.1702748 -0.27128223 -0.2592041 0.72615784 0.23812598 0.06351804 0.18365468 0.25451258 -0.35408485 -0.23125502 0.3958103 -0.004122786 -0.022523446 0.18477844 0.06278035 0.35243613 0.38351053 -0.08130734 0.53800756 -0.21879852 -0.21399695 -0.32297817 0.90777385 0.6374169 -0.11624303 0.09747807 -0.026699113 0.21294414 -0.07208341 -0.3335028 -0.49109328 -0.112173 -0.12557036 -0.7843189 -0.074382514 -0.47802633 0.7707902 0.31742406 -0.0075929486 0.14117043 -0.16724682 -0.24256705 -0.21693051 0.118998736 0.1739313
TGAAAA 0.68634623 -0.031625133 -0.34384608 -0.67521715 0.3829544 0.103990264 -0.045590635 0.36583552 -0.3824264 -0.24689071 0.5291234 -0.17285869 -0.1993219 0.39524746 -0.26426297 0.1662399 0.39966607 0.41446367 -0.030870566 0.47334355 -0.42968452 0.3615477 0.14758144 -0.2574208 -0.47607467 -0.010522735 -0.9108826 0.07614543 -0.06563213 0.43587306 -0.06767468 0.055112205 -0.2666578 -0.100501195 -0.056249138 0.6165027 -0.20599069 0.5760039 0.45595297 0.07902482 0.20995308 0.0005960464 -0.07475584 -0.30785072 0.87504286 0.14749117 0.0055559753 -0.13392071 -0.05495634 -0.3967401 0.013962092 0.84535134 -0.48667005 0.13524602 -0.3311046 -0.2865095 -0.11173116 -0.036764387 0.36718994 -0.49566713 0.15699688 0.55355775 -0.3817597 0.27527925
TTTTCA 0.5941693 -0.1094433 -0.3588415 -0.55497396 -0.045008376 -0.17338048 0.44822457 0.19889782 0.38137388 -0.22076066 -0.020695658 0.4869886 0.28837633 -0.2146347 -0.7243812 -0.8684612 0.33385393 0.10277933 0.21555264 0.315366 -0.056206916 0.054857243 -0.03383036 0.0013984691 -0.12533288 0.26202542 -0.08292447 -0.14295001 0.24490342 0.0009371169 -0.3408948 0.12768885 -0.037361927 -0.031704996 -0.56758523 0.080959864 -0.21469676 0.5288796 -0.44721034 -0.03723931 -0.44545805 0.055300735 0.12240445 -0.024887836 0.55858415 -0.6511849 0.057048235 -0.097392745 0.07949502 0.7956499 0.5363275 -0.11699137 0.19039232 0.024527263 0.57447714 -0.031954702 0.053198308 0.5467986 0.56709903 -0.138589 0.066121295 0.37315145 -0.6658499 0.6001344
CCCAGC 0.57654935 0.022701517 0.092519544 0.18834417 0.30514878 -0.42536062 -0.017433649 0.14877705 0.20814596 0.8162838 0.20371845 -0.06987237 0.68575203 0.4139237 0.22004965 -0.44708207 0.3077632 -0.45420757 1.0799096 -0.113111 0.07490491 0.090412624 0.4150128 -0.28701255 -0.01088173 -0.5375725 0.40771464 0.31204942 0.7117139 -0.13071448 0.03785598 0.49408212 0.43904313 0.43026158 0.639287 -0.21507585 -0.19840927 0.54259926 -0.4273672 0.055013195 0.4641406 0.49465334 0.4737807 0.035216957 0.32979476 0.42454794 0.20915885 0.2222185 -0.1194401 -0.5168738 0.08270318 0.43516517 -0.71178854 -0.34273344 -0.17938781 -0.150845 0.12859209 0.09678024 0.097760275 -0.40848535 -0.077317014 -0.4630278 -0.16598563 -0.37943286
GCTGGG 0.38081297 0.1558212 0.3812434 -0.28802782 -0.3282277 0.15260316 -0.50676733 0.6574875 0.035582304 0.08025633 -0.21988647 0.29785356 0.27469355 0.13766488 0.104142584 -0.08650987 0.16053468 -0.24602818 -0.16243704 0.2070342 0.21363655 -0.5488643 -0.15664959 0.11440783 -0.25416034 -0.100193985 0.24420777 -0.43261698 -0.39118165 1.2074662 -0.16773503 0.9134471 -0.31343716 -0.23215681 -0.0085596545 0.027823243 0.12673813 0.28615922 -0.5997628 -0.2557797 -0.8830839 0.84394306 0.31647664 -0.36712572 0.35875294 -0.14095798 -0.2826166 -0.04853605 0.0067614093 -0.5736598 -0.028436307 -0.33362016 -0.46055263 -0.5345952 0.27426276 0.561231 -0.28774828 -0.21068478 0.73105067 0.32931823 0.10736562 -0.23975709 0.10072179 -0.07959496
GAGGAG 0.21583697 0.12395407 0.21334761 -0.6086635 -0.23031728 0.035106383 -0.12244534 0.43508285 0.45433366 0.40391448 0.22378923 -0.7533801 -0.16989228 0.2558053 -0.0061303214 -0.13836604 0.2393941 0.41920868 0.5822853 0.5803083 -0.018917548 0.34485227 -0.10885931 -0.13734023 -0.54136497 -0.035438687 -0.14474486 0.336359 0.3834935 0.20662117 -0.37893364 0.30134162 0.20559981 0.52574867 0.12654184 -0.27036673 0.1925273 -0.0031957363 0.0395861 -0.3292852 -0.34381792 0.37032542 -0.24063975 -0.2902184 -0.08744533 -0.6499285 -0.15720418 -0.67472327 -0.210687 -0.033944968 -0.1480116 0.033223283 -0.3729607 -0.48085585 -0.39733696 -0.080621965 -0.28190464 -0.09012066 -0.100429334 0.37461555 -0.39032653 -0.74714905 0.25993225 0.049526725
CTCCTC -0.040846635 -0.19587429 -0.12867883 0.08124651 -0.50418377 0.07114246 -0.4097618 0.39652652 0.08912008 0.09457631 -0.32903564 0.34236762 -0.3257294 0.03734288 0.080428 -0.5884417 -0.034982245 0.1564739 0.23486741 0.14647074 0.16408679 0.56897384 -0.12360625 0.16973218 -0.3727868 0.6524058 -0.11820765 -0.3882774 0.4449342 -0.36077377 0.055019867 0.3103547 -0.06915013 0.5081835 0.10325962 0.21551123 -0.36545765 0.12855013 -0.8677846 0.48348343 0.090597205 0.064046 0.6066242 0.21487933 0.44379574 0.6555144 0.1265114 -0.6783432 -0.23943137 -0.32846642 -0.18234098 0.0058048586 0.027081084 -0.26611674 0.26474002 0.12214751 0.05991708 -0.022297107 0.8263644 -0.16465676 0.0074727847 -0.45854965 0.058189094 -0.14303738
ATTTTA 0.2566097 0.66330266 -0.4836047 -0.07360815 -0.21980776 -0.12103177 0.42604157 0.35019773 0.01651841 0.09513068 -0.33321813 -0.39057663 -0.2347363 0.21331668 -0.864549 -0.47911397 -0.21475999 -0.07550984 -0.24317579 0.19540901 -0.67574763 0.2736429 0.23963436 -0.19100378 0.16458978 0.22593427 -0.08108219 0.26126203 -0.11338421 0.10174452 -0.26601914 -0.06659067 0.13949534 0.3791772 -0.66240555 0.023114635 -0.67676187 0.9565949 0.009603172 0.28020987 -0.4293015 0.56258166 -0.38743392 1.0365669 0.6662356 -0.4293462 0.20220707 0.11379184 -0.06225074 0.0007884424 0.019587735 0.21562204 0.42886728 0.15717293 0.07250149 -0.32025042 -0.07488187 -0.14467226 0.47953603 0.01216559 0.02209382 0.16145141 -0.2459914 0.28860348
AGGAGG 0.10110601 0.09726946 0.018226821 -0.25147274 -0.4612096 0.099182375 -0.16317986 0.47375852 0.5552662 0.59686655 0.17605412 -0.52342147 -0.11289151 0.29127565 0.19272332 -0.07241469 0.07008747 0.20086548 0.6418684 0.62332696 -0.29316625 0.30251303 0.2690863 0.5471469 -0.3893447 0.19892646 -0.1478134 0.52067983 0.35268128 0.28362986 -0.49390283 0.41448826 0.20439377 0.42767993 -0.14814799 -0.23797286 0.07181137 -0.38211653 0.058522753 -0.12575668 -0.244744 0.5038766 0.12664889 -0.4151264 -0.17018466 -0.68605465 -0.015399869 -0.23173621 -0.029674219 -0.31124774 0.011898202 0.14696822 -0.57608294 -0.24350871 -0.29745314 -0.28037453 -0.4177659 -0.12853752 0.22100057 0.490253 -0.59573895 -0.40738627 0.3438861 0.295072
CTGGAG 0.37974814 0.43220255 0.27314028 -0.20708023 0.11772502 0.26015198 -0.07722995 0.16968803 0.44659653 0.16319306 0.565563 -0.6790846 -0.6909153 -0.10474391 0.12045851 0.061840337 0.049938556 0.40883118 0.41547185 0.12480113 0.66041815 0.07637817 -0.10128661 -0.012620517 -0.19500253 0.055948976 -0.03738454 0.14514993 -0.021933949 0.4641375 0.30535874 0.530419 -0.73569506 0.19301806 0.09779093 0.07642824 0.2775104 0.55911934 -0.72206527 -0.50844204 -0.3317621 0.48213506 -0.46136472 0.008719742 0.10569149 -0.25637102 -0.12854703 -0.52525294 -0.338392 -0.25632688 -0.22859345 -0.013060315 -0.08742303 -0.034802947 -0.354026 0.27668902 -0.19925533 0.26840165 0.3964394 0.21866664 -0.39241743 -1.1149652 0.3462265 -0.10721409
CTCCAG 0.16807114 -0.27936995 0.26258358 0.06665059 0.16133612 0.07255392 0.04833495 0.12007416 0.62351805 -0.22905111 0.29322076 -0.50286937 0.59115815 0.4435481 0.20649071 -0.90148044 -0.42648983 -0.0750875 0.19928211 0.1832081 0.14569372 0.04082161 -0.09492359 0.24085556 -0.21512775 0.4158743 -0.2605581 -0.20270607 0.592502 -0.32160142 0.11837845 0.29258138 -0.21179368 0.79672706 -0.0724219 0.027019495 -0.41423234 0.23103903 -0.42105463 0.37519303 0.16014935 0.29577532 0.34193578 0.09232737 -0.15450385 0.6155636 0.40626496 -0.30983493 -0.6426156 -0.7463535 -0.23558642 -0.27041104 -0.05428851 -0.17331572 0.27331272 -0.0696512 0.17914632 -0.24739173 0.8564909 -0.018636512 -0.21205635 -0.5450102 0.074841045 -0.3150274
CCTCCT -0.19834183 -0.21979056 -0.34841126 0.28163266 -0.53341377 -0.031036502 -0.18727718 0.12876274 -0.23488708 0.67616904 -0.2934094 0.39867246 -0.23689486 -0.013600238 0.1833381 -0.48611826 -0.18469302 0.09396913 0.6409709 0.070692085 0.060229428 0.5961835 -0.118278235 0.065278165 -0.38781014 0.6333679 -0.2136265 -0.54473585 -0.034376625 -0.10001202 0.16765465 0.022226697 -0.052975096 0.48118344 0.33281457 -0.10015713 -0.13840151 0.015732821 -0.8794257 0.25704628 0.05056075 0.22608706 0.35592327 0.07477286 0.694815 0.4959021 0.1578056 -0.5050144 -0.1702216 -0.008381948 0.046759784 0.24926974 0.16360615 -0.35387963 -0.054649413 0.4029721 -0.031140503 -0.0042002895 0.73943704 -0.017389512 -0.2284132 -0.67375475 -0.06404098 -0.20200337
TAAAAT 0.1618852 0.5302476 -0.32278234 0.15321957 -0.2384671 0.55405945 0.30927762 -0.01980723 -0.090966426 -0.31609207 0.7617109 -0.100679435 0.18940085 -0.25789794 -0.62317926 -0.23712564 0.16297172 0.30903357 0.059738282 0.35511664 -0.8653214 0.19655162 0.24553667 -0.20551012 0.17203236 0.6329946 -0.013769275 0.08112831 0.375077 -0.0042135995 0.055533405 -0.11533676 0.103199184 0.08173237 0.20600985 0.95934284 -0.23768173 0.48940864 0.36195916 0.027156359 -0.36432278 0.35817114 -0.05301468 -0.40209234 0.79134536 -0.22101729 0.23254342 -0.0049229385 -0.09011768 -0.33262038 0.58064497 0.677159 0.45374125 0.07438461 -0.44917163 0.28891158 0.18373558 0.09802743 0.42976737 -0.31734785 -0.36359838 0.3052574 0.092960455 -0.08249213
GAAGAA -0.04354694 0.14954987 0.050083287 -0.41009426 -0.33674395 0.01534313 -0.09483563 0.30141482 0.44814438 0.114191 0.17719615 -0.3937255 -0.070857 0.52079135 -0.2221587 0.15294309 0.16997509 -0.033740547 -0.12819605 -0.09019627 0.029394072 -0.14853919 0.097870976 -0.090915486 -0.52118194 0.21516177 -0.7865779 0.01662021 0.19834204 0.15545465 -0.060096473 0.10813727 -0.045745783 0.15056622 -0.31354567 -0.14603919 -0.4899153 0.17569321 0.58632874 0.09344776 0.37131304 0.29170352 -0.6333618 -0.2867798 0.61541504 -0.4035639 -0.284497 -0.47192815 -0.40955275 0.107804745 0.0035089802 0.50804394 -0.41880333 -0.5688455 -0.58739936 -0.32373536 -0.1752746 -0.358137 0.32773355 -0.84069484 0.31800333 -0.25284004 -0.092959344 0.18075213
TTCTTC 0.69758314 -0.2889764 0.17059425 -0.09999856 -0.65666616 -0.061064254 -0.17078781 0.25524914 0.12930955 0.03811794 0.17412566 0.28807473 0.11342858 -0.2898203 -0.33462593 -0.52261716 0.5538845 0.161707 0.5139188 0.1469366 -0.04291216 0.15317847 -0.19531219 0.1645312 -0.2933988 0.3487203 -0.23183231 -0.08811827 0.6418739 -0.1392184 0.13288212 -0.6387407 -0.030854473 -0.47085193 0.1319727 -0.10683185 -0.13392335 0.44359896 -0.21248618 -0.40927732 -0.21632765 -0.038125206 0.25565398 0.22335258 0.25078785 0.027704395 0.27497175 -0.38664055 -0.08405434 0.31223416 0.04620745 -0.24510185 0.3065409 -0.1275953 0.084846474 -0.10190963 0.3011724 0.55151486 1.2281679 -0.09516301 0.11129352 0.34040806 0.24739316 0.07800133
ATATTT 0.025234867 0.5346327 -0.11622123 0.16517636 -0.5176615 -0.38127723 0.504367 -0.03779806 -0.18122832 0.32163626 -0.50955796 -0.2763598 -0.7138149 -0.46022698 -1.1554546 -0.87373286 -0.12137737 0.22651474 -0.49796125 0.22625713 -0.2999667 0.5506033 0.38370124 0.08108033 -0.013136771 -0.07171346 -0.014038842 -0.10569231 0.66122645 0.42424834 -0.5384526 0.23006254 -0.36138552 0.24258052 -0.29757673 -0.10236579 -0.44556218 0.8336136 0.3884578 -0.46937406 -0.20415236 0.31724942 -0.362946 0.32114482 0.6731807 -0.18279488 0.09445299 0.32261044 -0.4269194 -0.013896752 0.9446585 0.24118793 0.04256846 0.2686422 -0.13369338 -0.24555044 -0.018175125 0.0035018865 0.49523234 -0.12673579 0.023030046 0.18102436 0.018545147 -0.014941416
AAATAT -0.55861545 0.24362198 -0.050254192 -0.18819964 -0.920858 -0.023080701 0.5328539 -0.18046248 -0.5884101 0.111141585 0.3426709 -0.11997767 -0.3311272 0.20469834 -1.2196931 -0.25296435 -0.25166157 0.31937292 -0.43272233 0.5905915 -0.80794734 0.45062262 0.35535577 -0.13389078 0.23487145 -0.25497252 -0.15336746 -0.20529976 0.702011 0.24166954 -0.19316006 -0.011212536 -0.20586994 0.12321208 0.011722507 0.2999289 -0.040697463 0.48158604 0.2801093 -0.05209687 -0.096124604 0.08510435 0.17412822 -0.37655386 1.0100195 -0.16367148 0.46237323 -0.39986783 0.040962853 -0.43291628 1.0500939 0.18729971 0.021588383 -0.2317941 -0.29388836 0.14584017 0.22971524 0.08732766 0.46079212 -0.73285824 -0.05953447 0.14073324 0.0873726 0.06863881
CCTGGG 0.18854344 -0.18752417 0.38655093 -0.18783098 0.007450003 0.039662424 -0.20351459 -0.024673047 -0.09412635 0.1822006 0.2251065 0.12872848 0.0526548 0.19493452 0.3488113 -0.3904399 -0.29499468 -0.3238337 0.34964547 -0.07618985 0.4450595 0.32512978 -0.6868504 0.23243849 0.17703708 0.107809156 -0.3746042 -0.30368218 -0.045670163 0.7087456 -0.046687245 0.6650357 -0.38225514 0.002721017 0.24282978 -0.91115767 0.12022475 0.021516794 -0.71964633 -0.21528262 -0.1909476 0.7166931 -0.050560944 -0.14271045 0.671607 0.15550667 0.16648914 -0.039147135 -0.13871273 -0.4412415 0.44102415 0.31867012 -0.35667616 -0.47867277 0.110456735 0.84355515 -0.6232818 -0.22093946 0.745186 -0.0023793667 -0.70455474 -0.5706376 -0.40444696 -0.19470792
CCCAGG 0.61770785 -0.13253716 -0.2855556 0.26309612 0.04184544 -0.053590417 -0.0661704 0.24016158 -0.0104740225 0.60493547 0.60228604 -0.4859044 0.30143228 0.023183187 0.0038255376 -0.2529144 -0.23304683 -0.2638209 0.73821336 0.13594179 0.5932425 0.07782118 0.40869787 0.64057475 -0.38821313 -0.25337118 -0.056947462 0.12229002 0.7714643 0.5275206 0.7326043 0.91138506 0.1224434 0.3371536 0.14429756 -0.42585763 -0.1559588 -0.12427785 -0.3992278 -0.008425333 -0.08187104 0.345 0.3993876 -0.24824095 -0.022771984 0.17147723 0.260558 0.11219975 -0.09586527 -0.79322016 0.27286735 0.08453493 -0.815664 0.053063482 0.124366984 -0.22531657 -0.09900856 0.25900137 0.5506702 0.10919226 -0.5414993 -0.24029562 0.55419683 0.13325241
TTGTTT 0.07478595 -0.038020108 -0.06424665 -0.23093136 0.05683844 -0.52582896 0.42890564 0.34851047 0.14576139 -0.44975314 0.19659756 0.16996787 0.034048926 -0.10554746 -0.7400459 -0.7873577 0.3494561 0.13551055 0.2584758 -0.14036377 -0.15317085 0.20928757 0.64646727 -0.41318527 0.17896786 0.30398062 -0.6906881 -0.27793613 -0.5236391 -0.36371198 -0.5987828 0.29448336 -0.39495775 0.38798073 0.34017193 -0.15795845 -0.6358386 0.43660203 -0.044159237 -0.15877226 -0.39698952 0.21092202 -0.17300591 0.19050375 0.29337615 -0.2792056 0.36133006 -0.30721724 0.009740771 0.27840477 0.56555456 0.42323554 0.5040623 -0.22417796 0.25389734 -0.20820522 -0.033293206 0.19193797 0.7458946 0.17001918 -0.01854459 0.44156158 0.5906767 0.22125353
TTTGTT 0.37576646 0.14621116 -0.10409529 0.009222657 0.05629695 -0.9048882 0.33604312 0.24410391 -0.01392315 0.041618347 -0.09545099 0.10001872 0.0895215 -0.30855083 -0.72293407 -0.5767903 0.6719886 0.1125879 0.44302788 0.013646992 -0.09700666 0.2780368 0.6920305 -0.31382102 0.41611707 0.36210582 -0.6138826 0.11694295 -0.07557651 -0.15913165 -0.4929112 0.36000985 -0.16058388 0.328486 0.31471688 0.018137908 -0.53628796 0.42404842 0.2067024 0.05468809 -0.5052877 0.35426822 -0.42267156 0.20066924 0.17656131 -0.25644654 0.38824588 -0.17994982 0.0004158294 0.19401756 0.3578905 0.33991018 0.10355902 -0.495708 0.4115902 0.0798345 -0.07144287 0.34719807 0.4088814 -0.0485765 -0.11532212 0.5311718 0.6336254 0.43894997
AAACAA -0.2873357 0.9862657 0.1649333 0.4474767 -0.27841133 -0.32637706 -0.020999657 0.37127364 -0.17098309 -0.2294138 0.56169647 -0.3194438 0.04466983 0.31627375 -0.4503273 -0.20820552 0.46524736 0.67737824 0.044055115 0.6724709 0.102626316 0.13008854 0.097117804 -0.35398617 -0.28214306 0.14673674 -0.33206004 -0.09386578 0.21107247 -0.28369766 0.1662371 0.40254906 -0.39374417 0.14004382 -0.4591033 0.07684546 -0.20524338 0.27252093 0.19306006 0.123804815 -0.3207669 0.11879113 -0.22453323 0.018917961 0.62504834 -0.33782807 -0.054327037 0.057539523 0.46489012 -0.106031075 -0.015020215 0.5643638 -0.5960893 0.25801018 -0.64495456 -0.013661427 0.32805708 -0.072383404 0.5859424 -0.16827554 0.21474163 0.4850103 -0.51846945 0.3060563
AACAAA -0.46770674 0.6143855 -0.106948815 0.41728863 -0.16438626 -0.19151607 0.04316115 0.4936495 -0.34273833 -0.4588942 0.20491642 -0.43740475 0.011935697 0.11539537 -0.45059642 -0.20946571 0.16606878 0.30216435 -0.27157587 0.2402027 0.0027782908 -0.036988318 -0.11621089 -0.30744737 -0.6836584 -0.15092126 -0.17174767 -0.14073054 0.3408951 -0.41696346 0.08486515 0.23100767 -0.37590206 0.06990686 -0.12536441 0.07514166 -0.46854588 0.33009905 0.14481613 0.017479291 -0.40097958 0.38502988 0.037262756 -0.08492468 0.69976974 -0.3971879 0.14812152 -0.0672203 0.61659884 -0.25422445 0.05072608 0.81626123 -0.36513323 0.02238093 -0.7842191 0.2967034 0.40195227 -0.2943808 0.6640563 -0.12596305 0.050833546 0.5526701 -0.49209356 0.4350509
TGCTGC -0.16051246 0.04392585 0.56642765 -0.13682032 -0.25142437 -0.10496017 0.19593057 0.013481158 0.33441707 0.6215417 0.012907879 0.18161051 0.07864977 -0.0110482 0.17149253 -0.0020322532 0.24983606 0.22865157 -0.20262754 0.43090758 -0.17194355 0.2783408 0.61203057 -0.36571607 -0.6683392 -0.28913045 0.13414559 -0.23951484 -0.1762038 0.17213587 0.18305498 0.25774217 0.14946455 0.25069866 0.28860575 0.2873891 -0.23923685 0.45787573 -0.52104944 -0.28472662 -0.45743847 0.9042833 0.11950469 -0.27763873 0.11048904 0.21034938 -0.24303487 -0.10790543 -0.6358665 0.022451915 -0.8001059 -0.12381756 0.03706845 0.06708069 0.63342834 0.11359884 -0.25348732 0.09654424 0.726393 -0.45176136 0.020180257 0.18158802 0.17963213 -0.24350025
TCCTCC 0.1173485 -0.22439887 -0.49857056 -0.21296263 -0.4400492 0.1469171 -0.18484108 0.36920777 -0.068362445 0.23371962 -0.113548234 0.22429195 -0.17515515 -0.12023662 0.29557717 -0.59146786 -0.33919597 -0.048538674 0.40964404 0.3728854 0.075113334 0.5495947 -0.1478729 -0.2292329 -0.00031984225 0.64823973 -0.28609422 -0.42455664 0.41162902 -0.39987642 0.15458797 0.20420533 0.15261634 0.42132634 0.3084638 -0.12010034 -0.62759966 0.0170966 -0.69702494 0.08926395 0.07761554 0.19644345 0.42458487 0.170845 0.25687766 0.57265705 0.21635804 -0.35673043 -0.15380439 -0.016820446 -0.30700284 -0.21986514 -0.14583556 -0.18331888 0.277048 0.11087876 0.26899356 -0.27643824 1.2562405 -0.30405077 0.11061483 -0.50423235 0.060474433 -0.23271711
GGAGGA 0.079581395 0.054983187 0.029471936 -0.51686424 -0.34754664 0.13288106 -0.29913232 0.49372992 0.48123682 0.44024011 0.4945711 -0.8459817 -0.3843029 0.27516407 -0.001963485 -0.0017822812 0.34716928 0.46435142 0.6104303 0.28245142 -0.28708234 0.32218093 0.036152277 0.32379192 -0.0726912 -0.030127604 -0.033650763 0.24529321 0.18763237 0.35424906 -0.018969417 0.37067702 0.050552007 0.47223455 0.038682 -0.3834254 -0.20715618 -0.20413806 0.06796132 -0.55310977 -0.596856 0.2757632 -0.26122898 -0.19063795 0.12572794 -0.656554 -0.53666514 -0.5166563 -0.00047631905 -0.31641287 -0.10461598 0.24811207 -0.20179763 -0.677906 -0.28087318 -0.1843964 -0.32945246 0.09133262 0.117782965 0.06948727 -0.03414964 -0.9046316 0.11901474 0.11141539
GCAGCA -0.2815633 -0.21476962 0.12529302 0.1812714 0.27850974 0.19841966 0.0064122532 0.1256378 0.4050129 0.66520745 -0.00788273 -0.12842129 0.3736081 0.3919338 -0.42772147 -0.12898226 0.6308837 -0.14829288 0.10815918 0.87922627 -0.22825302 -0.40532732 0.30044463 0.24169813 -0.18561208 -0.11879518 0.22373012 0.55005026 -0.03612231 -0.04964798 -0.29788426 0.30885997 -0.071876235 -0.05908755 0.50711375 0.3549924 -0.31012648 0.52758247 -0.60791785 -0.3108563 -0.26266846 -0.3231121 0.06612324 0.3050135 -0.15499367 -0.14500783 0.2712827 -0.46018317 -0.45385352 -0.12185943 -0.08879702 0.24109796 -0.35161006 -0.4154592 -0.18257959 -0.042800423 -0.09492704 -0.42940223 0.5708479 -0.27019396 0.027610112 -0.5576751 -0.6462116 -0.14982423
TTTCCT 0.2435674 -0.25266215 -0.61497456 -0.205605 -0.29107404 0.077841334 0.18518505 0.50008863 -0.24581458 0.54995126 -0.44030514 0.23864217 -0.31031898 -0.077274576 -0.16877423 -0.43728307 -0.07864873 0.40331778 0.4335491 0.100614056 -0.027311793 0.62985325 0.25298178 -0.22436605 -0.018860435 0.7154976 -0.33004192 -0.377273 -0.23812488 -0.27515778 -0.004516303 -0.28446007 0.12745179 0.2060073 0.1906705 -0.22767128 -0.588009 0.6041458 -0.26194778 -0.059978247 0.043876983 0.060557477 -0.22383928 0.11579851 0.3114139 -0.23533651 0.056705713 0.13202015 0.22666258 0.59931314 0.3965457 -0.05220014 0.26493287 -0.039230846 0.12636861 0.3784853 0.29983264 0.35733527 1.4634615 -0.106244534 -0.32340923 -0.04740219 0.08537045 -0.0034143657
GGCTGG 0.16780092 0.6630725 -0.14406744 0.13999613 -0.3009416 0.1334044 -0.6197763 0.6386838 0.041062444 0.112179734 0.08628897 -0.11694026 -0.041058764 0.20384231 -0.07066355 -0.004643615 0.011605251 -0.05743077 0.13230215 -0.31365547 0.54221356 -0.38105944 0.004515681 0.7447422 -0.4565877 -0.017343098 0.33120513 -0.13883556 0.030374667 0.775854 -0.2733525 0.83945155 0.1027846 -0.05103569 0.17277631 0.04064312 0.35488397 0.4017277 -0.25504404 -0.24022928 -0.6658425 0.5780856 -0.11716338 -0.071100265 0.11757418 0.022039073 -0.31950447 0.17585275 -0.3707584 -0.32301086 -0.26286256 -0.30322203 -0.4061333 -0.26204023 -0.36470643 0.50214624 -0.5298803 0.09933454 0.85322195 0.31558144 -0.43034902 0.19304559 0.55474293 -0.13157724
CCAGCC 0.0012209521 -0.27030644 0.4862087 0.35384268 0.18518762 -0.33251092 -0.016378235 0.47440344 0.1509148 0.24770463 0.1717902 -0.10438368 0.3414818 0.24062297 0.1944775 -0.9314209 -0.39835507 -0.40761372 1.3159853 -0.14304376 0.120421864 -0.27073205 0.123604774 -0.22842337 0.06490785 -0.2119847 0.09168484 0.035226423 0.026023341 -0.074904986 0.05640556 0.10814539 0.26552865 0.17903948 0.27917233 -0.305454 0.014713808 0.6473485 -0.20229137 -0.2052457 0.67444193 0.03290214 0.3174344 -0.17235227 0.6428516 0.4224889 0.3958162 -0.133098 -0.5435159 -0.6285955 0.0779517 0.22551309 -0.65403146 -0.39779186 -0.092374146 0.23790297 -0.02524094 -0.17226309 0.33945552 -0.21694052 -0.6407532 -0.44459093 0.08159005 -0.096376434
AGGAAA -0.03380851 0.22315057 -0.43004942 0.035066985 -0.63325834 0.15134726 -0.42527854 0.23072287 0.15794669 0.2121831 0.5009307 -0.40827075 -0.24084492 0.69913256 0.03133886 -0.08416815 0.09969491 0.3104325 0.29185903 0.5996117 -0.4384091 0.11939368 0.36865515 0.5383795 -0.38280794 0.09838614 -0.62205786 0.24549042 0.22382145 -0.075560525 -0.1276317 0.080810085 0.23493764 0.2561037 -0.0073415656 0.16100983 -0.33507404 -0.054708667 0.5618689 -0.21740022 -0.53065735 0.26412168 -0.36713523 -0.36628777 0.4487177 -0.64506406 -0.1860532 -0.081302956 0.3073103 -0.31699112 0.35737696 0.6709163 -0.38070467 0.2711566 -0.12266105 -0.22451043 -0.27032226 -0.05346976 0.28581628 -0.3850434 0.48077533 -0.5807455 -0.22870548 0.6019643
AGAAGA -0.03492357 0.3720578 0.38185382 -0.14974461 -0.34306633 0.32253158 -0.36769384 0.2725512 0.64044523 0.0058599156 -0.06977222 -0.5469223 0.12980713 0.111708954 -0.09958081 0.022897813 0.09075994 -0.17017066 0.098476306 0.01826181 -0.26852527 -0.3174494 0.23038897 -0.20957176 -0.4328271 0.3000867 -0.46970165 -0.052474782 0.28265837 0.20558165 -0.05222742 0.07080092 -0.03508847 0.019643532 -0.2340755 -0.5118374 -0.4002511 -0.0066799005 0.50619656 0.53246385 0.019144295 0.24494745 -0.4991659 -0.29471615 0.57490724 -0.651802 0.123591475 -0.8370476 -0.48686144 0.19203258 0.19866836 -0.06671182 -0.3058138 -0.29079074 -0.48226136 -0.029603751 -0.1457104 -0.3488143 0.16621476 -0.5490599 0.11473442 -0.20200603 -0.01984319 0.20149575
TCTTCT 0.43723878 0.009475136 0.06998386 0.1400246 -0.63677657 -0.045416843 -0.40737122 0.2364163 0.17447859 0.08885412 0.09037059 0.18072838 -0.44064036 0.04794753 -0.19431072 -0.33505157 0.65283906 0.10021681 0.29296705 -0.06421452 0.042408526 0.035720374 -0.1749502 -0.30787373 -0.37347963 0.28564435 -0.18175326 -0.018551337 0.49206033 0.08417663 0.14696664 -0.810414 -0.07254843 -0.12782149 0.10532825 -0.17455423 -0.01789255 0.19994892 -0.09069629 -0.16251174 -0.23572594 0.24578391 0.45531368 0.46452636 -0.00044613253 0.4786225 0.6225132 -0.22911608 -0.26062173 -0.08276238 -0.027972013 0.2934164 0.615583 -0.14381684 0.024855718 -0.11452674 0.2280012 0.54759187 1.0092521 -0.20482656 -0.06501566 0.01757336 0.37439296 0.12717932
CTCCTG -0.27227268 0.00447726 -0.13524325 0.16834483 -0.17494437 0.10994176 -0.4277533 0.100810535 -0.25898618 0.12481617 -0.3771483 0.053925667 -0.16575111 0.58267844 0.68314326 -0.481717 0.15207843 0.13072652 0.4784742 -0.028749742 0.19289806 0.92601174 -0.17784858 0.40393224 0.19368236 0.7467298 -0.65930283 -0.5080718 0.026015302 0.4020359 0.2203961 0.0753042 -0.0579589 0.3377228 -0.067244284 -0.15610296 0.14033689 0.25728548 -0.64204764 0.1057658 -0.20878273 0.52031183 0.25721103 -0.076586604 0.35850757 0.48700896 0.3754374 0.009558507 -0.38394362 -0.066507354 -0.42611164 0.046689562 -0.23337254 -0.08789677 0.10614503 0.42568937 -0.23000878 -0.09285645 0.8402432 -0.45042598 -0.45436564 -0.5589187 -0.045955945 -0.17180508
CAGGAG 0.47154167 -0.112603426 0.09952704 -0.16763851 0.4232361 0.12555708 -0.34418252 0.28624263 0.74142873 0.2705717 0.13819897 -0.4516686 -0.2291674 0.39775208 -0.050377414 -0.54313433 -0.60991806 0.12504107 0.7145458 0.49112728 -0.28755993 -0.21455613 0.43398792 0.7113477 -0.240283 -0.070630245 -0.06806693 0.15357704 0.25292915 0.1840955 0.23257896 0.1410627 0.018734526 0.41989732 0.24134527 -0.15597747 -0.11584882 -0.36624157 -0.26265803 -0.44720683 -0.53345126 0.4514331 0.14661528 -0.25623512 0.002449163 -0.45420107 0.09166168 -0.34939703 -0.25524464 -0.11419086 0.20624192 -0.17312975 -0.55721974 0.09333906 -0.6581394 -0.17755365 -0.05266451 0.2823706 0.28017887 0.112980515 -0.84429044 -0.7310936 0.3533963 0.47764328
CCTCCC 0.18408427 -0.33313555 -0.6826713 0.30366912 -0.37415898 -0.3261888 -0.6481565 0.29791695 -0.1731047 0.35573784 -0.04428578 0.2749287 0.18549126 -0.5219496 -0.04426898 -0.6021786 -0.15944676 -0.24311166 0.6456421 0.09825467 -0.064300515 0.30010396 -0.14417237 -0.29983172 -0.3745319 0.2415713 -0.35681295 -0.025034918 0.5744179 -0.17588355 0.41489422 0.7331707 0.009270464 0.20648251 0.037915803 -0.090953276 -0.28598115 0.19198953 -1.0878738 0.29295722 0.02301957 0.43878168 0.30066574 0.032864697 0.7300201 0.541818 -0.11276728 -0.26707694 -0.15351725 -0.17114581 -0.14960843 -0.08733074 -0.5643475 -0.17732832 0.52066386 0.3590388 -0.14505 -0.16041672 0.6594594 0.118578784 0.3223822 -0.5952647 -0.098222554 -0.15243755
GGGAGG 0.620235 0.017160455 0.059921745 -0.81334347 -0.13709685 -0.13329595 0.005789324 0.40479496 0.29406607 0.6677638 0.42639774 -0.47301129 -0.11452985 0.48565757 0.15176065 0.02802262 0.33788407 0.34395546 0.1577676 0.091661304 0.14343075 0.015764518 -0.033873696 0.13627957 -0.31102586 -0.31125003 0.10478404 0.34275612 0.25453454 0.3838947 -0.439011 0.65512663 0.35753202 0.6043399 0.08026954 -0.33858708 -0.14009182 -0.2956295 -0.09771708 -0.49388695 -0.48429763 0.22500852 0.02028839 -0.1421009 0.17614432 -0.35354182 0.046011373 -0.1585025 0.34010136 -0.4931979 0.030132223 0.43801323 -0.34821382 -1.2396404 0.022968499 0.09702018 -0.28069863 -0.20230557 0.44135427 0.47112483 -0.73530394 -0.5323834 0.022603165 -0.111792386
TGCTGG 0.09880156 0.28848666 0.14058839 -0.1744806 -0.060626455 0.17713496 -0.0247195 0.27909094 -0.0100776 0.4614493 -0.05519888 -0.23795094 -0.1885254 0.073304474 0.18922772 0.044790592 0.01204643 0.11815136 -0.26216 0.18687214 0.10938347 -0.22826461 0.10593032 -0.30002704 -0.3594976 -0.14428873 0.3425438 -0.6750923 -0.4967056 1.171298 0.28505933 0.7656412 -0.25794902 -0.116917096 -0.00714079 -0.039877865 0.15570264 0.27447492 -0.69786686 -0.2668954 -0.43397576 0.80787593 -0.023011712 -0.3324416 0.10743863 -0.2581683 -0.15748942 -0.12987433 -0.34836292 -0.2795268 -0.41121888 -0.2556878 0.016864486 -0.1627257 0.32817867 0.56921285 -0.30041212 0.36238474 1.0266668 -0.0107578235 0.42947719 0.1712379 0.24289492 -0.12137993
CCAGCA 0.049445696 -0.037208423 0.2561865 0.25972039 0.23901172 0.16944729 0.29141423 -0.04535337 0.3017226 0.54014456 0.39532882 -0.2480408 0.6032393 0.5404427 0.022050932 -0.45504633 0.10736436 -0.59062886 0.8643868 0.24552025 -0.33430585 -0.33088845 0.3373965 0.056709047 0.08420749 -0.3755723 0.02831154 0.31498072 0.75237995 -0.28677684 -0.4033495 0.35734597 0.008681497 0.3503429 0.60516346 -0.1097574 -0.35279146 0.32211345 -0.39626774 -0.28790474 0.26241893 0.06215264 0.47624877 0.13078532 -0.06505703 0.23656446 0.71103346 0.17504178 -0.3713787 -0.46327335 0.013943943 0.5550604 -0.38882792 -0.08750517 -0.044936143 -0.18719673 -0.015277621 -0.08048098 0.25020397 -0.3437113 0.20513442 -0.51851165 -0.63376486 -0.20195974
AAATTT 0.20218043 0.59179527 0.038956165 0.25285232 -0.345188 0.21155739 0.38295263 -0.07546203 -0.33800796 0.41870227 -0.18803734 -0.21632463 0.0327881 -0.07580384 -0.7341218 -0.21701905 -0.29705468 -0.41569656 -0.20404859 0.51856464 -0.27678755 0.982375 0.5389221 -0.23962504 -0.18383777 0.35161492 0.18328604 -0.11023994 0.67852086 -0.23985586 -0.36482972 -0.04158042 -0.61841506 0.24323447 -0.23366556 0.5573034 -0.29986033 1.1975259 0.67489946 0.08531917 -0.25582266 0.1522495 0.016574867 -0.22042486 0.77651626 -0.514196 0.3293488 0.14239284 0.3939592 -0.085854925 0.56108826 0.820588 0.20391503 -0.46055937 -0.114619814 -0.14940229 0.13499177 0.082524344 0.54402244 0.13834237 0.19096035 0.0022619402 0.53212094 0.5368222
AGGAAG -0.12866557 -0.0069987862 -0.16716483 -0.088177346 -0.37135145 0.012241532 -0.35311297 0.16563487 0.80655164 0.5820186 0.10879667 -0.42621356 -0.14060155 0.31873402 -0.06622894 -0.2210524 0.28996584 0.034864195 0.39092064 0.11120761 -0.11175665 -0.042380124 -0.07049732 0.36478806 -0.4847513 0.07713313 -0.8807153 0.37767547 0.32824337 0.2559496 -0.0003521578 0.31477046 0.3327779 0.20946535 -0.05590045 -0.13315828 -0.60580343 -0.074390315 0.54245234 -0.23552842 -0.06998982 0.44550243 -0.07031166 -0.25883245 0.029772133 -0.73610497 -0.19475603 -0.10212795 -0.1927113 -0.15231378 0.16271597 0.14207926 -0.16450621 -0.1221865 -0.40759015 -0.4576905 -0.36690146 -0.2951121 0.13278726 -0.3246618 -0.04139862 -0.7254463 0.10290341 0.2795321
TCCTGG 0.12654316 0.38070238 -0.24406944 -0.07501406 -0.113928325 0.53681725 -0.08631584 0.07155285 -0.08436873 0.41244248 0.10782974 -0.13661946 -0.45707744 0.264054 0.47501013 -0.36021817 -0.25158617 0.0064126747 0.30516338 0.060375925 0.47406036 0.603823 -0.5121387 0.21722934 0.633935 0.5123906 -0.2920555 -0.58347315 -0.12685525 0.54783595 0.07082757 0.2870915 -0.2427571 0.064217046 0.22789615 -0.6120125 0.059517127 -0.027767604 -0.4798698 -0.3159133 0.08327528 0.5208809 -0.009724159 0.041243106 0.18940884 0.05336424 0.3247721 0.054375987 -0.061913054 -0.008240237 -0.1422518 0.019388974 -0.13608189 -0.2719456 -0.0591713 0.7637624 -0.14874023 -0.06272794 1.3280619 -0.47206938 -0.42068315 -0.6202072 -0.12865546 -0.022912785
CTTCCT 0.5746335 -0.39220116 -0.22508673 -0.15367202 -0.6183171 0.26340258 -0.19197135 0.18442944 0.012375106 0.24166317 -0.26945 0.16192205 -0.3873661 -0.10138998 0.025342435 0.0038107408 -0.02364699 0.39588845 0.5642267 0.22865379 -0.11205208 0.33088967 -0.062078893 0.22165607 -0.20727932 0.5590802 -0.2961168 -0.41932294 -0.11153776 -0.38513187 0.26194495 -0.3379626 0.09827134 -0.4070442 0.30928603 -0.27139792 -0.11667609 0.41823724 -0.5138887 0.12286232 -0.15995091 0.3030112 0.2497565 -0.033615913 0.36170238 0.23092376 0.3222679 -0.18272008 0.09031811 0.007866239 -0.08597253 0.06585346 0.1341221 -0.32066587 -0.06419076 0.48638228 0.39561304 0.19509831 1.1399602 -0.47978488 -0.25083965 -0.17402244 0.05961326 -0.29606837
CCAGGA 0.28207478 -0.21883051 -0.1835506 0.22225673 -0.0843862 0.351116 -0.15622413 0.27152398 0.44149935 0.024925923 0.5692883 -0.8911025 0.07798331 0.23696639 0.07479725 -0.5018013 -0.5835582 -0.29333624 1.1189685 0.2671238 -0.24264883 0.077509545 0.57242435 0.7297967 -0.061103716 -0.030948315 -0.40867704 -0.13600542 0.5761596 0.31022128 0.57643026 0.37226003 -0.09113772 0.4918768 0.13903034 -0.37827098 -0.45979849 -0.30190295 -0.013900659 -0.51349705 -0.16980629 0.3058352 0.32349247 -0.2686477 -0.1501827 -0.09866967 -0.040789496 -0.073290184 -0.31278664 -0.70045304 0.021333903 0.007335829 -0.24640444 0.18690713 -0.16737238 -0.16313882 -0.17392287 0.3320134 0.3236126 -0.08734443 -0.1265018 -0.6181843 0.24240918 0.5280275
TGAAGA 0.44513395 -0.087211825 0.08442374 -0.6077816 0.22022894 0.083736196 0.22483422 0.20906053 0.4049782 0.023271143 0.06430871 -0.32644284 0.058726683 0.22326833 -0.21808137 0.37899575 0.59298897 -0.03984704 0.10847076 0.103301674 -0.1205368 0.453214 0.016659258 -0.60581565 -0.33393162 -0.1484191 -0.9880615 -0.13078165 0.38325617 0.6467056 -0.008357439 0.33542436 -0.16248462 0.0595372 -0.48135164 -0.29818833 -0.40504333 0.39412344 0.42089662 0.3860028 0.286955 -0.06289843 -0.16857037 -0.040390253 0.56716114 0.058045935 -0.19574438 -0.67526466 -0.77970153 0.18794677 -0.026106754 0.1424913 -0.19187307 -0.23707159 -0.5800712 -0.31433085 -0.34672672 -0.24603769 -0.058907147 -0.5837638 -0.102706015 0.19020174 -0.14012983 0.23942657
CTTCTT 0.6631675 -0.18843861 -0.006970931 0.2684696 -0.67256224 -0.24432282 -0.0503127 0.036374994 0.5866752 0.053427327 -0.033848837 0.20626602 -0.19319728 0.023665663 -0.5325447 -0.22911377 0.19505495 0.26551536 0.62779456 0.1961178 -0.14578909 -0.123977356 0.04209729 0.0294939 -0.30156392 0.35790575 -0.3401076 -0.21037652 0.29960036 -0.13511783 0.095061794 -0.48642334 -0.48913118 -0.47369295 0.18120891 -0.3627772 0.24676062 0.34062797 -0.012644251 0.037768647 -0.42650953 0.2934523 0.6544846 0.14309807 0.046652928 0.37774947 0.16661625 -0.39541227 -0.20772065 -0.2317455 -0.1575448 0.5029331 0.5262707 -0.4650463 -0.027297774 -0.20024344 0.44465083 0.5363851 0.7191437 -0.11299683 0.07324002 0.22232422 0.16669425 -0.055099297
TCTTCA 0.62492174 0.0380516 -0.11183378 -0.3632611 -0.44061816 0.14751683 -0.009087244 -0.05726124 0.5187271 -0.49868515 0.13611417 0.38460612 0.18711965 -0.30838743 -0.599608 -0.6575897 0.52327776 0.17526887 0.19682737 0.10491832 0.27399176 -0.08235624 -0.63449556 0.27873665 -0.5851107 0.13083091 0.1132721 -0.011022905 0.6376648 -0.080112 0.022988023 -0.6043858 -0.24024193 -0.2778048 -0.016329793 -0.0054859673 0.19159508 0.18523204 -0.26040494 -0.1237996 -0.5568457 0.24312632 0.7422533 0.17113546 0.5015557 0.31648245 0.48727623 -0.23281388 -0.058835432 0.23290095 0.058536995 -0.029579302 -0.017511008 -0.19508785 0.26585004 -0.38877925 0.2020212 0.32779232 0.55624366 -0.58111423 0.1186908 0.29471385 -0.23274483 0.49880427
AAGAAG -0.2163679 0.5233804 0.21992177 -0.1929369 -0.34642836 -0.023407249 -0.1531295 0.0064827516 0.7547941 0.39677507 0.059200395 -0.3441533 -0.044129223 0.038747847 -0.14022437 -0.08657289 0.2951888 -0.2868828 0.21081606 0.122068994 0.0065263174 -0.02376653 -0.1482925 -0.31516922 -0.5651684 0.042942613 -0.8302318 -0.06270497 0.27567983 0.37156272 -0.15623052 0.31184882 -0.14946485 0.03089328 -0.16430098 -0.14653276 -0.50197357 0.07433808 0.26192644 0.606988 0.31955782 0.25289905 -0.04776253 -0.32373053 0.40676773 -0.85478985 -0.004795715 -0.16948326 -0.31527236 0.052274972 -0.044055708 -0.1757458 -0.0020501786 -0.40897802 -0.593169 -0.24646819 -0.0315279 -0.81112 0.29587796 -0.4638444 0.030692125 0.11797801 0.08774246 0.28052607
TTTTCC 0.7580435 -0.25754175 -0.38631648 -0.3340155 -0.30028763 -0.18846871 0.0075728595 0.6313688 -0.13287933 0.19909047 -0.26571456 0.0975172 -0.17203 -0.3172057 -0.33291498 -0.6108051 -0.21347241 0.0751957 0.524817 0.5999621 -0.36167818 0.056240372 0.1635543 -0.44147637 0.30298296 0.7576784 -0.46855918 -0.2936076 -0.0028631613 -0.43792692 -0.08880434 0.21770701 0.2814658 0.042778067 -0.14479414 -0.11675354 -0.63610274 0.5894517 -0.3348511 -0.29857808 -0.04988142 -0.041416068 -0.27041057 0.10145068 0.26638928 -0.24005456 -0.09125619 0.0812419 -0.053569578 0.56241715 0.3249524 -0.1761883 -0.07048089 0.22341384 0.6502349 0.38175875 0.5308151 0.29397765 1.2619623 0.09917773 0.036693424 0.10106195 0.032424055 0.07005479
GGAAAA 0.026863636 0.47357512 -0.28013057 -0.40355915 -0.17164797 -0.046982333 -0.4118941 0.27689084 0.048969105 0.04304466 0.8651086 -0.4492795 -0.39472535 0.7980033 -0.1662333 -0.04391129 0.3551393 0.35139722 0.2749573 0.05347101 -0.38635576 0.17752542 -0.08660738 0.3936041 -0.33640763 0.044087134 -0.47651675 0.536116 -0.17179173 0.07699263 -0.05423164 0.03290421 0.082324095 0.22826493 0.1677646 0.30179277 -0.2976598 0.12066935 0.6466971 -0.20941561 -0.4421547 0.061386436 -0.3132347 -0.36198518 0.8184487 -0.4475954 -0.5146455 -0.050228037 0.29020047 -0.6079096 0.22803643 0.9152433 -0.23639214 -0.346342 -0.09455848 0.06337631 -0.10033853 -0.016599 0.4517168 -0.4034191 0.6744304 -0.3253949 -0.21099913 0.24038208
GTTTTT 0.15096967 0.39017886 -0.1741469 -0.5839509 0.17404373 0.014874784 0.0071277283 0.23966253 -0.20456596 -0.112278536 0.12061783 0.36317688 0.07646938 0.19662707 -0.4980456 -0.7864111 0.37512368 -0.08367868 0.11345835 0.24510354 -0.637621 -0.38008595 0.6371194 -0.6379939 0.108377926 0.34911114 -0.74427104 -0.2230673 -0.18694623 -0.4078998 -0.65865344 0.2542592 -0.51120824 0.35278735 0.05597868 0.004596488 -0.22351673 0.012447257 -0.05687884 -0.47111517 -0.27789158 0.1331802 0.013374283 0.44146073 0.6773224 -0.21042772 -0.10480086 -0.22387098 -0.17065305 0.50819385 0.41707724 0.34338322 0.50078815 0.08605923 0.5673164 -0.0415175 0.0610686 0.48906803 0.8364943 0.36400265 -0.37191868 0.13710509 0.35265493 0.4260263
TTTCTG 0.15520507 0.1663895 -0.28042257 0.21671408 -0.41735595 -0.31436318 0.15278235 0.2584395 -0.2852948 0.45202783 0.08982014 0.016255245 -0.15823792 0.2684692 -0.11127371 -0.04156818 0.96928924 -0.20764975 -0.08340141 -0.045741126 0.3068207 0.09561567 0.26888734 -0.43084994 0.13740766 0.12461295 -0.40192702 -0.25608832 0.527931 0.48917052 0.16680165 -0.48754314 0.28123802 0.16926926 -0.11062881 -0.2725439 -0.10255918 1.2476478 -0.08053165 -0.40993553 -0.31316087 0.28845096 0.034172036 0.04594464 -0.2725275 -0.6586181 0.39601108 -0.051982082 -0.27012426 0.54863787 0.20123786 0.14200251 0.55413026 0.1176233 0.57865894 0.48392263 0.05644655 0.5496666 0.8228235 0.09744836 -0.5132738 0.06504542 -0.03764931 0.22150916
AAAAAC 0.14378682 0.84916764 0.25945938 0.020597182 -0.023380212 -0.58329314 -0.1182271 0.2933054 -0.39014933 -0.44540736 0.58594215 -0.47210193 -0.061940815 0.45377195 -0.20360996 -0.21529794 0.289743 0.56464356 0.5575347 0.44299093 -0.40921366 0.4418222 0.5458016 0.0010782798 -0.46142238 0.3324953 0.24170032 0.3927849 -0.10395568 -0.073833875 0.0721527 -0.040459223 -0.20995858 -0.064877644 -0.49586472 0.42810673 -0.25574735 -0.029954188 0.38195258 0.32790694 0.042471558 0.1806174 -0.07995574 -0.13961352 0.5223866 -0.26258805 -0.04180985 -0.29524532 -0.027095912 -0.19286679 0.19329453 0.632442 -0.47443166 0.18176366 -0.20817253 0.2794047 0.14450169 -0.31760693 0.88108426 -0.14664875 0.3021303 0.5243177 -0.6743588 0.29359028
CCCCAG 0.6264421 0.12675814 -0.06969084 0.0205838 0.20248495 -0.22407287 -0.135825 0.394164 0.09584622 0.6776331 0.3532655 -0.36776736 0.6758185 0.018007353 -0.17472784 -0.3963358 -0.09741826 -0.48405585 0.69250023 0.42979053 0.24714383 0.02031649 0.29405195 0.19684476 -0.50550956 -0.5498388 0.07296935 0.08977795 0.89044267 -0.15327017 0.7044456 0.39764664 -0.06298686 0.5460396 0.28897902 -0.35602286 -0.2741682 0.4905178 -0.26281324 0.33728626 0.27586254 0.29698405 0.15811077 0.1647583 0.040030096 0.31771713 0.112525105 0.068728015 -0.16514787 -0.7308918 0.12272901 -0.022556951 -0.7855987 -0.22944021 0.479918 0.07062635 0.08697576 0.31234264 0.29005063 -0.026162129 -0.2141924 -0.38821542 0.021428186 -0.059163377
CTGGGG 0.5489499 -0.08875882 0.45538625 -0.45368412 -0.30978936 -0.11262626 -0.25257394 0.12888399 0.062631264 0.2026229 0.24990268 -0.22535427 -0.20746738 0.14320368 0.30150208 -0.22771002 0.14104664 -0.29553282 -0.26969492 -0.12568153 0.5211857 -0.1258759 -0.45434043 0.1395244 -0.027852997 0.09936036 -0.077588834 -0.06004871 -0.087775484 0.99119776 -0.28723022 0.64426684 -0.6170327 -0.16044444 0.29691002 -0.04652219 -0.04190402 0.4151935 -0.4219597 -0.17987499 -0.4470755 0.43709433 0.2529857 -0.16663218 0.4591016 -0.055048402 -0.2080128 -0.29015684 -0.113639064 -0.53953147 0.17791842 0.36017305 -0.37946585 -0.42917132 0.5356224 1.0182945 -0.4418707 -0.31130522 0.7262941 -0.0314149 -0.4983577 -0.49801016 -0.10369132 -0.06346775
CAGAAA 0.20358326 0.2212544 -0.30178848 -0.07612585 0.05367696 0.14140432 -0.4348594 0.29850954 0.5261512 0.08001198 0.20582145 -0.25124842 -0.16289532 0.4461452 -0.14766447 -0.12697104 -0.33373213 -0.3940142 -0.3944098 0.24472184 -0.57940537 -0.69425863 0.5960659 0.3050338 -0.61639166 0.09482168 -0.10571673 -0.30329564 0.10813016 -0.29417458 0.018875137 -0.4844292 -0.25175375 0.13372628 0.28655648 0.13514851 -0.54640025 0.37892857 0.40694442 0.51733106 -0.17533562 0.13547274 -0.36174288 0.061869174 0.92972803 -0.43405432 0.6373623 -0.2100826 0.10755761 -0.33593848 0.15021543 0.31909898 -0.9338634 0.12607121 -0.020900477 0.3901474 0.03276787 0.055303324 0.34049898 -0.6512086 0.21858187 -0.16393198 -0.14175285 0.28427282
CTGGGC 0.44526702 -0.13378137 0.6004201 0.01864591 -0.2975964 0.11455491 -0.32155082 0.7156462 0.128394 0.018984174 0.12693858 0.31816363 -0.10998836 0.23427813 0.18391947 -0.25112894 0.037916534 -0.31930417 -0.3144532 0.16480692 0.35589975 -0.035846684 -0.6175682 -0.018599747 0.053018752 -0.2510379 -0.018114252 0.08571706 -0.1417266 0.0756318 -0.3390199 0.5290715 -0.7698715 -0.3341464 0.1444191 -0.55090666 0.19596347 0.5784033 -0.7840639 -0.5188956 -0.1664909 0.705058 0.18273646 -0.06479586 0.47078574 0.30454567 0.17568652 -0.13851516 -0.17090811 -0.6281918 -0.21530516 0.10772458 -0.44247094 -0.2972963 0.19286947 0.4782489 -0.96865165 -0.18007849 0.69573313 -0.5131409 -0.31426692 -0.4776992 0.09236262 -0.16945478
TGTGTG 0.094128266 0.47979477 -0.27403918 -1.1200018 -0.13549395 -0.4132942 -0.008674149 -0.21253352 -0.31548095 0.057621926 -0.045009144 0.19037043 -0.04252308 -0.44372118 -0.30111837 0.013481806 1.0011445 -0.092438675 0.015888054 0.3011323 -0.5495672 0.018342422 0.013162052 -0.13803264 0.11793067 -0.2152523 0.04262759 -0.6589146 -0.3092794 0.0396268 0.037196185 0.31219625 0.026044855 0.44272086 0.23943348 -0.35264578 -0.30652454 0.7695369 -0.33874306 -0.09349591 -0.27422777 0.3617444 -0.2442277 -0.5294319 0.051207907 0.22641337 0.48780134 -0.28347903 -0.38357934 -0.17927781 -0.18473597 0.7392147 -0.04673409 0.15108308 0.17554086 -0.26739356 -0.24153519 -0.023369124 0.2747634 0.267544 -0.40505162 -0.06996204 0.3654427 0.014420491
GCCCAG 0.6046272 -0.09995271 0.1759339 0.37316582 0.12413253 -0.001980526 -0.079069234 0.07279109 0.12806636 0.35260445 0.46454448 -0.418163 0.75720704 -0.063304484 0.058618285 -0.47176722 0.4284175 -0.13848263 0.5685418 0.29437894 0.63320625 -0.36480588 0.44330472 0.29728153 -0.594306 -0.5987152 0.11657784 -0.074837506 0.4812083 0.2727301 0.93768436 0.6848569 0.52150273 0.68751734 0.47244155 0.11744678 -0.16077833 0.34118047 0.033863027 0.24425168 -0.13049632 -0.03707704 0.21148378 -0.32959592 0.13594472 0.09383622 0.215513 -0.217067 -0.25866103 -0.22379102 -0.005499481 -0.19422817 -0.55171776 -0.54279757 -0.09937086 -0.055092365 -0.46446896 0.17448068 0.3724189 -0.17468323 -0.088617764 -0.2963016 0.24022461 -0.48295352
CACACA -0.17397094 0.29869622 0.29855168 0.07916615 0.16698271 -0.55629003 0.36446083 0.020599276 0.178986 -0.105837785 0.08448053 0.20897922 0.025878372 -0.1751994 -0.6881713 0.1907885 0.17141946 -0.06399888 -0.010632262 0.26999855 -0.42479652 -0.1245503 -0.3452707 0.0041469946 -0.116940655 0.4301485 0.4389579 0.20826629 0.13453837 0.074663505 -0.04881096 0.45773992 -0.2172356 0.21030433 -0.0371521 -0.1649569 -0.8665185 0.15053909 0.085806966 0.2715486 -0.42417076 -0.09447323 0.7981617 -0.12426748 0.80437 -0.17003 0.18232676 -0.36323333 0.18630198 -0.37681758 -0.3098313 0.11025995 -0.70955944 0.75921375 -0.2527543 -0.11927816 -0.06685758 0.4434623 0.6206406 0.0027703482 -0.26043049 -0.3872772 -0.7119038 0.04479814
AGGCTG 0.022745956 0.93050456 0.017119523 0.15867127 -0.5305078 -0.119094364 -0.487541 0.5961476 0.23975009 0.34618402 -0.3140104 -0.0068065906 0.16335292 0.51603746 0.07900402 0.2377382 0.20503485 0.5377774 0.47262645 -0.22756505 0.12298746 -0.35395834 0.711968 0.6104254 -0.6688294 0.077507004 0.014886904 0.045177925 0.10361067 0.48759648 -0.4089123 0.4430427 0.5245612 0.3096575 0.030769132 -0.010811743 0.40260792 -0.08177154 -0.027699577 -0.31054342 -0.5873364 0.6214847 0.20720224 -0.27216592 0.08065124 0.28180736 0.16857071 0.4216007 -0.46027339 -0.3054054 0.0149119 -0.36530787 -0.69938284 0.19278212 -0.48476192 0.23831257 -0.33722347 -0.11551605 0.2479372 0.24710506 -0.638176 0.33825502 0.54071677 -0.051160175
GCCTGG -0.24549806 0.09927638 0.14291969 0.4815735 0.16348325 0.36141106 -0.054136787 0.13043296 0.11376326 -0.30512884 0.107086994 -0.03310588 0.050051045 0.44808933 0.2154981 -0.34280086 -0.067084864 -0.114197366 0.7732788 -0.1776479 0.3990429 -0.007004804 -0.16123886 0.19420876 0.0034438057 -0.14995727 -0.07487626 -0.3028993 -0.39462242 0.747417 0.08861372 0.65223527 0.14157699 0.24335751 0.15912719 -0.53412783 0.49002168 0.4682224 -0.6900242 -0.011357016 -0.12495142 0.37068495 0.014980281 -0.42418745 0.42108122 -0.17235415 -0.008381228 0.16645087 -0.46293607 0.05186955 0.2148675 0.11043808 -0.21499896 -0.44606626 -0.116229236 0.8532986 -0.8148065 -0.0076031876 0.97638756 0.48952 -0.38922969 -0.39124295 -0.12360031 -0.17461576
CCAGCT 0.48697537 -0.05535291 0.5053449 0.23559743 0.0975865 0.042088438 0.12330623 0.25139686 0.16141702 0.6806536 -0.07368532 0.23106816 0.17959295 0.75144166 0.41421133 -0.42040035 0.008389718 -0.3561124 1.0054132 -0.30656162 -0.03712759 -0.08204537 0.63909507 -0.07346301 0.07638259 -0.11885698 0.37467936 -0.39052358 0.3647283 -0.22611713 -0.17260675 0.5482442 0.30965298 0.4351234 0.3728514 0.2243047 -0.19708148 0.51068014 0.14116864 -0.1309257 0.29561093 0.71754664 0.66017085 0.16737008 0.25620008 0.2832779 0.24204765 0.014391884 -0.45111936 -0.7597498 0.11851163 0.2919936 -0.0907645 -0.3074331 -0.6451183 0.20299856 0.5161407 0.39783776 0.08550086 -0.46515575 -0.14419842 -0.50251985 0.26454732 -0.035947043
CAGCCT -0.599067 -0.40457058 0.15263917 0.42981157 0.48214632 -0.23588407 -0.20521306 0.47975293 0.31529635 0.26305652 -0.51388234 0.3219649 0.1583625 0.2866751 0.39110178 -0.6102659 -0.026114939 -0.06465716 1.0678737 -0.42238474 -0.23174307 -0.24391289 0.19210188 -0.1760323 -0.059222985 0.13627754 0.09496688 -0.09010398 -0.34264326 0.014390611 0.01573954 -0.19584851 0.36750618 0.028608024 0.2536164 -0.1799708 0.2952125 0.63466877 -0.6417273 0.039526004 0.2707116 0.111121185 0.5892412 -0.063895576 0.7313574 0.18106413 0.36379123 -0.32604942 -0.24659584 -0.23283277 0.6429419 0.3500784 -0.45399237 -0.275341 -0.5346689 0.7691523 -0.28097677 -0.28422463 0.610906 0.21322142 -0.4523873 -0.33450228 0.009101736 0.15433313
AGCTGG -0.022610199 0.4413851 0.20003982 -0.020454293 -0.28802875 0.55203706 -0.50508016 0.50962406 0.12571183 0.068143025 -0.5153753 -0.43163735 0.11178545 0.2951738 0.19080693 -0.39326623 0.43005103 -0.61697143 0.42056143 0.0894833 0.08606227 -0.25708887 -0.009939313 0.11273043 -0.015693987 0.25992885 0.21764718 -0.40091348 -0.4147115 0.8294425 -0.20325878 0.5321876 -0.23091574 -0.38982528 0.0941211 0.40662232 0.5675321 0.4321198 -0.35327286 -0.21433176 -0.34665382 1.033395 0.50504774 -0.30486625 0.13686071 -0.5166291 -0.115081266 -0.017686255 -0.16450311 -0.28540823 0.037556786 -0.43479294 -0.6738218 -0.17103086 -0.3780666 0.5114517 0.13900767 -0.13396844 0.6380789 0.21457042 0.24126181 -0.34269047 0.15674843 -0.12032298
GGCAGC 0.097598016 0.18973768 -0.07709037 0.35645032 -0.058740098 0.029746203 -0.093628325 0.7388856 0.42311946 0.8600255 -0.14778514 -0.019056147 0.38873863 0.5826052 -0.34659374 -0.20237099 0.5595323 -0.17726745 0.2713128 0.35340577 -0.09790096 -0.3310125 -0.14245752 0.30589455 -0.049518783 -0.23163489 0.2548783 0.6840573 -0.32860246 -0.5500209 -0.17207591 0.32031864 0.41348553 0.22965945 0.77824724 0.11353288 -0.21987449 0.6545146 -0.2960956 -0.3037775 -0.04299734 0.028487146 0.34317186 0.45812908 0.031574823 0.090114705 -0.1756059 -0.53816473 -0.213507 -0.3630871 -0.38644934 -0.059993643 -0.24373947 -0.8615033 -0.63466996 0.29625827 -0.3453113 -0.647704 0.38449985 -0.24997035 -0.532151 -0.22457425 -0.13129331 -0.18219693
GCTGCC -0.14452313 -0.084956795 0.33077693 0.15352589 -0.73890483 -0.1496056 -0.11134777 0.47254056 0.6343137 0.10447103 0.017987559 0.31727606 0.016332768 -0.17784224 0.10851536 -0.21297753 0.36477602 -0.1157898 0.4393532 0.4569132 0.06086541 0.02073404 0.75906885 -0.24205352 -0.46268797 -0.09566863 0.045114815 0.036946494 -0.4752122 -0.026073791 0.33434537 0.22489227 0.52666783 0.03669748 0.21243186 0.5129832 0.093856856 0.66137016 -0.10666573 -0.038606513 -0.5077067 0.5992763 0.161677 -0.53995633 0.5194232 0.3567688 -0.41998827 -0.11032915 -0.35453045 -0.43363094 -1.1007087 -0.47984868 -0.45472354 -0.37819836 0.38063183 0.5447354 -0.5019141 -0.11219231 0.55166304 0.1375385 -0.05131082 -0.12182681 0.34271437 -0.16873498
CCAGGC 0.5217064 0.1666832 0.12405519 0.46158692 -0.14312045 0.077401444 0.012248628 0.63535315 0.19382891 0.36439177 0.4960955 -0.19614151 0.10594723 0.40171558 0.026474534 -0.41809985 -0.4202423 0.15706193 0.6746531 0.05618025 0.1394319 -0.23179859 0.37140918 0.48250976 -0.4324831 -0.031435866 0.13655859 0.07597289 0.17888895 0.1500126 0.10658108 0.8542726 0.25410253 0.32740662 0.42217594 -0.5129181 0.0074650613 -0.008617477 -0.4290305 -0.40674952 0.37879413 0.078159116 0.49843416 0.07397995 0.23734744 0.48410857 0.64647514 0.47978973 -0.49056777 -0.74799913 0.015791105 0.11280888 -0.55502254 0.36050817 -0.29198816 0.031660777 -0.26874256 -0.13523406 0.37885937 -0.11695014 -0.6247771 -0.0756594 0.713604 0.13218318
CTGCCC 0.08565325 -0.3401287 0.17619193 0.28240064 -0.6346334 -0.35720035 -0.21825649 -0.10250158 0.36823878 0.20226336 0.37274382 -0.06673025 -0.048342556 -0.5752913 0.33202294 -0.08350191 0.3085082 -0.10448672 0.44939515 0.41078544 0.1481037 0.23990934 0.3902358 -0.52560973 -0.41345075 -0.16282016 -0.05343985 0.1457594 0.069198236 -0.096329935 0.6617374 0.21378347 0.18424477 -0.074594125 0.16329214 0.468345 -0.08904255 0.5096607 -0.40657198 -0.030216329 -0.3607182 0.29750183 0.07399467 -0.23264968 0.63288045 0.26498523 -0.27862126 -0.28739527 -0.4339964 -0.7665169 -0.6941285 -0.07989148 -0.7623831 -0.14416791 0.63740844 0.47230896 -0.65180224 -0.056701396 0.5290288 -0.4135916 -0.40893626 -0.17768039 0.24237119 -0.40297326
GGGCAG 0.14672183 0.35426506 0.0020769478 -0.011080987 0.25451633 0.30943602 -0.055962525 0.51755273 0.1880585 0.6263408 0.16721459 0.01618135 0.3419739 0.22721107 -0.5558018 -0.1264369 0.2526187 -0.2145631 -0.28972924 0.5411289 0.05666434 -0.397504 -0.3828611 0.6780296 -0.43861017 -0.29413372 -0.014797978 0.46053293 -0.11021881 -0.44953966 -0.10108616 0.34173545 -0.020083457 0.22363387 0.50481033 -0.3092312 -0.35229546 0.3356741 -0.031309247 -0.2470361 -0.5118065 0.22562356 0.22425991 0.07545357 -0.11636766 0.07103624 -0.1137327 -0.6266648 -0.26598004 -0.6044428 0.05121305 -0.22910358 -0.097151674 -1.0875034 -0.026739169 0.23638862 -0.5562622 -0.5490115 0.46889547 -0.20077026 -0.71333873 -0.5571678 -0.15721825 -0.3791043
GGCTGC -0.11702172 0.44533917 0.26647282 -0.031674325 -0.59605944 -0.28241682 -0.30116928 0.43355083 0.5244379 0.35361743 0.11798034 0.46634704 0.2522078 0.24545732 0.023622165 0.20696393 0.12522677 0.078326516 0.07046405 0.0477337 0.07848077 0.03683143 0.39780197 0.48178026 -0.6846688 -0.24917927 0.14416848 0.32248276 0.13700005 -0.1991551 -0.3522312 0.28987536 0.48698384 0.41060522 0.51400715 0.22638388 0.20280376 0.6076959 -0.20410952 -0.18558583 -0.8888692 0.6116931 -0.07284607 0.044057794 0.099319525 0.45583406 -0.44838104 0.23136921 -0.5251048 -0.024027687 -0.90179753 -0.1697884 -0.3862496 -0.048551027 0.0498053 0.331505 -0.63434803 -0.23778024 0.6907239 -0.23649986 -0.62868094 0.21502359 0.28694737 -0.37941548
AAATGT -0.40177387 0.40128532 -0.70714825 -0.28883195 -0.44226402 -0.39723536 0.043869052 -0.64595133 -0.48476276 -0.059454683 -0.34144992 -0.5075289 0.33786434 0.17854023 -0.8445214 0.13570803 0.19801068 0.03764484 -0.004776522 0.91280735 -0.31228974 0.13485888 -0.039816566 0.04879749 -0.21907945 0.6870981 0.15200612 -0.28260222 0.2800775 -0.06674848 -0.042190745 0.036159012 -0.021644277 0.7970048 0.22238997 0.43686742 -0.13898031 0.62469894 0.28717938 -0.013546538 0.044799365 0.42691153 -0.27232465 -0.50731677 0.5969913 -0.19473997 0.89692014 -0.1474797 0.3548898 -0.39667615 0.44260532 0.4411873 0.22163847 -0.42053276 -0.07137331 0.15135427 0.16089764 0.13461939 0.20663851 -0.33667204 0.101988405 0.6446021 0.4546914 0.46314165
ACATTT -0.0201903 0.43260235 0.35101795 0.34025398 0.18184927 -0.34335953 0.61220074 0.3591299 0.18700682 0.7476361 -0.53448397 -0.13723516 -0.4064877 0.093916036 -0.9922705 -0.5550466 0.026135605 -0.17694591 0.08971915 0.2715434 -0.07614937 0.3416912 -0.019581553 0.0006886274 0.21173844 0.20537306 -0.14463784 -0.025423009 0.8682355 0.063538276 -0.5981299 -0.25038257 -0.2938459 0.08403061 -0.27418786 0.030255394 -1.0411967 0.44852275 0.2602972 0.3032105 -0.5074125 0.28617868 -0.18283598 -0.08718421 0.95858574 -0.012201807 0.07957033 0.0039082677 0.48985443 0.120084 -0.03969232 0.91213214 0.38860655 0.75159717 -0.087663785 0.3743654 -0.3159989 0.34102187 0.30277678 0.36129025 0.09351844 0.0066059297 0.073079675 0.11585616
GCAGCC -0.39843783 -0.36100483 0.1139732 0.30224657 0.18782988 -0.2794787 -0.4164054 0.63676953 0.48677978 0.5430186 -0.18055645 0.035041656 0.23160365 0.08048181 -0.09189461 -0.5015532 0.2561729 -0.046475843 0.62371624 0.61089873 -0.038707808 -0.43719807 0.20531426 -0.023919465 -0.22479907 -0.15878727 0.24147618 0.4239283 -0.81366956 0.028805213 0.2986806 0.016760672 0.3410964 0.040396694 0.35728526 0.19767028 -0.07744467 1.0319561 -0.38870925 -0.28320006 0.20108363 -0.64100236 0.18191865 -0.17368166 0.41453314 -0.020246858 0.11850399 -0.68360597 -0.44702542 -0.22749665 -0.13391028 -0.034610275 -0.5710578 -0.5256333 -0.054674592 0.22667912 -0.13315015 -0.48906255 0.6087069 -0.012363157 -0.60569286 -0.43662104 -0.059990987 -0.1365024
CCTGGA -0.16161242 0.19636531 -0.2228763 0.119780436 0.12470712 0.4048105 -0.13669701 0.03248923 0.27734247 0.1335176 0.56998813 -0.4281018 -0.62199044 -0.12950791 0.23215668 -0.042158198 -0.06625996 -0.049194828 0.890801 -0.1444891 0.116751544 0.5085346 -0.078516036 0.1526562 0.16805191 0.276563 -0.4458279 -0.16534068 -0.07724043 0.5699733 0.32243833 0.34042203 -0.56560826 0.28975323 0.2120144 -0.55709225 0.09425017 0.30543506 -0.71786106 -0.32509124 -0.13657404 0.41365638 -0.3952767 -0.058196813 0.4070883 -0.14236383 -0.47056288 -0.17651632 -0.27282596 -0.2857325 0.04337141 0.09493766 -0.16639495 -0.051664837 -0.3972003 0.62688583 -0.42657816 0.4565992 0.5320969 0.01868558 -0.17068379 -0.983581 -0.29144144 -0.02695741
TCCAGG 0.4487316 -0.05575747 -0.3136364 -0.011088746 -0.15027878 0.2693668 0.27375972 0.31009647 0.4754513 0.19881955 0.55595595 -0.3985192 0.2558888 0.28351822 0.21432397 -0.6560967 -0.6175006 0.13653474 0.3718023 0.23894064 0.28711876 -0.016842982 0.04226045 0.5126941 0.117582195 0.37998202 -0.24827753 -0.30270123 0.31409693 0.1342854 0.105402455 0.21074748 0.0985284 0.7490274 0.050799485 -0.3173403 -0.5048744 -0.4187139 -0.17731802 -0.25487408 0.037557814 0.2934909 0.45242688 -0.21592636 -0.5881407 0.23234531 0.5254248 -0.027778931 -0.44295767 -0.84371763 -0.08795508 -0.1436911 -0.29834497 0.10140013 0.121026695 -0.10211969 0.31262058 -0.28984642 1.1188092 0.069614425 -0.47580552 -0.29272988 0.2832903 0.2531833
GGGCTG 0.02022182 0.5618171 -0.01566482 -0.35140488 -0.2513661 0.05648862 -0.3857193 0.5970973 -0.41858038 0.31817353 0.01966461 0.38981056 0.066806994 0.36289123 -0.1866145 0.09096263 0.17253095 -0.26098534 0.043230552 -0.19419116 0.48734254 -0.032607306 0.4110918 0.6722583 -0.51633173 -0.4406217 0.1017766 0.009683241 0.043072533 0.17814182 -0.5326274 0.08929612 0.18940187 0.3484564 0.45595217 -0.1387157 0.010833722 0.38977885 0.07089711 -0.23840621 -0.85922074 0.7561319 0.029288283 -0.3330317 0.079848446 0.22973406 -0.26070145 0.067149445 -0.48419917 -0.50796044 -0.41102624 -0.33787027 -0.1266487 -0.3094671 -0.18921947 0.48451132 -0.47125265 -0.19458774 0.66455114 -0.03218578 -0.89849806 0.1664911 0.36926717 -0.3319579
CAGCCC -0.19905698 -0.6120255 -0.03269599 0.3787619 0.19823454 -0.53900284 -0.6587709 0.41337776 0.26708433 0.35969672 -0.16547474 0.10088679 0.2200864 -0.12599413 -0.006376901 -0.81206423 0.19991578 -0.29259375 0.875414 0.31237978 -0.03342024 -0.46017846 0.26170865 -0.13381964 0.038605686 0.13957113 0.44270965 0.08341594 -0.015056068 0.1404185 0.45550203 0.036897443 0.333936 0.018302647 0.2846055 0.005090031 0.15622635 0.5864559 -0.09991914 -0.15278977 0.31310907 -0.17039885 0.26404902 -0.17475791 0.66929203 -0.12627394 -0.021107016 -0.39839435 -0.4590539 -0.61024916 0.14392334 0.05988645 -1.0932838 -0.1285053 -0.17524083 0.38118955 -0.17870733 -0.16053137 0.38037288 -0.4384328 -0.74820906 -0.23439176 -0.16199769 -0.18801323
AAGGAA -0.47140312 0.3599803 -0.2961329 -0.14897294 -0.8144066 -0.00047814054 -0.09545142 0.2089667 0.5739496 0.08511121 0.36741266 -0.42239296 -0.2613616 0.11314143 0.007481796 0.12284801 0.13337775 -0.043949105 0.40028813 0.4011497 -0.34583098 0.17876111 0.39395452 0.33248112 -0.42055085 -0.05104202 -0.8195759 -0.03539651 0.3452039 0.20187482 -0.03520569 0.059765592 -0.140677 0.28011084 -0.30769 0.054674726 -0.5646374 -0.16197397 0.21789359 -0.08503067 -0.19563974 0.16628586 -0.18496454 -0.48660117 0.3374322 -0.61755633 -0.374426 0.3441758 0.21667504 -0.16283986 0.45673344 0.4387383 -0.13493754 -0.17454623 -0.54000515 -0.42413783 -0.1742767 -0.31855646 0.6564955 -0.25910723 0.15783074 -0.07404792 -0.20531431 0.74871784
TTCCTT 0.51489395 -0.0069972193 -0.5593996 0.07603074 -0.49211097 -0.19842745 0.432071 0.16251779 0.03367837 0.74652624 -0.1355484 0.35642922 0.11640439 -0.18222761 -0.23877433 -0.2931845 -0.10660364 0.52352375 0.5137908 0.116526775 -0.16993764 0.54570097 0.19998501 -0.15937476 0.058224563 0.7805714 -0.3985246 -0.35075906 -0.08508195 -0.23555167 -0.06414208 -0.43044108 -0.2895449 -0.1717828 0.4395887 -0.6170625 -0.10684535 0.34417465 0.30188876 -0.09948072 -0.18977503 0.17483672 0.080409035 0.22964318 0.42419046 0.074458964 0.22796032 -0.398067 0.16417816 0.2736404 0.14610025 0.16210842 0.2205006 -0.27791193 -0.008451755 0.12684204 0.5172716 0.09507886 1.1987329 -0.069333695 -0.011793936 0.07761259 0.124247134 0.01802828
ATATAT 0.010506912 0.35052294 0.11393312 -0.34494048 -0.8849873 -0.30885148 0.60123336 -0.23640198 -0.42345348 -0.039179474 -0.19829288 0.092124075 -0.69916683 -0.68971837 -1.1758844 -0.59767634 0.13731907 0.20234773 -0.496302 0.16467406 -1.0447383 0.05722414 0.18923935 -0.03975407 0.29951 -0.26786342 -0.11864187 0.18776366 0.28980935 0.37660202 -0.14456514 0.14794232 -0.06720528 0.3406123 -0.2642884 -0.07912905 -0.14442001 0.7415848 0.34011313 -0.1154394 -0.06775222 0.22458328 -0.10423428 -0.23368692 0.8793086 -0.05362498 0.34692958 -0.323648 -0.21982704 -0.4708408 0.6283612 0.2648158 -0.1301257 0.28906938 -0.47558177 -0.14183356 -0.015243803 -0.03728693 0.7463465 -0.39562246 -0.20072362 0.094009236 -0.071976185 -0.15988426
GGAAGA -0.1486836 0.3211399 0.22946775 -0.33214995 -0.286479 0.10517705 -0.26187515 0.12297942 0.7762658 0.2104434 0.41306904 -0.5628974 -0.0846944 0.5896399 -0.26429978 0.25583997 0.37619996 -0.07625412 0.3513885 -0.46020433 -0.14474826 0.0662241 -0.24331927 0.1536719 -0.16330855 -0.25107756 -0.615977 0.33164868 0.25294083 0.27960137 0.06500199 0.51758367 0.34442788 0.38803637 -0.051966723 -0.5299906 -0.6301411 -0.043268554 0.5805322 -0.05455526 -0.30195996 0.08169096 -0.4130351 -0.07758574 0.413142 -0.3333909 -0.56999475 -0.6906501 -0.25576738 0.048986305 0.23141387 0.18179692 0.026838204 -0.5956887 -0.2793899 0.029423827 -0.22194771 -0.19565816 0.29371575 -0.57934606 0.28463042 -0.6715478 0.04462372 0.23323627
GCAGCT 0.0822777 -0.17929566 0.33706364 0.17011976 0.15547232 0.118188806 -0.2644464 0.34510806 0.29598093 0.9477063 -0.5876953 0.3780782 0.043958247 0.6611694 0.036108576 0.05047324 0.58135885 -0.008579172 0.30531427 0.378807 -0.30821228 -0.17262715 0.6506435 0.119423606 -0.16628231 0.00856978 0.51486945 0.02401059 -0.41183433 -0.07520239 -0.2977368 0.4270691 0.16008992 0.0744719 0.522567 0.3868029 -0.1909802 0.694899 -0.14234996 -0.1489189 -0.20206259 0.28938898 0.33797595 0.25958884 -0.033975285 -0.10520544 -0.047093883 -0.46519235 -0.5333194 -0.4579828 -0.030057374 -0.16130343 -0.05472753 -0.34861636 -0.8047155 0.3094829 0.51025987 0.004663371 0.5286109 -0.3427479 -0.226277 -0.32842854 0.14431489 -0.07516104
CTGCCT -0.24275604 -0.25466314 0.09109864 0.36083263 -0.40979886 -0.09604942 0.018654356 -0.081255056 0.5779595 0.01739992 0.039600756 0.41021878 0.008365675 -0.12189358 0.31889713 -0.061594237 0.17531309 0.16465724 0.48818827 -0.23046122 -0.057758998 0.6504313 0.37049183 -0.621131 -0.43315846 0.02625756 -0.25239038 0.0058303466 -0.4404745 -0.14206393 0.16678776 -0.17575377 0.020614518 0.123680495 -0.016499741 0.16393079 -0.058998045 0.6364681 -0.7329953 0.11309886 -0.23238356 0.477966 0.30743715 -0.23109119 0.57981443 0.459245 -0.1438583 -0.25859016 -0.22846937 -0.39917538 -0.15457176 0.17441046 -0.09631665 -0.20487726 0.25485787 0.8190649 -0.63951737 -0.066715054 0.7537437 0.25332627 -0.2247128 -0.14411324 0.4377206 -0.08977675
AGGCAG 0.2614138 0.6664366 -0.045316253 0.3430807 -0.16908069 0.18434723 -0.04542673 0.3849149 0.5914423 0.6413859 0.103977695 -0.2469886 0.41956955 0.30245975 -0.46665823 -0.046705414 0.26910824 0.41639552 0.001502746 0.5805683 -0.042695712 -0.5749664 0.20781979 0.46168488 -0.6629122 0.3402654 -0.22576925 0.5436091 -0.10017191 -0.2641087 -0.07844525 0.37885162 0.34227464 0.43076602 0.06705481 -0.2125739 -0.020596473 0.034718487 -0.07446594 -0.31685656 -0.13823707 0.020210302 0.21002068 0.24078831 -0.16810106 0.018345054 0.13757813 -0.13224153 -0.07225385 -0.3440263 0.3407508 -0.20895849 -0.52495575 -0.45610318 -0.43179515 0.041362878 -0.30992895 -0.6040596 0.17969833 0.1490642 -0.56553525 -0.28416145 -0.15163295 0.08755984
GGAGAA 0.3456521 0.4075184 0.18883963 -0.63425326 -0.2594019 0.1934698 -0.41356522 0.70307136 0.34906352 0.12100818 0.47011143 -0.69070095 -0.63807523 0.25885648 -0.50859904 -0.023855835 -0.17997226 0.47294277 -0.014102625 0.008959298 0.2552877 -0.6461016 0.06599783 0.32057947 -0.50079376 0.2178572 -0.23347189 -0.010292722 -0.21586391 -0.081941366 0.25077146 0.07310113 -0.28334582 0.44471312 0.17300339 -0.19812988 -0.17665045 -0.25509968 0.12718016 -0.5286532 -0.09086769 0.46328112 -0.6690335 -0.35875797 0.71164304 -0.58007413 -0.37065673 -0.47244447 -0.09667785 0.17950128 -0.12338788 0.39002797 -0.11554948 -0.62034297 -0.51537734 -0.4934558 -0.0012711367 -0.010152225 0.3640718 -0.2651626 -0.048330523 -0.695004 -0.13009252 0.08644007
AGAGAA 0.25084975 0.3534669 -0.050833587 -0.24812932 -0.33913124 0.1889658 -0.34991282 0.3356497 0.44161204 -0.41035378 -0.016930753 -0.52290857 0.04706301 -0.044493727 -0.16855067 0.039353803 -0.19825965 -0.15667261 -0.21065587 0.23876897 -0.08302978 -0.71974283 0.30873352 -0.1174174 -0.7008977 0.3006921 -0.22525589 0.08227507 0.26350608 -0.19112183 -0.11241398 -0.072020404 -0.27266344 0.29918918 -0.13292094 -0.35644707 0.0017056891 0.17489159 0.30379015 0.082580924 -0.012805556 0.50164247 -0.611916 -0.45068604 0.8336819 -0.7146325 0.17422861 -0.4695136 -0.3170851 0.40020645 0.26421317 0.2950147 -0.41160747 0.10819533 -0.4812105 -0.21147686 -0.006995903 -0.4498979 0.4110158 -0.1230781 -0.07512085 -0.54017365 -0.10888666 0.29797912
CCTGCC -0.34853566 -0.27305335 -0.0069727437 0.40430927 -0.38400018 -0.080263145 -0.06841832 -0.15549745 0.3783551 0.32894248 0.6410739 0.32224992 -0.027180199 -0.26528174 0.25674838 -0.492908 -0.14625423 -0.20331772 0.625385 0.25897416 -0.097885646 0.81323135 0.26499623 -0.27396643 -0.33376965 -0.043772485 -0.55451566 0.056477234 -0.17854612 -0.24331976 0.32695246 0.13601951 0.38328686 0.11228588 0.09060434 -0.31484815 -0.14015993 0.5153445 -0.45226038 -0.13125497 -0.13212678 0.40063128 0.012117318 -0.12748618 0.771375 0.5242438 0.07101991 0.04097228 -0.3685768 -0.4150151 -0.53388995 0.20517583 -0.5900107 -0.0911882 0.46518922 0.60162896 -0.64535624 0.011055695 0.3867231 -0.23471236 -0.3609717 -0.63707036 -0.06898432 -0.44529015
TCTTCC 0.695572 -0.08455171 -0.035519604 -0.20504528 -0.71388316 -0.05262184 -0.47857738 0.41059846 0.18319154 -0.18377768 -0.23153456 -0.1224067 -0.22050938 -0.46791872 -0.087848276 -0.43249094 -0.0016604753 0.11398692 0.41873768 0.44588518 -0.037552472 -0.024168983 -0.54984534 -0.2377527 -0.21459562 0.6156573 -0.26302922 -0.16444822 0.2123123 -0.40895015 0.35254568 -0.3591306 0.02940308 -0.30521056 0.21475264 -0.33598077 -0.27397975 0.24715294 -0.32702845 -0.42469123 -0.2720798 0.08201526 0.24124408 0.25077784 0.23341164 0.736381 0.31886104 0.17148224 -0.15323196 -0.07330845 -0.11807662 -0.047839362 -0.25636718 -0.015316024 0.33777472 0.19341797 0.6468824 0.047920045 1.3226925 -0.28479397 0.15345706 -0.07380868 0.3609262 0.019793794
TGGAAA 0.080069795 0.650618 -0.44529086 -0.46872345 0.2283131 0.08503471 -0.20469882 0.14313483 0.3429262 0.00557476 1.0257845 -0.41370088 -0.6668576 0.44792083 -0.059673052 0.25175515 0.36590853 0.20217046 0.108215176 -0.15096883 -0.23334546 0.30555564 -0.12354642 0.048004784 0.006117709 -0.039381657 -0.3880398 0.11524473 -0.45657748 0.11318297 -0.033503056 0.40477982 -0.18924925 0.19604358 0.2778974 0.27198714 -0.11692336 0.70273846 0.32707277 -0.08762584 -0.08765925 -0.08636034 -0.63068724 0.007443967 0.6488668 -0.08988639 -0.48453102 -0.19594102 0.13108681 -0.44984993 0.012392444 0.6489323 -0.10765403 0.0050861533 -0.12234174 0.13773395 -0.06145358 0.45088902 0.89431036 -0.44120234 0.86775625 -0.27350467 -0.106860094 0.2510741
TTTCCA 0.30905324 -0.11519183 -0.18493888 -0.3475426 -0.46332568 -0.10302832 0.5210048 0.79775184 0.33831185 -0.247166 0.15647487 -0.21354301 0.65701365 -0.23964432 -0.3725577 -0.62925756 -0.3460835 0.095314376 0.5913261 0.22919929 -0.07782592 -0.3314115 -0.08410598 -0.42133564 0.03952972 0.6619172 -0.28937298 -0.32252005 0.2613554 -0.34717402 -0.091629386 0.18309197 0.16314371 0.36422157 -0.1366354 -0.019640353 -0.8013646 0.648992 -0.04969131 -0.54902375 -0.19105333 -0.2296948 -0.28009596 -0.017422127 -0.2638212 -0.22408693 0.14541256 0.22848889 -0.14938514 0.28961042 0.22189237 -0.20491853 0.03767181 0.26180887 0.6385304 0.25651118 0.61960965 0.039297324 1.0546094 -0.030189686 0.051033303 0.15236834 -0.37773025 0.12565061
TTCTCT 0.28878957 -0.18096136 0.10442385 0.05355241 -0.40683788 -0.23835406 -0.30336252 0.33155227 -0.08537902 0.11442678 0.14700496 0.37700236 -0.23353316 0.17083016 -0.0087446505 -0.25845954 0.94186074 0.3020745 0.2514527 -0.4778081 -0.033233378 0.41853088 0.24350254 -0.1517415 -0.16672988 0.50116235 -0.14899142 0.19560003 0.7484045 0.12240998 0.24177045 -0.20652524 0.13730514 0.09873404 -0.23176545 -0.20701489 -0.12969281 0.51816773 0.0953034 0.09717243 0.21632789 -0.008948449 0.038730785 0.4329928 0.21937855 0.030103179 0.59861755 -0.3417832 -0.29953545 -0.056241732 0.1100618 0.12640856 0.7900514 -0.07284676 0.11915266 0.100725554 0.19235256 0.38299355 1.2388519 -0.03612415 -0.30374306 0.14927922 0.33592185 0.18841642
