4096 64
TCGACC 0.6438523 -0.40803492 -0.23042592 -0.08185701 0.18517874 -0.1538935 0.31209543 0.60381055 -0.32183588 -0.33158955 0.55489755 -0.6652105 -0.8018765 -0.40212646 0.22715433 -0.0436358 0.74189764 0.1055376 1.194328 -0.13466074 1.1039728 1.7232838 0.09233966 0.22111969 -0.0554795 -0.37416226 -0.98250943 0.5383938 1.0666251 -0.19842434 0.37226248 0.040526267 1.0510864 -0.6037024 0.038290396 0.38580358 1.0259702 -0.15837923 -0.24708895 -0.36489895 -0.030791277 -0.3148504 -0.28999993 -0.36464477 -0.44695953 0.69457835 -0.8920693 -0.29818213 -0.15425055 1.3220799 -0.2336259 -0.41402015 0.1680492 -0.12162221 0.5319231 0.5133708 -0.32912862 -0.47107226 -0.7393955 0.22390799 0.15753995 0.4676249 -1.181638 0.62203056
GGTCGA 1.0175015 0.14686571 -0.2927427 -0.20193538 -0.020457515 -0.06839608 0.6398478 -0.06532361 -0.23764668 -0.9166378 0.2994972 -1.0383831 -0.8297771 -0.65211517 0.1896719 -0.008559355 1.0867914 -0.06875896 0.52280885 0.9174014 0.9617512 2.005166 0.63648224 -0.4508009 0.07117955 -0.49724668 0.04469524 0.025360404 0.38438275 -0.5158029 0.4538064 -0.195672 0.49119362 -0.67128855 -0.8309171 0.39719093 0.6978349 -0.61023855 -0.635294 0.16704926 -0.25456098 -0.5490626 0.30395576 -0.68677074 -1.250294 0.42722526 -0.5218403 -0.465156 -0.38913873 0.82535106 0.120561466 -0.24815986 -0.19652611 0.70032406 0.03449657 0.23316203 -0.3850414 -0.37052235 -0.9720975 0.10219168 0.23348653 0.43438596 -1.0609821 0.84858257
CTCGAC 0.86911213 -0.4150907 -0.3329172 -0.23396648 -0.07567787 0.04816804 0.22697009 0.5176188 -0.5514585 -0.45868206 0.15665936 -0.66217333 -0.68573886 -0.32048222 0.2713847 -0.18861751 0.68180054 0.14610429 1.2797594 -0.20886281 1.4185375 1.948856 -0.2541558 -0.08267105 -0.3452859 -0.7673886 -0.6983683 0.09782678 0.9205637 -0.24474183 0.106716946 -0.007651999 0.84045154 -0.46779248 0.009352118 0.41337836 1.0831833 0.0039747795 -0.16920172 -0.44379386 0.124653 -0.39757755 -0.4401436 -0.5411942 -0.52213556 1.0471435 -0.8285516 -0.4087186 -0.069645494 0.9583436 0.08863906 -0.79620194 0.3974996 -0.06513786 0.5676304 0.47064885 -0.4167935 -0.46704248 -0.6508603 0.3873724 0.17722555 0.4048902 -1.1173071 0.80823594
GTCGAG 0.871522 0.004414876 -0.4766854 0.017619478 0.21082033 0.09943557 0.6897183 -0.033082522 -0.408124 -1.2012838 0.17646258 -0.98882914 -0.7958796 -0.6972935 0.2899326 -0.11878823 0.90511435 -0.0019217738 0.744057 1.0914758 0.9927626 2.0275755 0.746373 0.0024818422 0.4818585 -0.55133384 0.086679004 -0.21809648 0.62031144 -0.9532637 0.32144475 0.1393934 0.41159177 -0.85830414 -0.79652184 0.58317816 1.0364623 -0.37754214 -0.43452993 0.086416975 -0.31341317 -0.93815756 0.39043006 -0.4463495 -1.0853996 0.57303596 -0.7989164 -1.0231183 -0.4806665 0.8577273 0.17763582 -0.6540547 -0.08877437 0.68961185 -0.013809347 -0.18029593 -0.1252962 -0.29076228 -0.5484761 0.06577934 0.42415407 0.6979284 -1.4801717 0.62690973
ACTCGA 1.0687891 -0.4092722 -0.40603665 -0.20114332 -0.096156694 -0.13484567 0.14009257 0.15461938 -0.4639565 -0.55247694 -0.0054649715 -0.42337584 -0.70261246 -0.060663767 0.39679325 -0.11931586 0.8345443 0.1737019 1.2161974 -0.19099274 1.6188128 2.0390801 -0.2664462 -0.057006523 -0.20072392 -0.6265813 -0.9799682 0.052544594 0.69905895 -0.17105848 0.13919468 0.24621002 0.7421451 -0.28810337 0.18896328 0.5847088 1.097721 -0.154153 -0.033012863 -0.2658424 -0.015212699 -0.3883239 -0.31604403 -0.59158784 -0.42415506 0.6666328 -0.71012217 -0.27278867 0.053071853 0.6811398 0.35060716 -0.6199136 0.55967164 0.010672559 0.5592405 0.17188515 -0.31610453 -0.4507897 -0.8977466 0.5696764 0.11791704 0.29471463 -1.1079516 0.92131317
TCGAGT 0.9050817 -0.13721785 -0.5328838 0.05923554 0.09192998 -0.0029550781 0.35258833 -0.21656014 -0.8012116 -0.5538296 0.37594083 -1.036276 -0.7434261 -0.39612994 0.18551737 -0.03541625 0.8375729 -0.19159187 0.8443118 0.94810754 1.0050405 1.9549075 0.8541509 -0.054273084 0.21875699 -0.64578944 0.39669457 -0.2685813 0.69169486 -1.1092694 0.2675356 0.10007069 0.21597861 -1.3354923 -0.73984385 0.45477697 0.97510886 -0.27315882 -0.61179715 -0.13489419 -0.1001283 -1.16955 0.45792326 -0.6224164 -0.7589146 0.58997494 -1.0118684 -1.0897315 -0.8294762 1.5346869 0.005110486 -0.61523545 -0.51237136 0.7361329 -0.1316749 -0.1633148 -0.26474518 -0.49214405 -0.17587526 -0.14469565 0.5819689 0.62697875 -1.170925 0.738018
GACGGA 0.5737051 -0.13004453 0.6208676 -0.5779195 0.10033833 -0.6890863 -0.18457335 1.3027287 -0.76571316 -0.11915481 -0.14026986 -0.1458799 -1.0346339 -0.058255114 -0.31090415 0.4480891 0.082020804 0.13513762 0.9269623 0.61180687 1.2760673 0.18696703 0.4702417 0.42412072 0.5571514 1.0898553 0.73164946 0.08553836 -0.063825645 0.5720254 -0.5951997 -0.32232112 -1.2100726 -0.57375133 -0.31848642 -1.3498017 -0.11530326 0.26065794 0.03475341 0.46148992 -0.312226 0.2768228 0.33313346 0.572257 -0.14298312 -0.052548 -0.22466798 0.11991557 0.123347074 0.04723925 0.19808535 -1.14204 0.69805384 -0.3192228 -0.30943894 -0.19182369 -0.38371658 -0.39659357 -0.3597584 0.24863057 -0.14463231 -0.34194016 -0.1409974 -0.33094805
AACCGG -0.3283554 -0.5736852 1.1254663 0.2479128 0.3202196 -0.88153076 0.9279289 0.18214247 -0.25794473 -0.031234203 0.7143526 0.5153078 -0.09656442 -0.4108516 -0.83709574 0.25917053 0.5970904 -0.19665867 0.19560198 0.8581482 0.40096962 0.40616462 -0.14563587 -0.67967725 -0.9502036 1.3184662 -0.35166365 -0.3470257 -0.25800866 -0.18781796 -0.26889268 0.46786737 -0.69419855 -1.0709829 -0.3850546 -0.4310303 1.1910725 -0.6139335 -0.24658225 0.5287931 -0.6619429 0.95772815 -0.35257602 -0.20583923 0.99395066 1.0835314 0.3511892 -1.1685869 0.29138812 0.17905354 0.46454915 -0.40569708 0.035005014 0.3266203 0.83473563 0.3348454 0.0041233078 0.21146415 -1.208271 0.20293091 -1.0121282 -1.1534632 -0.7649032 -0.28691927
TCCGTC -0.57453275 -0.45418146 -0.49129704 -0.41268098 -0.024672188 -0.35433725 -0.2964485 0.46287867 -0.60750073 -0.175065 0.5740617 0.21663994 -1.9128006 0.6663717 -1.4041951 0.6093853 0.4775869 0.62614614 0.17861761 0.6296813 0.91358435 0.85635823 -0.43412504 -0.053423256 0.24555646 0.79995984 0.9691289 -0.52098167 0.41152596 -0.13114235 -0.9083102 0.08624187 -0.0228032 -0.05668942 -0.5133286 0.20272173 -0.30703986 -0.18315388 -0.1941991 -0.32530364 -0.035635952 0.81791735 0.6998854 0.0031662222 0.6520629 -0.4378969 -0.47616673 0.48388237 -0.3816531 -0.039665107 0.3240838 -1.0079658 1.0409324 -0.44390738 -0.29235032 -0.8926912 -0.94336295 -0.42848164 -0.43618843 0.26131612 -0.33017072 -1.1108739 -0.5948699 0.03752567
CCGGTT -0.35609695 -0.6846223 0.82298535 0.3581937 -0.050337244 0.104652904 0.94941473 0.30387616 -0.47631726 0.070832774 0.9860423 0.10400365 -0.19547999 0.055417877 -0.56537265 -0.6018228 0.3102636 -0.17657499 -0.2592102 0.3247795 0.3126278 0.4884852 -0.8490996 -0.74308795 0.14643857 0.5470769 -0.07679275 -0.4211765 -0.27785543 -0.13286605 0.37841326 0.8123422 -0.92607105 -0.89158636 -0.97523594 -0.3002442 -0.2750233 -0.06708403 -1.061461 0.022722336 0.71493983 0.63033456 0.042391196 -0.20084721 0.47883186 0.6430255 0.28971216 -0.670551 0.136838 0.91325885 -0.100039706 -1.0843108 -0.7546396 0.4434717 0.9677957 -0.28379014 -0.61237097 -0.62907135 -1.5263221 0.02143696 -0.32072377 -1.293322 -0.7061987 -0.614241
GTTGGT -0.043114442 -0.15031414 0.7006392 -0.56242716 -0.45793417 -0.102750786 -0.059795104 -0.3967261 -0.44760275 0.25261962 0.5203193 -0.10938921 -0.072348826 -0.3976169 -0.88425916 0.5125121 0.39693314 -1.641132 -0.14759643 0.08427025 0.57296175 -0.028630147 0.41739613 -0.59859747 0.00875003 0.873972 -0.684447 -0.3548009 0.14932472 -0.5367143 -0.82995886 -0.3537569 -0.4330477 -0.40190312 -0.84795684 0.22512724 0.3111028 0.95047784 -0.8106385 0.21028566 -0.49661005 0.018600129 0.14567424 0.59225386 -0.078236446 0.79738414 -0.6434232 -0.51486576 -0.34407473 0.79256773 -0.45369446 -1.1521626 -0.00039426083 0.18839708 1.0905353 -0.026020013 0.107371554 -0.113525026 -1.3596015 0.38858187 -0.064867295 -0.56023717 -0.44322985 -0.9472903
ACCAAC -0.8012046 -0.8816155 0.5557349 0.4725892 -0.26676202 -0.9902384 0.75509065 0.72023916 -0.52784455 0.25890154 0.8389855 0.07301731 -1.2638113 -0.087558284 0.18370637 0.044208262 -0.22483093 -0.22401482 -0.49283057 0.8250169 1.1887858 0.04384012 0.27613077 -0.54689103 0.17720453 -0.6193649 -0.537954 -0.32122207 0.32246333 0.05381568 -0.5885482 0.02647205 -0.6202409 -0.552299 0.37491181 0.2634258 0.34233925 0.31633425 -0.6140331 0.50465167 0.16034803 -0.045330316 -0.6842408 0.21148054 0.25942126 1.6087449 0.21641856 -0.39383924 0.12248652 0.6292444 0.5456713 -0.53206414 0.09303225 0.040735494 0.17811227 -0.23162754 0.58540726 0.5553301 -0.7800926 0.31754413 -0.5291542 0.030026793 -0.98893017 -0.5136297
CAACCG -0.80255634 -0.90619314 1.1717961 0.39905345 0.46880686 -0.62443167 1.1631527 0.075506315 -0.018836787 -0.17610271 0.82913 0.5812368 -0.33625674 -0.47451264 -0.29801184 0.21755263 0.085056856 -0.16116734 -0.1347043 0.75860286 0.8010592 0.47064462 0.0374627 -0.6941709 -0.7451703 0.63184255 -0.17166121 -0.4908848 -0.16839355 -0.73747194 -0.4368663 0.041085865 -0.8330946 -0.61668295 -0.5498636 0.2157057 1.525862 0.15059662 -0.052922722 0.5574893 -0.7333639 0.7571244 -0.29313296 -0.39506766 1.1029409 1.1650999 0.08136377 -1.4631649 0.1857427 0.75121176 0.2644834 -0.661037 0.17903592 0.4415989 0.32154664 0.27450293 0.18617003 0.52567804 -1.3387733 0.076507516 -0.77979356 -0.6269003 -1.9862394 -0.19684999
CGGTTG -0.22043468 -0.55522734 1.0703716 0.5060541 0.15399754 0.06798645 0.756463 0.22868727 -0.76940733 0.51225454 0.66205055 -0.00020161225 0.2479162 -0.26362485 -0.71829253 -0.17989714 0.2651127 -0.74738383 -0.4382217 -0.12809116 0.43945938 0.34296793 -0.47809595 -0.37858272 -0.07415464 0.37660566 -0.29975963 -0.102531515 -0.00076393114 -0.6352373 0.19363998 0.11209218 -0.8962486 -0.6161448 -1.3772198 0.177505 0.143871 0.83150643 -1.1239167 0.15482044 0.589679 0.4360219 0.08071251 -0.113767 0.15728208 0.9190084 0.42789286 -0.8833153 0.29044005 1.1892719 -0.17978235 -1.4511067 -0.38190356 0.57255775 0.8225892 -0.15692613 -0.56917036 -0.29544517 -1.6931862 0.15744942 -0.41553214 -0.90329474 -1.1932133 -0.18035509
GGTTGG 0.017876161 -0.17940943 0.99981064 0.017469052 -0.5685073 -0.065476336 -9.864334e-05 -0.2509165 -0.65884274 0.43779096 0.38620928 0.25219518 0.51296616 -0.35502988 -0.47440776 0.2505763 0.06867245 -1.4387239 -0.05177483 0.13942142 0.7045909 0.27060398 0.10233174 -0.70089924 0.06636861 0.6019427 -0.53627247 -0.12390813 -0.11738306 -0.6146018 -0.4107607 0.11531352 -0.7223745 -0.6069959 -0.94975376 0.0682082 0.3720612 0.8460952 -0.7669236 0.05901059 0.14825304 -0.13247688 0.33148393 0.22367091 -0.23011898 0.5515934 -0.108985394 -0.8797007 -0.231316 1.3046113 -0.6105769 -1.3276204 -0.016902126 0.3466447 1.0162896 0.07874903 -0.042906977 0.3091031 -1.2079318 0.20464545 -0.37222368 -0.44900084 -0.7385196 -0.31919044
ACCGAC -0.24038734 -0.11060458 0.9993984 -1.0252339 -0.5723631 -0.96122235 0.3059962 1.2276263 -0.12189733 -0.44777521 0.42226425 -0.7387811 -0.9835234 0.23073384 -0.9002643 0.110753976 0.818212 0.81148237 -0.21766667 1.0713313 1.038772 0.4260498 0.13365649 0.6102534 0.6175333 0.4235414 0.45124453 -0.75054985 0.5346008 0.52795535 0.0927484 0.15783517 -0.49424863 -0.48399642 0.027388355 -1.070952 0.93456864 0.2796525 -0.051360223 0.39653206 0.13862377 0.24030526 0.57476324 0.4609007 0.4551268 0.050239123 -1.0008492 0.09371207 -0.7567815 -0.5477349 1.3626046 -1.1911174 0.018775182 -0.48605442 -0.22982149 0.091822006 -0.48901683 -0.010960792 -1.3445147 0.90303177 -0.8081639 0.019748943 -0.6183902 -0.8001972
CCAACC -0.8834497 -0.92580295 0.9500263 0.55227137 0.2024653 -1.0615853 0.8472611 0.2899155 -0.24010494 0.111267015 0.57369184 0.29316053 -0.7513247 0.40061343 -0.27139032 0.32593137 -0.3893937 -0.16316327 -0.35225445 0.25441712 1.384027 0.59914976 0.00813419 -0.67323387 -0.4426952 -0.27158943 -0.3138884 -0.34134713 0.20576105 -0.44713914 -0.3530104 0.34262303 -0.9076196 -0.73963135 -0.4637017 0.53481907 0.50698555 -0.23745728 -0.76406336 0.225981 -0.18732944 -0.2888917 -0.38671553 -0.26547027 0.48062196 1.4192888 0.29006103 -1.0313387 0.17050506 0.8523524 0.4722248 -0.51609397 0.28203875 -0.07164931 0.3373421 0.17830996 -0.056581955 0.40350637 -0.17327364 0.7596637 -1.0470631 -0.09834648 -1.4649009 0.018466424
CGACGG 0.0601529 -0.46893132 0.53837943 -0.41268256 -0.4074774 -1.3792515 -0.1268144 1.2917038 -0.81129515 -0.0922888 -0.038051825 -0.5325448 -1.4366941 0.053134207 -0.5589965 0.19582365 0.261524 0.4771464 0.46200135 0.43287143 1.5843056 0.08488483 0.054351903 0.66081345 0.6875288 1.1049334 0.9330235 0.048737448 0.054959506 0.82899094 -0.6233261 -0.101895586 -0.89802265 -0.66721 -0.619755 -1.2147921 0.30135053 0.55797446 -0.23138082 0.5059615 -0.34970862 0.4808775 0.7712915 0.5129804 0.19975053 0.39593694 -0.6693353 0.009333996 -0.2724197 -0.10643282 0.32851738 -1.4182945 0.64719796 -0.6750956 -0.49365294 -0.48853618 -1.0259942 -0.66369826 -0.32814726 -0.060406905 -0.5832047 -0.22710349 -0.5123175 -0.6442177
CCGTCG -0.34758925 -0.49302766 -0.20928006 -0.5840514 0.11289134 -0.7002582 -0.2159722 0.3476867 -0.9836844 -0.15284261 0.41939095 -0.36563066 -1.9938716 1.174636 -1.2453837 0.55081415 0.8925078 0.20303258 -0.06518513 0.42422596 1.1005683 0.93958324 -0.17753218 -0.12962192 0.44923437 1.2212565 1.1244974 -0.29400447 0.7735137 0.0070880824 -0.9605075 0.016323574 -0.4304248 -0.41603303 -0.653845 -0.06916463 -0.22188416 0.15306708 0.2865111 -0.095463365 -0.12799244 0.64453864 0.6148429 0.25786433 0.57994574 0.18230358 -0.40908247 0.30804783 -0.7206284 0.2405214 0.16342866 -1.2089878 1.5016241 -0.59856385 -0.496416 -0.36678544 -1.5213846 -0.86268383 -0.54107577 -0.08271686 -0.59736663 -0.90386015 -0.59720725 0.23085256
CCGACG 0.031761117 -0.37146616 0.83100903 -0.49603233 -0.54085946 -1.1885861 0.14552113 1.2664692 -0.3159003 -0.16068412 0.3033891 -0.62519026 -1.1865102 0.24769169 -0.6431334 0.23050514 0.35590377 0.6485981 0.18050005 0.61552554 1.5043349 0.22869919 0.26176038 0.7812672 0.6668014 0.8926448 0.8840801 -0.13758883 0.12873209 0.78680885 -0.44565457 -0.03951879 -0.75056475 -0.4864967 -0.7328927 -1.0967778 0.5530626 0.3272135 -0.23320173 0.67923605 -0.38054457 0.3264497 0.97904027 0.53948563 0.29216594 0.070430964 -0.82130265 -0.17531076 -0.57148576 -0.17903432 0.509854 -1.2668476 0.32155943 -0.5796315 -0.3178525 -0.3878515 -1.0113527 -0.12816226 -0.5919353 0.23525468 -0.8109366 -0.24929415 -0.5584571 -0.5765207
GTCGGT 0.10432612 0.22665654 -0.17124413 -0.5116711 0.303823 -0.4491351 0.124824196 0.46373984 -1.0095512 0.25273043 0.34703115 -0.32166085 -1.9526882 0.67098683 -0.13894276 0.70062643 0.6253211 -0.58181006 -0.44637612 0.21463282 1.1926713 0.57553595 -0.08256035 -0.5091545 0.0036365632 1.5600184 0.4359038 -0.10287585 0.31010965 -0.59095734 -1.213139 -0.42516252 -0.17669427 -0.9895816 0.09155222 0.14366493 -0.4864432 0.4820652 0.355717 0.20850651 0.7618845 0.6853236 0.6704388 0.18147077 -0.1025474 0.71490014 -0.89935374 0.012747502 -0.74274564 0.46485287 0.29625857 -0.95346117 0.29427713 -0.4880226 0.069605306 0.42926323 -0.93294257 -0.9922296 -0.5972652 -0.27831677 -0.39318973 -0.9994741 -0.8207962 0.203982
CGTCGG -0.20701599 -0.013679558 -0.22325894 -0.70578355 0.37431473 -0.77189624 -0.202552 0.3018188 -0.8329366 0.16587912 0.38812196 -0.44785476 -1.7504153 1.157889 -0.77675194 0.49494466 0.6507515 -0.24820721 -0.2745797 0.36648956 1.1654531 1.1379771 -0.16627592 -0.08985151 0.42457265 1.4172218 0.8456307 -0.07805362 0.7365937 -0.2049567 -0.9729023 -0.26202798 -0.28428507 -0.86581314 -0.541185 -0.14442272 -0.26396433 0.10986897 0.44761798 -0.026467549 0.002489601 0.8430206 0.6678513 0.15235277 0.32328296 0.3975231 -0.55095005 0.16360158 -0.29053688 0.4157882 -0.13390708 -0.9714282 1.5076513 -0.7066624 -0.22981456 -0.07032734 -1.4174013 -0.6608328 -0.5296123 0.013695758 -0.62700164 -0.883118 -0.5885669 0.48485532
TACCGA -0.24047032 0.034200277 1.3911972 -0.6648192 -0.71390206 -1.0354835 0.35698515 1.582113 -0.18948546 -0.5699974 0.3700445 -0.6112296 -0.87941694 0.553107 -0.67462564 0.26354343 0.35874546 0.6598049 -0.483399 1.4039663 0.82952464 0.20656794 -0.113115795 0.534336 1.0215613 0.04623316 -0.3028768 -0.95659673 0.17253985 -0.17879671 0.36823195 0.24559027 -0.31965822 -0.5099524 0.38825586 -0.42195642 0.92209893 0.2280657 0.5184235 0.3080983 0.48785314 0.7444627 0.6855459 0.45225924 0.8364043 -0.021389628 -1.1128011 0.36132547 -0.6568348 -0.16300434 1.1378374 -1.4801008 -0.008296509 -0.06288696 -0.33910775 0.18443494 -0.33647028 0.27851897 -1.1882869 0.44782937 -0.9573651 0.38325876 -0.6251664 -0.7984147
TCGGTA 0.6080547 0.44144362 0.21376744 -0.8830683 0.7192814 -0.6215003 -0.5275123 0.7801445 -0.926773 0.23444651 0.6334623 -0.98983616 -1.6205802 0.45643732 -0.24313986 1.1818595 0.76923937 -1.2215829 -0.4339874 -0.18649347 0.98510903 -0.18916653 -0.13681054 -0.757336 0.02146913 1.0680312 -0.492883 -0.34035766 -0.224216 -1.3445368 -1.200133 -0.07747257 -0.3192171 -0.87774795 0.13027474 -0.035850458 -0.6736541 0.4285233 0.3204859 0.40881395 0.97737783 1.1840037 1.11852 0.24816123 -0.17028956 0.676232 -1.3021138 -0.052048344 -0.90279126 0.4881169 0.31072366 -1.3759933 0.21402235 -0.30869517 0.14706567 0.86641395 -0.85150605 -1.0448425 -0.46762648 -0.43109795 -0.34756303 -0.9641813 -0.5267968 0.2957825
ACCGGG 0.08300936 -0.9659032 1.2697058 -0.34902942 0.5215704 -0.7367375 0.6567121 0.26006305 -0.076787256 -0.3042001 1.062334 0.6051398 -0.4507448 -0.27974495 -0.588301 0.34926808 0.5442752 -0.52603585 0.14271508 0.9357383 0.39442644 0.61696297 0.36330193 -0.5617222 -0.76434845 1.0805191 -0.6210283 -0.3689033 0.031154642 -0.13293019 -0.31430882 0.3322817 -0.8282975 -0.8388221 -0.7258399 -0.75288296 1.0025746 -0.7993325 0.12857196 0.8930643 -0.87467647 0.704437 -0.056151938 -0.41956905 0.83135885 1.431395 0.39512947 -1.1435683 0.5324701 0.34767374 0.15588419 -0.1280519 0.019698005 0.33811888 0.50335604 0.23170716 -0.20520219 0.5456871 -1.3434864 0.098234184 -0.62534297 -1.0474416 -1.1525555 -0.22441924
CTCTCT 0.49111298 -0.11520704 0.44267905 -0.1411866 0.17320333 0.3448704 -0.37421796 0.7406549 -0.72917 -0.134508 -0.37243295 -0.054460388 -1.2612357 0.6784142 -0.9532172 0.39105624 -0.025763035 -0.4887181 0.32338822 0.19825432 0.73972607 0.07766634 0.27202928 -0.39395654 -0.0917015 0.083140865 -0.3275602 -0.8954405 -0.0642694 0.3843234 -0.4575889 -0.77541953 0.14095576 -0.07400998 -0.5295463 0.5928213 1.0634435 -0.052344628 -0.61564857 -0.4711013 -0.15615182 -0.5189074 -0.8401804 -0.4173031 0.6886514 -0.47858357 -0.8273948 -0.670634 0.43435442 0.048689436 -0.46607104 -0.27892083 0.2482534 0.1592772 0.06667729 0.023370322 0.43680456 -0.9401236 -0.55587614 0.37461472 -0.10925675 -0.21416973 0.13863836 0.8321447
CCCGGT -0.419886 -0.416301 0.96391016 0.23231861 0.07989631 0.08399586 0.7676507 0.04945631 -0.4859033 0.21784383 1.1932467 0.28251588 -0.5639622 0.1817491 -0.8139676 -0.72066355 0.4003841 -0.07893985 -0.26963326 0.4968875 0.6990408 0.7298782 -0.8136574 -0.057518467 0.14759116 0.07797774 0.021047954 -0.38058048 0.16146542 -0.16812946 0.32421 0.7057307 -0.7883561 -0.6887179 -1.1057636 -0.15621743 -0.28821585 -0.2850826 -1.5434178 -0.39931267 0.5168208 0.59552693 0.2981291 -0.2543769 0.48335516 0.7775622 0.3765956 -0.61318135 0.43660158 1.0925382 -0.66010755 -1.2106135 -0.5341261 0.2794899 0.99162257 -0.6431409 -0.31059113 -0.6569525 -1.548512 -0.30892608 -0.8361173 -0.9828903 -0.6849018 -0.5994907
AGAGAG 0.18021923 -0.34595597 0.093733825 -0.14465986 0.1853761 -0.3486941 0.13416357 0.46193984 -1.407416 -0.30949727 0.55993795 -0.1726873 -0.6565253 -1.1922799 -0.0016161348 -0.41206053 0.17586675 -0.26429918 0.79776424 0.3249903 0.05207555 0.075555384 0.08059389 0.106874034 -0.06274777 0.45459425 0.0040696026 -1.0739121 0.05107641 0.73763436 0.26073015 0.14100909 -0.31167206 -0.7021567 -0.4100239 0.23551053 -0.09079533 -0.014059459 -0.26998103 0.856298 0.2361801 0.16598256 0.32370496 -0.5798446 0.70754695 -0.89157796 -0.10215948 -0.20954789 -0.013771536 1.3378564 0.45980144 -0.40797192 0.45940357 0.28108856 0.5668305 -0.8174491 0.13488546 0.4279871 -0.44947252 0.7376155 0.47383195 0.47712618 0.4060728 0.55009514
CCGGGA 0.3204041 -0.9817566 1.4301442 -0.41616496 0.5625656 -0.950843 0.29670227 0.18861271 -0.31724727 0.005481563 0.98907536 0.5596096 -0.3768339 0.17228954 -0.66615903 0.17254646 0.41438225 -0.697234 -0.14329952 0.9717487 0.37491706 0.77883697 0.15952304 -0.91477513 -0.7312318 1.1256694 -0.8005668 -0.83562684 0.3633037 -0.021265298 -0.50319827 0.51360923 -1.4880582 -0.4729106 -1.0922596 -0.86336166 0.97688264 -1.0560614 0.4624145 0.9843548 -1.1351241 0.30790204 -0.38548276 -0.3625671 0.8818823 1.0566337 0.21120392 -0.7692959 0.48449576 0.29614022 0.6427665 -0.30008805 0.51725495 0.5724734 0.43075007 -0.07204423 -0.39487737 0.5662788 -1.6257147 0.30867553 -0.19312271 -1.0108454 -0.7260718 -0.16220388
TCCCGG -0.54121786 -0.36191252 0.88265103 0.26762265 -0.08491131 0.08142929 0.39841774 -0.0048987023 -0.56491506 0.4416492 1.1297446 0.57506377 -0.91707206 -0.03429027 -1.1823106 -0.7655896 0.27151513 -0.016430609 -0.16744913 0.62128764 1.1417198 0.8706077 -0.6513536 -0.10324219 0.02266111 0.2447971 0.040638693 -0.25332043 -0.098767854 0.058369108 -0.03776192 0.33070844 -0.9013132 -0.8369446 -0.79143405 -0.0040226146 -0.32329482 -0.3163305 -1.4137424 -0.26297525 0.2030676 0.4353048 0.40260625 -0.10833477 0.9485017 0.39634988 0.09411712 -0.63407516 0.3098306 1.0217336 -0.45667607 -1.3105934 -0.45723236 -0.058872923 1.1410575 -1.0919504 0.118799664 -0.76228267 -1.1674237 -0.5298953 -0.60478795 -0.98994 -0.47399518 -0.8777951
TACCAA -1.1200042 -0.59221375 0.3091722 0.24123095 -0.5239545 -1.4480797 0.6019014 0.8782408 -0.56818616 0.54706883 0.8836189 -0.45022807 -1.3114628 -0.34838167 0.116902396 0.38678142 -0.18699412 0.1618547 -0.45008028 0.9558026 0.696765 0.48476422 0.0067663183 -0.63436353 1.0517735 -0.33539423 -1.7281793 0.1404115 -0.29800656 -0.16428515 -0.3035945 -0.17275377 -0.12461919 -1.1408296 0.7104576 0.5086278 0.4649397 0.5121337 -0.3934857 0.14563715 0.6993133 0.06084594 -1.0016512 0.648417 0.8765137 0.9825973 0.30135223 -0.51816696 0.11280185 0.4019714 0.47575435 -0.9781785 -0.14769602 -0.2634905 0.15129103 0.063293844 0.439783 0.6091263 -0.1928424 0.5300529 -0.5305875 0.16548155 -0.5232566 -0.37569374
TTGGTA 0.24474284 0.259294 0.7857472 -0.71615916 -0.695334 -0.22156242 -0.55804217 -0.57032603 -1.1446073 0.0179912 0.37772113 -1.1199316 -0.02696789 -0.33776662 -0.4455777 0.5386807 0.29211804 -1.3348546 -0.31610075 0.103668064 0.5034395 -0.18915114 0.56895494 -1.246225 0.54577196 0.18920712 -0.5789542 -0.21793894 -0.6563169 -1.021521 -0.8354322 0.09013734 -0.30136317 -0.026454773 -1.2241793 0.19218399 0.45852995 0.8155824 -0.092991695 0.54848236 -0.4225404 0.050487485 0.2768009 0.19466627 -0.15943968 0.27689034 -0.675991 -0.3562248 -0.65738684 0.84939903 0.4361575 -0.7557253 -0.008875084 0.5767107 1.1308209 0.46340603 -0.07734094 -0.5853289 -1.1953154 0.50233215 -0.5353228 -0.9889782 0.14780478 -0.9723646
ACGGAA 0.73259276 0.14165814 0.7643622 -0.7022565 -0.036271088 -0.5827343 -0.59755194 1.2994688 -0.88314193 0.5692108 -0.09481562 -0.029735094 -1.1459538 0.28943917 -0.4791624 0.33204406 0.21822366 -0.15701497 0.54890376 0.1799911 0.922601 0.3588333 0.8635849 -0.56967896 0.46865374 0.6747426 0.52819043 0.48444593 -0.36071354 1.0837761 -0.5894772 -0.37986425 -1.4510561 -0.62692195 -0.10735941 -0.9784171 -0.17678194 0.22338264 0.33559108 1.1863674 -0.24209654 -0.111150645 0.17079632 0.26161724 -0.26943216 0.36306506 -0.6093593 -0.119840294 -0.18761545 -0.000517652 -0.027907355 -1.5380799 0.9206247 -0.37716845 -0.7290677 -0.17628366 -0.30042708 -0.430296 -0.874327 0.67076504 0.021460034 -0.47241428 -0.5011758 -0.41275692
CACTCG 0.9825052 -0.18265879 0.10436977 0.10330528 0.09044281 -0.6274609 0.15186717 -0.055563383 -0.62301445 -0.23387113 0.2608073 -0.46572486 -0.7662386 -0.026262797 -0.3691234 -0.02822225 0.9440765 0.34379616 0.9200747 0.04374724 1.2430291 1.281275 -0.6995475 0.013545922 -0.3472635 -0.88792545 -0.7569246 -0.06437617 0.64747685 -0.0072837262 0.59760106 0.67775065 0.8314334 -0.17829876 0.59188366 0.40860543 1.0465254 -0.17504047 -0.449663 -0.10883429 -0.45865294 -0.32327026 0.28204238 -0.65127444 0.08063728 0.7956523 -0.4612699 0.04059904 0.3635076 0.74176764 0.023393717 -0.18476513 0.80729115 0.08761647 0.13052209 0.10695585 -0.2428999 -0.21433425 -0.946552 0.6420035 -0.09391787 0.23685893 -0.70002085 0.84505916
TTCCGT -0.40731585 -0.555547 0.32332882 -0.5941317 -0.07200648 -0.23895839 0.15748252 0.11853327 -0.73644376 0.025748687 0.08011162 -0.14031388 -2.0994692 0.29298294 -1.2231101 0.35461923 1.0125085 0.915435 0.258551 0.843231 1.3726772 0.6432221 -0.541671 -0.21955246 0.092247315 0.92035866 0.67231095 0.04667611 1.019498 -0.29294938 -0.6621648 0.5410717 0.11849508 -0.23685881 -0.51865834 0.33445334 -0.5655631 0.23667143 -0.06461481 -0.3565248 0.05980161 0.47276044 0.56626236 0.1965443 0.8775764 -0.6454656 -0.96981543 0.38302648 -0.7570731 0.29059294 0.76689476 -0.98754805 0.8352071 0.074151486 -0.25956288 -1.0880632 -0.57360107 -0.417664 -0.28273624 0.51669574 0.18204255 -1.0207169 -0.27550176 -0.49219614
CGAGTG 1.1598539 0.19581221 -0.26556417 -0.07139368 0.23236853 0.418579 0.5903355 0.19123791 -0.47688052 -0.69895756 0.31764394 -0.75967836 -0.7811482 0.2993789 0.005686579 0.1668243 0.05502926 -0.28803092 1.0429331 0.55723083 0.63099504 1.5180198 0.7444194 -0.3641839 0.4979495 -0.085075185 -0.13406911 -0.43360588 0.43968233 -0.41880843 0.8736213 -0.052984085 0.17431197 -1.5925477 -0.66305125 -0.016974647 0.71071106 0.15819143 -0.60816765 0.37811267 -0.16509424 -1.0410591 0.5990889 -0.21446511 -0.9024232 0.6767081 -0.7540517 -0.4492801 -0.637311 1.0339322 -0.5643966 -0.60536665 -0.74790996 0.44163066 -0.44519132 -0.23204076 -0.23983765 -0.45071778 -0.13466382 -0.41885418 0.6384761 0.20093715 -1.1786025 0.4059915
TTGGTG 0.12664922 -0.25475457 0.6506379 -0.4821032 -0.438233 0.071117885 0.14157419 -0.71086675 -0.12761827 0.004627533 0.37758666 -0.22884938 -0.18789068 0.02514834 -0.15208684 -0.6902642 0.425702 -1.4010117 0.015766382 0.22869405 0.63125265 0.48177987 0.00820141 -1.0782924 0.49763745 0.9375923 -1.2280887 -0.2601 0.30299082 -0.16852665 -0.4376319 0.07594467 0.12659685 0.30672464 -0.40722153 0.19722134 0.35280222 0.658664 -0.81919074 0.33685467 -0.2525077 -0.6715771 -0.0024846687 1.0407013 0.12415358 0.62644905 0.04231425 0.24610984 -0.17714868 0.112603895 -0.5300223 -0.5844049 0.34056517 0.45353785 0.6422086 -0.45551255 -0.06764261 -0.44648746 -1.0926028 0.70819724 -0.31055245 0.1941851 0.083278865 -0.651524
ACCAGG 0.8384941 -0.45082197 -0.47985312 -0.012752511 -0.3014801 -0.3149699 -0.22843009 -0.06872475 -0.052136704 -0.26338854 0.5665707 0.4496432 -1.3402523 -0.021479491 -0.044133052 -1.1710508 -0.09815498 -1.2588949 0.9040298 1.3073636 1.3904489 0.062129416 0.48958528 -0.54635125 -0.25015807 -0.24516875 -0.7692126 0.18880837 0.39824155 -0.0769363 0.2733165 -0.18576322 0.065233104 -1.8896914 -0.2833901 -1.1066725 0.017876325 -0.67343616 -0.40888765 1.0895661 -0.09206504 0.13229865 -0.4621876 0.2385944 0.7660895 0.55557406 -0.21493168 0.0364614 -0.2730352 -0.039942667 -0.5804806 -0.55497575 -0.27504477 -0.66743124 0.6730475 0.44044313 -0.24500433 -0.08659043 -1.0118955 0.9897555 0.17921242 0.09260901 -1.0960045 0.49985662
GGGTCG 0.47954622 -0.5163214 -0.42952636 -0.0500144 0.6531232 -0.39547235 0.26751232 0.60161835 -0.028331539 -0.45969492 0.67618513 -0.8114787 -1.0513619 -0.18201628 0.63412815 0.15722632 0.027163822 -0.27956647 0.25301403 1.0455307 0.6743413 1.9185101 1.0525513 -0.373143 0.46439984 -0.19191147 -0.7840865 -0.64785135 0.7853706 -0.387569 0.67635036 -0.040560257 0.8374879 -0.69076276 -0.6264176 -0.54330003 0.28751037 -0.43226892 -0.7172104 0.011951183 0.1834291 0.20130087 0.6052333 -0.8400226 -1.3154638 0.21969599 0.07854979 -0.2094602 0.17395441 1.0109797 0.41622218 0.19287151 0.06584352 0.9672641 -0.06145575 0.5241257 -0.7408726 -0.638219 -0.78518003 -0.086208925 0.23971109 0.60359997 -0.55549735 0.34011564
CTCCCT 1.2278872 0.22379416 -0.746418 0.3099522 -0.14878066 0.6326533 0.39677608 1.3102709 0.034094475 -0.37712175 0.08042828 0.3711868 -0.88684654 -0.7374206 -0.47106254 0.2224019 0.47772816 -0.53955525 0.9513886 0.2032285 0.6820245 -0.41776553 -1.0525287 -1.4388367 0.08064344 -0.39145258 -0.7274538 -1.2259436 -1.2707752 -0.23661987 -0.91339475 -0.9680572 0.26723433 0.034932327 -0.2512763 0.10265589 0.34004018 -0.48817348 -0.67702854 -0.27183464 1.1928644 0.21059288 0.07240873 -0.42778587 0.055912666 -0.48792014 -0.73355466 0.11931252 0.101929635 -0.28516856 0.39227968 -0.9403822 0.732296 -0.9173338 0.038981106 0.13463254 0.24404421 -0.57484293 -0.18767388 1.2595459 -0.2947536 -0.115495525 -0.3121679 0.0470642
CACCAA -0.4412783 -0.7028849 -0.062466487 0.6373022 0.07283232 -0.8229755 0.4855657 0.0775581 -0.54900235 0.44202682 0.41831 -0.169226 -0.7948073 -0.45294127 -0.5489118 -0.22577772 -0.7706829 -0.28511336 -0.33442137 0.2275385 1.0074914 0.38992777 0.45136395 -0.53138703 -0.00053206016 -0.7595566 -0.16334617 -0.49282542 -0.17172441 0.50842214 0.093447104 0.071219675 0.06299042 -0.4185655 0.22002822 0.20419374 0.5208193 -0.45248553 -0.41696364 0.91198075 -0.29734072 0.20470113 -0.7338776 0.43407086 -0.26482907 1.9449224 -0.20594136 -0.9762245 -0.56236804 0.7961264 0.5156064 -0.26407364 -0.057843752 -0.2413198 0.049093217 -0.5880182 0.24753903 0.10601516 -0.18518505 0.2688598 -0.21961975 -0.042777427 0.28194413 -1.0638784
CCTGGT 0.33031514 -0.61131907 0.34422362 0.59758276 -0.8031853 1.0706733 -0.89127356 -0.036850862 -0.24076249 -0.39993647 0.40498632 -0.083602495 -1.2741894 -0.09499364 -0.6944277 -0.46244797 1.3369172 -0.055175755 -0.021677155 0.17834227 1.3348393 0.5641581 0.585182 0.119806215 -0.5072468 -0.16305065 -0.84533644 -0.87250006 -0.51259416 0.16482031 -0.068272404 1.3206788 -0.19302517 -0.61488897 -1.3028225 0.25942105 0.18420917 -0.68675077 -1.3355322 0.21115297 -0.6768372 0.29965612 0.51084644 0.89093906 -0.22478136 0.5480002 -0.4266639 -0.4759739 -0.043098036 1.6244524 -0.022787059 -0.16144322 0.3300397 -0.41138372 -0.43713748 0.012589273 -0.04883152 -0.04264332 -1.267844 0.49386194 -0.22450565 -0.33178857 0.19760808 0.1270164
CGACCC 1.3881305 -0.17238225 0.021236587 -0.3078993 0.5888972 -0.26667893 -0.27724704 0.6691227 0.30106843 -0.250162 1.4051595 -0.7625445 -0.72329307 -0.08298947 -0.06500541 0.058772914 0.94604474 0.3842577 1.4743679 0.29042318 0.5185056 1.3616513 -0.00022619318 -0.006984898 -0.23339733 -0.35314596 -0.504612 0.16997777 0.35252512 0.054879773 0.3641277 -0.28319526 0.89988685 -0.2198579 0.16270334 0.4422942 1.0793487 -0.052721694 -0.61685306 -0.7630116 -0.3262327 0.36616218 0.2671189 0.17196886 -0.34051713 0.78618735 -0.7074795 0.3313836 -0.25988835 1.3898011 -0.48322144 -0.47919095 -0.23968184 -0.2796114 0.9059519 0.5425221 -0.25189048 -0.3606064 -0.7358284 0.2868014 -0.77098495 0.40111881 -0.6475132 0.608756
AGAAGA 0.109408356 -0.07129278 0.4576637 -0.78814214 0.3250203 -0.1119092 -0.43730062 0.23802069 -1.2414672 -0.16565531 0.59947485 -0.8190266 -0.2011718 -0.59643596 -0.014055056 0.023691824 0.33242017 -0.38911673 0.48288867 0.23918515 -0.40428022 0.31830984 -0.1794547 -0.019570282 -0.19727306 0.0966065 0.28693795 -1.3676442 -0.2751237 0.21141313 0.2743851 -0.29410216 -0.35403347 -0.5011322 -0.20681985 -0.051743437 0.92294484 -0.23098594 0.11408935 1.3246995 0.32174835 -0.7001252 0.62018234 -0.33033213 -0.12190079 -0.43968764 0.36849034 0.22916454 0.020058032 0.49690488 -0.08885779 -0.49688402 0.104479685 -0.39572585 0.48419613 -0.5569596 -0.07906479 0.028078664 -0.8572094 0.8932482 -0.039283246 0.1302391 -0.47801024 0.7105043
TCTTCT 0.43107083 -0.09721595 0.18908536 0.12268519 0.46422207 0.053954624 0.1566148 -0.12232779 -0.86687446 0.24366017 0.08282302 -0.49734536 -1.2720325 0.3541096 0.105886504 0.2639166 -0.33254644 -0.8639939 0.1404061 0.25541466 0.77115375 0.26469308 0.30198836 0.045428507 0.527311 0.17895669 -0.58915895 -1.0445976 0.15734522 -0.08350398 -0.011101865 -0.61323476 0.66559815 0.0035852245 0.13368456 0.39589873 0.9896814 -0.50477093 -0.1757597 -0.53841907 -0.061601024 -0.32051748 -0.5905804 -0.1899341 1.1478834 -0.22494046 -0.7909436 -0.38601363 0.24560277 -0.46372592 -0.8589706 -0.4072033 -0.09967104 -0.00316681 0.24225703 -0.47783738 0.44075933 -0.6231116 -0.57661474 -0.4174361 0.7461786 -0.3780529 -0.26525062 -0.054287814
GAGCTC 0.6235075 -0.276798 0.21397297 0.13148479 0.60347044 0.053732328 0.8180311 0.81416154 -1.0145276 -0.38038892 0.110459015 0.46250004 -0.7065253 -1.0334631 -0.7985692 -0.68822676 0.20692037 -0.22761749 0.46105245 0.54151195 -0.032111254 0.23359875 -0.3273957 -1.0598254 0.44438526 -0.26628694 -0.9391785 -1.4563339 -1.0395628 -0.12757656 1.4311943 0.041523878 0.6701627 0.04704252 0.60480875 -0.2073402 0.8286037 0.28017926 -0.4575663 0.027573291 0.3486211 -0.48623955 0.15888433 0.04444599 0.0787944 -0.10671371 -0.6990715 0.6055301 0.42699853 0.24360685 0.5888804 -0.113631874 0.23931064 0.30541465 -0.89933795 -0.046171337 0.12368951 -0.87040275 0.40579137 0.33656633 -0.40704662 -0.4774598 0.055890013 0.4361436
GACCCA 0.34712657 -0.1926833 0.21782471 -0.49254173 -0.0051688626 -0.29066777 0.07870357 -0.102616936 -0.12737224 0.92522806 0.5085214 -0.22100513 -0.931264 -0.7584908 1.2444351 0.46176842 -0.45734987 -0.26058933 0.6445882 0.3617072 0.067066945 0.56246716 0.41433862 0.01565647 0.34710014 -0.1915851 -0.37059578 0.09672617 -0.111112446 0.42583427 0.036974903 -0.27457285 0.6220357 0.087915845 0.02928458 0.56468177 0.28770828 -0.48506105 -0.08926563 -0.6681874 -0.59599847 0.5548757 -0.26734036 0.4256658 -0.07851609 -0.022534607 0.070648424 0.34445474 -0.26985216 0.76835364 -0.2653082 -0.019392481 -0.0075128824 -0.44529152 1.0429375 -0.4922026 -0.5758163 -0.12608288 -0.318712 1.1380941 -0.5118084 0.058789413 0.32402667 0.47752708
TGGGTC -0.106231235 -0.47291017 -0.12137865 -0.17059371 0.14925909 0.14254643 -0.36754516 0.08864821 -0.24122943 0.44717583 -0.07214022 -0.39504012 -0.8884117 -0.9228809 0.76133573 0.96463114 -0.55417633 -0.60645616 -0.07525034 -0.016283864 0.17444177 1.0577826 0.99909025 -0.36680052 0.47192898 -0.035717417 -0.2966985 -0.40727603 0.1963849 0.049371835 0.058534198 0.1096877 0.9936308 0.007933231 -0.4177418 -0.27915692 0.18596253 -0.72102314 -0.6151373 -0.41315222 -0.56963503 0.19840306 0.01800145 -0.15653348 -0.69364 -0.43519786 0.37235758 -0.08032056 -0.20282966 0.14692974 -0.10733784 -0.41038716 -0.58076966 0.5270795 0.36881316 -0.28681904 -0.17688292 -0.37417957 -0.65857565 0.8414061 -0.40372992 0.29696503 1.0023946 0.1892896
AGGGAG 0.10519375 0.3749359 -0.029949004 0.40249765 0.4098858 0.16349958 0.48813897 0.7263626 -1.7462921 -0.7073467 0.57195437 1.2791457 -0.5517696 -1.2245495 -0.6364835 0.10021138 0.23795709 -0.37213355 0.6093185 1.3919933 0.8441812 -0.46214804 0.76496387 -0.56259066 0.72154033 0.13776776 -0.5462895 -1.3122195 -0.11575105 -0.31087738 0.6748082 -0.07024919 -0.98404384 0.17023547 -0.21034409 -0.9129676 0.61082065 0.4775496 0.69330907 -0.34598693 0.059925236 -0.19509736 0.110402584 0.84443015 -0.08680323 -1.0979586 -0.3954609 -0.84618276 0.51524144 1.1171366 0.6838389 -0.055012427 0.023518877 -0.107181735 0.006376122 0.565091 0.18863124 -0.30719516 -0.66890043 0.17330307 0.015848072 0.60676724 -0.2179874 0.3060544
GGCAGC 0.66414666 -0.11000497 -0.08257675 0.8326542 0.37955484 -0.47232974 0.24380809 0.2610088 -0.78038186 0.5614265 0.34121403 -0.752364 0.58291066 -0.7755002 0.24020527 0.35661477 0.10903919 -1.0228263 -0.120939985 0.14121124 0.74142164 0.11895925 0.29609632 -0.5115176 -0.6264775 0.45284647 -1.0605819 -0.3136986 0.55037475 -0.21438618 -0.36904052 0.73610854 0.10597671 0.30967996 0.37691063 0.6558984 0.7108662 -0.5326646 0.6963925 0.08933699 0.17047109 0.17973432 0.73280156 0.33252457 1.6379095 -0.5697947 -0.77055335 0.32710832 0.31399322 0.38858774 0.06520761 0.032347634 0.0925746 1.2222611 -0.5710807 0.66985005 -0.36827648 -0.58477944 -0.4707262 0.14629194 -1.015943 0.9394475 -0.3305215 0.56994104
TTGGGT -0.15861937 -0.42129338 -0.09540196 -0.3137147 -0.02384981 0.12033092 -0.1792441 -0.006718611 -0.40554404 0.6239551 -0.3073388 0.11586419 -0.788438 -1.1886103 0.65414107 0.742816 -0.5208862 -0.69827807 0.1838239 0.038736086 0.3571744 0.81486773 1.092403 -0.5812382 0.3491766 0.16286246 -0.51971567 -0.23744662 -0.024729839 -0.22854012 -0.20501085 0.18750809 0.6930683 0.33371028 -0.43936563 -0.22021595 0.40400538 -0.43581444 -0.5556468 -0.28677434 -0.2612715 0.20662886 -0.05286659 -0.12662043 -0.050138373 -0.8181934 0.6167947 -0.35095263 -0.47305202 0.17183588 -0.17014107 -0.7853831 -0.48407412 0.08818055 0.5406187 -0.9144151 -0.19010411 -0.22931197 -0.31399736 0.7156605 -0.41645753 -0.10626591 1.318556 -0.17368528
CTGGTC 0.2677316 -0.50941586 -0.040891405 0.11818547 0.03090709 0.38429475 -0.57106435 0.55404645 0.2429007 -0.38280877 0.24635506 -0.20829605 -2.154166 -0.32915214 -0.11922205 0.41504294 1.3588927 -0.12137671 -0.39094636 0.6787625 0.9371149 0.6914161 0.6492595 0.17834143 -0.5759548 -0.16032705 -0.3100971 -0.863681 -0.99623793 0.62067586 0.62613857 0.9060198 0.025317779 -0.60598075 -1.0053092 -0.07575634 0.76448524 -1.3400543 -1.0551525 -0.0874759 -0.21932456 -0.21871886 0.506942 0.7561991 -0.12960002 0.51194686 -0.58176684 -0.054226737 -0.2223053 0.9612167 0.26095274 -0.07580595 -0.23575997 -0.44005612 -0.25661308 0.7973628 -0.07021604 0.4067412 -1.2510923 0.30553257 -0.27504936 -0.02057062 0.6734937 0.42887038
GACAGA 0.49623007 -0.17852199 0.49991876 -1.0373676 -0.39272988 -0.3336942 0.29172203 0.11473891 -1.4226217 -0.0010072327 1.0052038 -0.30955362 -1.4100357 -0.7136213 0.4439619 0.121744014 0.05755431 -0.76032084 0.8687031 0.69845134 -0.1492041 0.06053537 -0.22657932 0.55036604 -0.025129613 1.1967934 -0.1785078 -1.1554204 -0.90594083 0.8069808 -0.7446755 -0.036634803 -0.38501418 -0.60285974 0.5296082 -0.47757795 -0.07090006 -0.23914854 0.22721843 1.0012522 0.6025151 -0.0019085311 -0.07626482 -0.2831313 -0.78488475 -0.61674184 -0.16611287 0.41421112 -0.79731536 0.63989145 0.24573387 -1.2473048 0.7298008 -0.12018781 1.1028978 -0.5564479 -0.36867672 0.49364516 -0.6852479 0.66031396 0.07325245 0.7765631 -0.714825 0.19103435
TCTGTC 0.04862167 0.29220304 -0.07993755 -0.20643039 -0.5278507 0.6388307 0.3472916 0.14517702 -1.2964989 0.24444748 -0.3620553 -0.51516336 -2.549962 0.17241758 -1.3514667 0.8742518 -0.25412342 -0.42903948 -1.2512413 0.9719104 1.3097717 -0.07308145 0.056900904 -0.1143965 0.50866354 -0.10247577 -0.88223964 -1.5229852 0.37963143 0.6581315 -0.61437243 -0.20019937 0.6888929 0.33455688 0.360311 0.70261353 0.0453589 -0.9979026 -0.4366728 -0.43972448 -0.01858444 0.40963423 -0.6635572 0.21576309 0.27033532 0.050188538 -1.1231909 -0.91050637 0.88258344 -0.6122925 0.23422308 -0.84128904 -0.073915295 0.33285436 0.3203542 -0.2894315 -0.3283283 -0.46373793 -0.81154525 -0.13120508 0.25715548 -0.3893314 0.16069867 0.12183381
GACCAG 0.68664974 0.18108478 -0.6093221 -0.32179263 0.096290484 -0.21832705 -0.14104764 0.43351945 -0.19297272 0.06791364 -0.05510568 -0.105620965 -1.6193494 -0.64465165 0.5151698 -0.52319455 0.028832253 -0.82265353 0.9305525 1.0007713 0.6490064 0.41335475 -0.098316945 -0.2701395 0.079143465 -0.49795783 -1.3120528 -0.25880805 0.70735246 -0.2808362 0.41358387 -0.014373637 0.6014207 -1.3366245 -0.23858528 -0.8239082 -0.5125134 -0.21629633 0.1480523 0.6084396 0.17844442 0.18235806 0.28991312 1.0598506 0.8173968 -0.13116087 -0.71637565 0.8092861 -0.5669549 0.56901896 -0.89905214 -0.07033136 -0.43848214 -0.90412444 0.97556 0.58647305 -0.36578038 -0.105902456 -1.3869483 0.6287051 -0.23468037 -0.35392058 -0.963371 0.39214942
GCTGCC 0.43103543 -0.6240791 0.34748802 -0.57819855 0.35874587 0.28767046 -0.017768905 1.0818057 0.64447457 0.20915757 0.14600508 -0.5345124 -0.34554085 -0.86557835 -0.365171 0.867049 -0.76150036 -0.7372595 -0.5406594 0.25366938 0.34200788 0.5643636 -0.98914653 -0.031753734 -0.74275064 -0.015770312 0.18296893 -0.6621167 -0.33646414 0.43924412 1.1327716 0.59693277 -0.41297847 -1.3291918 -0.55076575 1.409186 0.498082 0.19056685 -0.063988514 -0.17024325 0.5496009 0.2585639 -0.27409363 0.42839804 -0.5999734 -0.74675053 -0.47205442 -0.31766245 -0.6704846 -0.038406078 0.367922 -0.58038896 0.19686188 -0.33391866 0.10115842 -0.18667145 -0.4143736 -1.3133672 0.48749182 -0.1986276 -0.7390101 0.36896962 -0.15950303 -0.13643344
GGGACT 1.4050851 -0.89707154 0.966328 -0.6924544 0.36172697 -0.7260584 0.49429268 0.3936271 -0.52007234 0.38112658 0.8420354 -0.274153 0.61295635 0.2569693 -0.24783571 0.03638113 0.6712183 -0.5188821 0.79058874 0.91963166 1.0669309 1.0291545 -0.14944229 -1.1522976 -0.7722081 0.55288386 -1.1687534 -0.6904596 0.046356622 0.18238276 0.08233431 -0.07419062 -0.66810703 0.112248234 -0.111849904 -0.7853965 0.6729625 -1.055727 0.58501035 0.655012 -0.08264049 -0.49508488 -0.6003313 0.1228699 -0.28487918 0.5403998 0.18909931 -0.27909088 0.29108837 -0.030285116 0.83720446 -0.1354282 0.17493694 0.62474906 0.21393871 -0.008609494 0.0388925 0.37730554 -0.4900827 0.23010756 0.27998507 -0.45762265 -0.358491 0.24542044
AGGTCG 0.9113066 -0.25544545 1.0242302 1.197662 -0.30036926 -0.888899 1.1174154 -0.5086046 -0.78515774 -1.19403 0.65611774 -0.6747934 -1.7162045 -0.4721624 -0.25743446 -0.5072093 0.72663814 0.31314117 0.090768725 1.3453801 0.06519285 1.7126666 -0.4567157 -0.3065699 -0.3281585 -0.5280003 -0.025044477 0.61647207 0.19719511 -0.5542407 1.6576829 -0.18557148 0.5193102 -0.36372113 -1.1449486 0.3335663 1.278279 -0.5788823 -0.557713 -0.18656659 -0.4111209 -0.19364849 -0.36533624 -0.023067378 -0.5253549 0.33502296 0.28922677 -0.37999636 0.05100524 0.5599752 -0.22672564 -0.17879042 -0.172278 1.0279369 -0.24493176 -0.6655094 -0.9048339 -0.501409 -0.28986803 0.72014743 -0.16933344 0.83509064 -1.0855991 0.88456124
TTCTGT 0.087707266 0.45866674 0.44849387 0.20672688 -0.4833275 0.56171936 0.17490698 0.36485448 -0.8284845 0.13626282 -0.19058827 -0.5207446 -2.288824 -0.29436016 -1.0875647 0.7299568 0.0071932427 -0.61807746 -1.3669282 0.86914325 1.6844913 -0.36326846 0.5583112 0.05931014 -0.2682895 0.3907552 -1.2272483 -1.3090718 0.8973322 0.8025763 -0.69334954 -0.14919308 0.56621724 -0.010981657 0.5577862 0.9500892 0.25143245 -1.2336968 -0.40629363 -0.13545682 -0.28984022 0.30595586 -1.1909674 -0.10793916 0.785651 -0.08177978 -1.1838413 -0.8020927 0.790425 -0.9263502 0.06220955 -0.6501021 -0.13482484 0.8044122 0.1677929 -0.57657135 -0.34605905 -0.7298872 -0.96798277 0.16503145 -0.045099244 -0.6826886 0.5936122 -0.26549885
GCTTCA 1.428201 -0.32650667 -1.1795706 0.55005467 0.48578426 -0.43874648 0.6065728 0.94250774 -0.6658377 0.4821164 -0.40384576 -0.43804762 -1.2875342 -0.44089764 -0.3015784 -0.15294155 -0.4563431 -1.0495487 -0.025411109 0.9087122 1.1917644 -0.6804023 0.46620512 -1.2665896 -0.011115991 0.026720986 0.4362056 0.6556491 -0.681038 0.64057255 0.6168039 0.049028963 0.15574707 -0.45845556 -0.7185737 -0.15866126 -0.27549067 -0.8672721 -0.2870953 0.69727445 0.6591906 0.75382733 0.41449174 1.363006 1.1673928 -0.2801769 -0.1195513 0.19272877 0.26610327 1.0505521 -0.4273193 0.11686293 -1.0690042 0.60993004 0.47354022 0.6083868 -0.29374143 -1.1945634 -0.27057728 0.5461302 0.6040721 -0.05502332 -1.2843025 1.259433
TTGGCA 0.54565215 0.032899573 -0.23647732 -0.29402602 -0.07758309 -0.26172638 0.22678223 -0.43606266 -1.0853965 0.6345245 -0.05398923 -0.3893024 0.06609773 -0.9811027 -0.03792654 1.0968094 -0.56474197 -0.5958014 -0.04904731 0.7744695 1.1800292 -0.6608761 -0.31004375 -0.3269264 -0.13575071 0.53060675 -1.0827547 -0.60150707 0.20510378 0.21071298 -0.9506189 0.80756587 0.54502994 0.65101624 0.58871436 -0.012525073 0.82170933 0.13681784 -0.017552102 -0.24240543 -0.22370225 -0.8599658 -0.36474833 -0.6961348 0.6765495 -0.40232754 -0.31215194 -0.74791163 -0.18833725 0.5899445 0.7318383 -1.0716367 -0.26438317 0.96494424 -0.42223766 0.28016195 -1.0339532 -0.41630232 -0.39903712 0.38195607 0.10873254 0.090306535 0.47561893 -0.77964365
ACAGAA 0.2861265 0.25493962 0.3640283 -1.2282218 -0.36562932 -0.20951775 -0.009100087 0.31617555 -0.9643823 0.40973252 1.4453436 -0.6033718 -1.2929153 -0.8775488 0.29486886 -0.25437593 0.016959235 -0.78894013 0.5102556 0.13312052 -0.24900377 -0.021611203 -0.14120919 0.06422403 -0.41919386 1.3923367 -0.083342105 -1.0986829 -0.5811266 1.1184582 -0.3902761 0.42387703 -0.97084916 -1.0440533 0.6730499 0.3497058 -0.50709826 -0.5334501 0.21743791 1.2059336 0.84094834 0.5093638 -0.16064818 -0.36185765 -0.7226741 -0.74361694 -0.5098014 0.35297218 -0.63136894 0.9651827 -0.319176 -1.047654 0.7666826 0.30033898 1.296798 -0.92107713 -0.32279763 0.37787244 -1.1361428 0.7235397 -0.20468245 0.95213044 -0.62327796 0.4493369
ACCCAA 0.50765735 -0.13058227 0.17831844 -0.6200571 0.053940702 -0.4061152 0.18783627 -0.2412227 -0.2795467 1.1476666 -0.10691817 -0.014034187 -0.6084722 -0.8156426 1.0130432 0.369809 -0.49789193 -0.372465 0.35743192 0.23853086 0.07947779 0.56517434 0.5549088 -0.423522 0.57467145 -0.1429423 -0.28168127 0.051095203 -0.35465243 0.47676182 -0.2455109 -0.18034917 0.031044114 0.29149678 -0.30223686 0.446266 0.5183403 -0.5329796 -0.15755433 -0.4602307 -0.33697408 0.5874368 -0.74751925 0.32852757 0.21424505 -0.21197353 0.18637703 0.03470745 -0.018586384 0.615406 -0.0457309 -0.22253929 0.15853682 -0.64092004 0.8476647 -0.8249275 -0.46465015 0.049284004 -0.23006096 1.4747635 -0.540514 0.045783035 0.5443613 0.18962663
TGAAGC 0.1564428 -0.41116807 0.74416417 -0.052273758 0.37086287 1.5725106 -0.9105011 1.149246 -0.7964272 0.83104503 0.24541807 0.5387917 -0.199666 -0.76450133 -0.05754105 0.61034155 0.88870335 -0.7304141 -0.013362517 0.8703456 0.48011726 0.50199217 -0.13053139 0.03479157 -0.5438217 0.065086685 -0.85039896 -0.64311713 -0.08186975 0.484628 0.22344792 1.1992451 0.7664612 -0.55274534 -0.3524879 0.8946973 1.1197709 -0.6519974 -0.26756522 0.06355949 0.7334971 0.18720368 0.5402842 1.1191435 -0.270128 -0.12989184 0.41687614 0.30788994 -0.97003675 0.20278533 0.7342114 0.1646631 1.1827414 -0.8791658 -1.2275914 -0.008701174 0.47806993 -0.073384896 -1.2896234 1.2419833 -0.375166 -0.07198476 -0.20063022 -0.18841815
CGACCT 0.851786 -0.310462 0.36023566 0.16862066 0.23494077 0.8861328 -0.029674333 0.26984477 -0.7872195 0.26050338 0.78037435 -1.2198071 -0.17377919 -0.97822356 -0.033013765 0.1462806 0.7341718 -0.17379275 1.3902308 -1.0692239 0.9317337 1.310192 0.4484661 -0.5052179 0.15946382 -0.65371996 -1.1038724 0.25321865 0.615362 0.25373882 1.0662953 -0.26615947 1.1468239 -0.27151802 -0.32363182 -0.36869544 1.0595624 0.40266585 -0.58855754 0.89658904 0.050275974 0.22490026 0.2049176 -0.3435669 -0.5073598 1.3149111 -1.0937316 -1.178535 0.64109385 0.51873565 -1.0731544 -0.12827823 0.3014809 -0.2766998 0.21056727 -0.17505936 -0.16209209 -0.45356992 -1.0995014 -0.7336174 0.49167562 -0.16625981 -1.0955874 0.3853861
AGTCCC -0.31489047 0.3046469 0.24797074 0.45154107 0.3233281 0.24410924 0.54561627 -0.114215806 -0.5928794 0.035081923 0.5240457 0.55700046 -0.053441018 -0.020800453 -1.1824872 -0.11316116 -0.11989036 0.14943287 -0.21091291 1.3149438 1.1155628 1.7502047 -0.23737396 -0.45124638 0.35410568 -0.05457981 -0.22413217 -0.11067983 -0.81015253 -0.33901435 0.041248284 0.33173037 0.55367154 -0.8073816 -0.111933894 0.81443834 0.36224565 -0.47943547 -0.8137053 -0.34192225 0.4171572 0.052181806 0.81865215 -0.16232751 0.18177904 0.19936533 -0.514856 -0.19421755 -0.09926688 0.59527147 -0.14401034 -0.7378285 -0.6768737 -0.52591777 0.51792145 -1.5978175 0.500003 -0.90460557 -0.72371346 -0.081783324 0.34032655 0.1332962 -0.7188211 -1.1539805
GATGAC 0.72465646 -0.7088602 0.5348632 -0.07324981 0.64493835 -0.32583076 -0.047334567 -0.26004267 0.015034618 0.8207042 -0.016719371 -0.60626286 -0.2428179 0.5575067 0.01696157 0.48648462 -0.28204226 -0.86965084 1.8526201 0.9155747 -0.28296137 0.21294308 -0.028344367 0.35228676 -0.18098544 0.35981157 -0.23941119 -0.31387156 0.54271513 0.8352862 1.1033281 -0.49987993 0.66126245 0.07547362 -0.068035655 0.073253326 1.1633338 0.6149226 -0.27553108 0.19836803 0.96326196 -0.4578509 0.18704772 0.7453224 -0.10873284 0.037791267 -0.2776134 0.010295213 -0.447569 0.6169679 1.1576467 -0.32796726 0.4989149 -0.09452312 0.39436188 -0.30913752 0.12805678 0.5326476 -0.8131292 -0.56749153 -0.26675922 -0.12074548 -0.22969688 -0.25258303
TGGTGT 0.7667314 -0.5383789 0.387978 -0.2896612 -0.6564544 0.04320344 0.6465224 -0.2253198 -0.39592892 -0.51930237 0.15558527 -0.5944094 -0.012382982 0.24572515 -0.23577079 -0.6477778 0.17360166 -1.0869222 -0.23010084 0.36339012 0.38067532 0.5513531 0.48784482 -1.405782 0.14151827 0.918313 -1.2482104 -0.30601153 0.009063854 -0.29353157 0.00960647 -0.4093964 0.051008496 0.19320323 -0.50402385 0.1615457 -0.6280393 0.0036772534 -1.1582618 0.23604387 -0.051193014 -0.468346 -0.597573 1.1636655 0.09018158 0.5916207 -0.41547874 0.4143253 -0.065149315 -0.013459178 0.22853355 -0.53972965 -0.059466965 0.48704854 0.6674057 -0.38909912 0.011062016 -0.12932512 -1.4916486 0.51583046 -0.29926836 0.18411848 -0.10840868 -0.17147493
CGGGAC 0.6848146 -1.3224193 0.92067254 -0.2789901 0.62722 -1.5467999 0.8109147 0.03746522 0.028858358 0.67559314 1.0632384 -0.026002448 0.13149455 -0.6396424 -0.05827642 -0.17980996 0.9759391 -0.92732006 0.47005573 1.2606814 0.60223 1.0772209 -0.3082717 -1.0234277 -0.5611446 1.0014175 -1.3469428 0.10532226 0.097963996 0.16928123 -0.34253895 0.14913927 -0.16773084 -0.1939688 -0.8791016 -0.96069 0.992896 -1.0455269 0.18380466 1.3864201 -0.07778107 0.24384682 -0.31864947 0.10793067 0.40451473 0.9555982 -0.20676647 -0.39780653 0.516282 -0.48308855 0.2526097 -0.025810072 0.047254506 0.3945406 0.39118508 -0.10501755 -0.06531376 0.45641276 -0.6709668 0.7213167 -0.45882237 -0.54914486 -0.45530254 -0.16804165
TGCCAA 0.32114053 0.20670262 -0.029468551 -0.55218804 0.22920702 -0.27828515 0.68533015 -0.35646576 -0.67630696 0.48581693 -0.52101624 -0.25276223 -0.8562392 -0.008341133 -0.22605142 0.41796738 -0.5470038 0.24138625 -0.20756887 0.021986986 -0.107920155 0.57564914 -0.35507318 -1.0486635 0.78217274 0.014597547 -0.0706236 -1.2600263 -0.7955163 1.3183411 -0.060020532 0.6481342 -0.18636677 -0.9462845 0.49826476 1.0344206 -0.08171747 0.10273219 -0.021255784 0.110394016 0.80738884 -0.13289249 -0.49709737 0.24231987 -0.1354515 -0.59498644 0.34216046 -0.9678723 -0.72043014 0.4382605 0.44610393 -0.5929621 0.21198323 -0.17515539 0.66569185 -0.67000407 -0.6054594 0.16587156 0.10634984 0.2111528 -1.4220994 0.92030585 -0.46877113 -0.028974863
GGTGTT 1.16263 -0.5125885 0.25216016 -0.13541377 -0.18714198 0.17798182 0.7493527 -0.11905726 -0.3251292 -0.45592093 0.8698643 0.16413082 0.23107988 0.36691776 -0.059074823 -0.29538533 -0.027378436 -0.5303969 -0.04880818 -0.0388209 0.55960333 0.69023836 0.19990791 -1.574287 -0.32188055 1.3332936 -1.3835213 0.2122686 -0.2754069 -0.20996529 0.3685951 -0.61149406 0.049817245 -0.18884954 -0.24340427 0.2869282 -0.5030676 0.28398848 -0.92701036 0.38939127 0.30398154 -0.38639086 -0.75663155 0.96147585 0.19299522 0.3512108 -0.35689315 -0.40360323 -0.08488427 0.059109375 0.050188318 -0.6107861 0.21431673 0.91644764 1.0681866 -0.16374806 -0.6778721 0.42765734 -1.1356825 0.5096091 -0.20356812 0.18178405 0.022894744 -0.05663485
GGGGTC 0.53230906 -0.87810016 -0.67789185 -0.001286085 0.9293664 -0.9571902 0.21732919 0.6066236 -0.42579776 -0.2621199 0.6796312 -0.25017735 -1.3303722 -0.26071504 0.6035923 0.110909276 -0.17478484 -0.4849341 0.35671976 1.0230106 0.7654169 1.9207002 0.7857494 -0.62298423 0.58599836 -1.016384 -0.98474276 -0.6604406 0.6479282 -1.1299714 1.2225703 0.20926756 1.1232097 -0.6158348 -0.43801627 -0.8895477 0.13126354 -0.58959097 -0.452555 -0.030446053 0.04364132 0.20196898 0.8643651 -0.51715654 -1.1783313 -0.036701664 0.59905815 -0.36802718 0.2523714 0.9214139 0.48911 0.5630938 0.28366745 1.2015402 -0.6992313 0.1815299 -0.6531726 -0.5058985 -0.81382346 0.13712403 -0.0005736658 0.13046756 -0.99877006 0.13545321
GTCATC 0.40353683 0.0073252353 0.03993469 0.6132368 1.1493102 -0.6315491 0.07148075 -0.08979399 0.018538266 -0.4404782 -0.41746148 -0.6103481 -0.9231695 0.29555145 -0.025397815 0.7209346 -0.72604185 0.16218235 0.16482598 0.8106614 -0.23050512 1.2988416 0.09110112 -0.9503233 -0.2928042 0.25270522 0.8375132 -0.88848364 -0.6011026 0.2259452 -0.6579818 0.65779775 1.3088198 0.42190516 -0.26878098 0.089473374 0.39326683 0.9929175 -0.84146804 0.26675117 0.345191 0.112316035 0.56274414 0.17130814 0.47166255 0.36137587 -0.5139758 0.2134521 0.42213324 0.7211273 0.2901945 0.036532186 -0.21498416 0.67405933 -0.0290097 0.17230059 0.021281596 -0.6077712 -1.2104962 -0.54733586 0.056242254 0.22295547 0.06995961 0.58488035
GCTCCC 1.3540558 0.24744761 -0.6130321 0.52951646 -0.0072201765 0.93267137 0.4698626 1.6609385 -0.1439326 -0.4168917 0.3133367 -0.025229959 -1.0038539 -1.1369736 -0.67678 -0.5883067 0.5004461 -0.98635805 1.2890328 0.66371816 0.01873129 -0.05996381 -0.48355183 -2.0496244 -0.017298175 -0.36170122 -0.58482826 -0.72214335 -1.7872328 0.18514794 -0.55789596 -0.41591495 0.22836535 -0.015211394 0.32881662 0.4629067 0.4954659 -0.6438727 -0.49502277 -0.6447026 0.9540396 0.21982948 0.70240974 -0.087774076 0.22278742 -0.5636226 -1.0595478 0.124367714 -0.26678085 0.032743536 0.37240034 -0.9956647 0.1849636 -1.0004507 0.27049848 -0.041942213 0.31344587 -0.83345515 0.33957615 1.595568 -0.9396368 -0.04515542 -0.22801082 -0.28802148
CGGAAT 0.729829 0.4542843 0.8605909 -0.10355412 0.55793446 0.07752815 -0.5595871 0.93935144 -1.2329869 0.83184385 -0.096834354 -0.38031667 -1.2415988 0.5353256 -0.38632795 0.17045958 -0.20806292 0.036443245 0.16315334 0.41658142 1.1186883 1.0682024 0.58202696 -0.8125948 0.61326957 1.1031952 0.051145513 0.16942064 -0.30196193 1.517916 -0.30808786 -0.6436666 -1.197926 -0.6849053 -0.1439183 -1.0067348 -0.71530336 0.3310755 0.42483398 0.9686971 0.60401 -0.23044589 -0.35045964 0.07313938 -0.5467935 0.5327161 -0.5649258 0.61470413 -0.33600247 0.513448 -0.03146882 -1.2047967 0.9271688 -0.31962258 -0.17584398 0.5667169 -0.55858195 -0.67977166 -0.69501615 0.7477699 0.18673804 -0.4317274 -0.7749421 -0.61243653
CCTTGG 0.5131755 -0.711096 0.26310402 -0.6722529 -0.1633124 0.5987868 0.5300895 -0.24048845 -0.13201328 -0.12454049 -0.80927217 0.093660176 -1.5227766 -1.4054244 0.17237698 0.90999305 -0.58913314 0.5324084 0.08960866 0.16967432 0.30653676 0.29512054 -0.011556437 -0.57547635 0.36034736 -0.6653159 -0.33456302 -0.9353457 0.57280827 -0.9224582 -0.96365416 1.4855745 -0.40696976 0.7401226 -0.7668947 -0.9814198 1.2397043 0.33466238 -0.66551423 0.18478385 0.33931804 0.9582772 0.505995 0.38934276 0.12773556 -0.33649778 0.13087752 -0.3806235 -0.27478766 1.0244862 -0.0550316 -0.41535875 -0.3663713 -0.4096416 0.43143266 -0.83824986 -0.52736753 -0.33627746 -0.33367732 0.28552148 -0.5659673 0.09765677 0.31730312 0.1915566
GTCCCG -0.66164994 -0.018128246 0.89031386 0.24306609 0.04990546 0.646305 0.7107937 0.026209494 -0.29813352 -0.13533986 0.67657125 0.47622913 -0.19614792 0.04668116 -1.2421876 -0.7295351 -0.21645024 -0.31281978 -0.5704117 1.0791243 1.2171633 1.691243 0.0613276 -0.65107185 0.34142143 -0.3973982 -0.09553699 0.11495305 -0.5070133 0.26885313 0.5517225 0.5378161 0.27689585 -0.62472636 -0.9605342 0.21726367 0.2784266 -0.2977761 -0.73521924 0.21212225 0.5219608 0.14747214 0.33009782 0.45817834 0.19669992 0.19995743 -0.21609992 -0.6031387 -0.35961303 1.1096256 -0.24762991 -0.86383903 -0.48439747 -0.17309615 0.34985563 -0.99647933 0.23500788 -1.067256 -0.9774285 -0.60959524 -0.2520537 -0.40824938 -0.2745725 -1.1559979
ACACCA -0.6288257 -0.97726375 0.23370561 0.41451776 -0.41238004 -0.6734522 0.21086831 0.15482977 -0.9946078 0.3902085 0.6827892 0.02367402 -0.59441626 -0.58575904 -0.37299633 -0.07434746 -0.16106896 -0.1574233 0.2306936 0.70548725 0.73062545 0.33115038 0.53065246 -0.6239657 -0.58430797 -0.1414627 -0.37522104 -0.40478158 -0.3625427 -0.1702182 0.5620695 0.33912122 0.39679506 -0.4136899 0.5696552 0.24994214 -0.089782104 -0.3223176 -0.7715247 0.76546437 -0.34177414 0.1290379 -0.9918865 0.03603945 -0.30121452 1.1466386 -0.6189543 -0.48801756 -0.25391546 0.58767134 0.62963015 -0.18040961 0.05356505 -0.8175772 0.28579882 -0.32023975 0.7236213 -0.11548837 -0.62449104 0.10403739 -0.3894154 0.39382437 0.17036426 -1.0249134
TCCTTG 0.45688948 -0.6449543 0.63759416 0.28236946 0.04294972 0.6732186 0.5368277 0.015197243 -0.079437114 -0.83823097 -0.28396678 -0.089290455 -1.3327678 -0.8402433 -0.30196986 1.3680272 -0.8150682 0.19085838 -0.14202932 0.19226837 0.2656138 0.28652823 -0.93923604 -0.2774555 0.4514522 -0.25118887 0.486761 -0.23218133 0.8402275 -1.0286384 -1.0383153 1.1143663 -0.58623135 0.54468143 -0.70465183 -0.20035085 0.88329077 0.86184984 -0.43619034 0.29858798 1.0069225 0.49168676 0.6480104 0.24966615 0.8178437 -0.8396865 0.21708032 -0.2103776 -0.29152328 0.9493407 -0.056113437 -0.66969573 0.10024721 -0.3064585 0.00750259 -0.41138795 0.08080446 -0.8643404 -0.18904732 0.09285799 -0.17981473 -0.08000561 -0.09316125 0.34433267
TTACCG -0.395219 -0.35108113 1.0388937 -0.22262469 -0.012598739 -1.1001277 0.6132048 0.9975281 0.33188072 -0.5434361 0.7820852 -0.66377515 -0.5800223 0.38283598 -0.38513273 0.56200254 0.5792891 0.9525233 -0.43711498 1.0038505 0.9958241 0.37504333 -0.205264 0.64042413 1.3021982 0.4009121 -0.5769273 -0.21021222 0.12367588 0.5986823 0.54592997 -0.24329263 0.08045996 -0.352494 -0.008771947 -0.29991567 0.6945537 0.323933 0.01027554 0.37036213 0.30985704 0.053292792 0.669307 0.54679626 0.8623758 0.25410214 -1.0286549 0.14003621 -0.7309795 0.5462921 0.5777775 -1.8750708 0.5810824 0.2316963 -0.22776182 -0.07443876 0.073547505 0.34660956 -0.8456429 0.87790245 -0.706214 0.8315051 -0.5142226 -0.81877154
CAAGGA 0.45972803 -0.1022073 -1.0057434 0.2120011 -0.031138737 -0.42772543 0.060974494 0.056082875 -0.5243803 0.49764943 0.37113082 0.40342316 -0.51087344 0.040573105 0.4124988 1.2180445 -0.13646463 -1.4891517 0.21618614 0.29228887 -0.39037535 0.7013112 -0.4942084 -0.26623496 0.7009898 -0.3086887 0.5105124 -0.32201374 0.56936175 0.6016399 0.39527082 -0.47112706 -0.9113428 0.16935486 -0.5988827 -0.73202413 1.3023769 0.14507288 -0.10858941 0.98623836 0.5366045 0.101993136 -0.26502204 0.34263375 0.8063964 -0.24859095 0.021216858 -0.91103786 0.9496751 0.4341253 0.7223435 -0.8712888 0.8304 -0.38095108 -0.79454136 0.2222041 -0.4705617 0.6922585 -0.2689872 0.53456825 -0.8800883 -0.15245387 -0.5902685 -0.3861839
ATTCCG -0.4158119 -0.87347823 0.47042465 -0.2813387 -0.08907504 -0.24214524 0.17703013 -0.037592888 -0.1661996 0.51969326 0.31022564 -0.5417445 -1.9347017 0.30617005 -1.726941 0.49315992 0.81393915 1.2164001 0.2117145 1.6959666 1.4868778 0.6544907 -0.60485935 -0.4517747 0.05246078 0.6806568 0.45605347 0.110827565 0.60536224 0.14307842 -0.5811833 0.6284991 0.3777944 0.060521916 -0.27852798 0.36823726 -0.038509857 0.120918676 0.00080973667 0.3491317 -0.090221584 0.36018056 1.0135353 0.15747899 0.620366 -0.7216464 -0.88327026 0.004816769 -0.9508717 0.07214351 0.9443434 -1.1183002 0.57102925 0.36465514 0.17481098 -0.35213023 -0.18484676 -0.22605443 -0.19922782 0.5270936 0.26487517 -0.40472025 -0.20238855 -0.7451216
CTTGGC 0.81797206 -0.16346829 0.124373876 -0.6726855 -0.092190266 -0.3826041 0.4185781 -0.5660178 -0.37345088 0.090147234 -0.83956087 -0.38131505 -1.246759 -0.88126624 -0.23812008 1.105523 -0.66035163 0.08479854 0.28434888 0.27746537 0.43194163 0.10406578 0.16580816 0.068607405 -0.013078077 -0.39974013 -0.633794 -1.0145665 0.35122946 -0.22849862 -0.3431496 1.8558487 0.0068256655 0.9696856 -0.60071427 -0.24197434 0.8982936 0.5706613 -0.12679538 -0.2579926 0.2939367 0.1278429 -0.097000144 0.32080454 0.65078574 -0.47197333 -0.04192327 -0.3631548 0.331675 0.6121022 -0.3867083 -0.76192284 -0.4218377 0.020255923 -0.16449995 -0.22097562 -0.82552874 -1.3690021 -0.22170374 -0.10162835 -0.4311596 0.15309657 0.19255841 0.03842978
CGGTAA 0.50999707 0.28919345 0.4629367 -0.5538679 0.5291054 -0.92743146 -0.16458455 0.265316 -1.0111867 0.5425303 0.2857451 -0.6656776 -1.2335107 0.9540398 -0.39750624 0.71619576 0.3306154 -0.6613854 -0.11001577 0.05809153 1.0789407 0.30596888 0.0026266903 -1.0606427 -0.13861787 0.5594044 -0.088167265 -0.45106307 0.4270682 -0.7419074 -0.96271634 -0.4098085 0.16417731 -0.5458139 -0.6087944 0.27416927 -0.8223725 0.27352154 0.6431854 0.87562513 0.6907892 0.6998766 0.47183874 -0.23945865 -0.32177636 0.9001292 -1.186268 -0.27329367 -0.9690969 0.7948894 -0.3286648 -0.95570374 0.6559001 -0.08178356 -0.11570114 1.1997768 -0.55016524 -0.9638065 -0.9533997 -0.24060069 -0.29064202 -0.8160371 0.039503466 -0.050284404
TTACCA -1.2068851 -0.8648755 0.7041479 -0.30115294 -0.03363778 -1.028262 1.2148446 0.44548056 -0.487419 -0.27573285 0.7395225 -0.6000059 -0.9472341 -0.1918512 0.37800825 0.19859552 -0.23615803 0.050357185 -0.35167515 0.4476547 1.3408308 0.88734084 0.3177665 -0.7673185 1.2358061 0.09447649 -1.6365491 0.73327494 -0.7828438 0.45105597 0.08128664 0.24766457 -0.22229071 -1.5869223 0.8447746 0.46258017 0.32624984 -0.11292047 -0.27738118 0.057548147 0.8342606 -0.8083636 -0.378645 0.46737194 1.7929658 0.9751308 -0.05339863 -0.32415697 -0.3855203 0.5379386 0.5723827 -1.059587 -0.006549349 -0.23972756 0.47383597 -0.63974917 0.69632703 0.4530198 -0.28665662 0.56045914 -0.18976249 0.87089753 -0.49902892 -0.5079169
GACCCC 1.8084043 -0.08958568 0.39275235 -0.3726518 0.5030088 0.22916497 0.16383167 0.5174219 0.12790635 -0.15206553 1.3894993 -0.4549769 -0.7193178 -0.5094766 -0.23623103 0.44850156 0.8413533 0.44891706 1.5906552 0.16945837 0.7588908 1.3857757 0.1698012 -0.1143797 0.07368817 -0.7020195 -0.6983096 0.2562419 -0.028048733 -0.36302274 0.34440184 -0.15785235 0.72314566 -0.3265988 0.43904924 0.40253747 0.9167213 -0.06373683 -0.7162786 -1.1810021 0.0030937465 0.30357307 0.38630795 0.75859344 -0.09122768 0.6948336 -0.41728014 1.06592 -0.3162797 1.1961538 -0.55799216 -0.70185304 -0.36105567 -0.30304092 0.16345485 0.2093485 0.23003876 -0.4103107 -0.81913996 0.5975568 -0.7237517 0.10147404 -0.44402748 0.7250062
CCAAGG 0.8378779 0.24455948 -1.2256521 0.01820708 0.28781292 -0.32312658 0.26332027 -0.29080296 -0.5426934 0.7235884 0.4205947 0.69139004 -1.1071068 0.088855125 1.2027068 0.5228444 0.04845177 -1.7747172 0.34772325 0.42469823 -0.50960237 0.7923028 0.2549779 -0.4994844 0.83154434 -0.28604326 -0.32205957 -0.16752635 0.18331042 0.3575799 0.21809001 0.15417296 -0.5191588 0.32101217 -0.24829018 -0.539602 1.204636 -0.2877845 -0.6736193 0.06536098 0.5367628 0.13615477 -0.818944 0.21348883 0.376164 0.08053928 0.32744083 -0.49247786 0.51007456 0.5119258 0.14928912 -1.2875212 0.6980504 -0.6359441 0.00575137 -0.29861167 -1.0871603 0.6280515 -0.20757589 0.60340416 -0.9188122 -0.07653743 0.029337259 -0.31146616
GCCAAG 0.96416765 -0.0168321 -0.8414613 -0.4136431 0.14334947 -0.6008424 0.058804173 -0.76455456 -0.5888393 0.7030028 0.20154378 -0.25217932 -0.8495632 -0.31614682 0.638696 0.7202882 -0.028414227 -1.1550949 0.004264881 0.085955955 -0.5756134 0.6875707 0.3476112 -0.2676485 0.35638282 -0.29481018 -0.13013929 -1.1013173 -0.3411636 1.0117933 0.63472235 0.63513744 -0.20030779 -0.009975124 0.068409145 -0.1090902 0.5682877 -0.08844413 -0.01699813 0.21933039 1.35748 0.12466701 -0.25383267 0.06599663 0.27850223 0.30930158 0.3914038 -0.35768756 -0.13502689 0.57514745 0.11303812 -0.98883206 0.5468355 -0.2865156 -0.42627 -0.602055 -0.8155212 0.27765012 0.1163115 0.15183917 -1.114274 0.24480973 0.010288601 -0.24320497
TGGTAA 0.5088778 0.058604565 0.5627208 -0.5617401 -0.76060337 -0.8227531 -0.54420805 -0.64000213 -1.5494511 0.8114328 0.16326301 -0.8377263 0.21741024 -0.034975693 -0.4384073 0.6421722 0.53057754 -1.6008266 0.22004053 0.25360337 0.7014575 0.41347888 -0.20244421 -1.3642918 -0.10387597 -0.19685781 -0.6860366 -0.5030491 -0.6674613 -1.0693759 -0.89833766 0.22490922 -0.008828019 -0.17423125 -1.8647723 0.9113662 0.088088535 0.30619726 0.22320296 0.5160372 -0.59366924 -0.43899748 -0.26766846 0.30632585 -0.9173837 0.7286295 -1.3029569 -0.5700279 -0.912783 0.54345167 0.021919997 -0.4342564 -0.011425131 0.6390684 0.5599898 0.65156674 -0.19848518 -0.48205197 -1.5020448 0.6954109 -0.5208862 -1.6114477 0.33278587 -0.7176039
AACACC -0.54885226 -0.4204065 0.5382107 0.48438823 -0.17603602 -0.273514 0.2616147 0.06515139 -0.9268869 0.337198 0.49218586 -0.092618175 -0.037289634 -0.4347967 -0.30893287 -0.44207996 -0.5455572 0.92373866 0.03969313 1.0104403 0.61944175 0.45946708 0.4289876 -0.9748563 -0.5166588 -0.17113487 -0.2736184 -0.42005777 -0.37326342 -0.32877693 0.5447791 0.5721061 0.51937294 -0.38361397 -0.007871483 0.16946693 0.12605326 -0.4574155 -0.99786067 0.81936604 -0.30980566 0.14095317 -0.47394365 -0.48622194 -0.19233018 0.92977446 -0.849406 -1.0182791 -0.39101073 0.15338583 0.65593266 0.103959516 0.33605027 -0.13621181 0.31503764 -0.8036665 0.63084435 -0.26981592 -0.6520021 0.38715637 -0.9205054 0.16988482 -0.14313678 -1.1839948
AGCCAA 0.8701297 0.049041364 -0.56798285 -0.10152682 0.19765179 -0.58345485 -0.2155646 -0.6731599 -0.80998987 0.5252149 -0.049312845 0.12959434 -0.9979139 -0.7680104 0.37071544 0.6076796 0.27839243 -0.5086233 0.37634248 0.4412974 -0.28569674 0.43949044 0.09076202 -0.033797797 0.27110088 -0.54962546 0.13540079 -1.1908346 -0.17880145 0.83422226 0.7874662 0.06743088 -0.5308644 -0.32674223 0.40609205 0.18123434 0.8437718 0.17814246 0.14550902 -0.33195177 1.1858691 0.014206975 -0.8354336 0.21696077 0.37203535 0.55674815 -0.7312928 -0.3433774 -0.17801991 0.7890086 0.1259633 -0.80082923 -0.18843484 0.028065681 -0.14784332 -0.8216366 -0.21188127 0.5810211 0.07212858 0.16860011 -1.3437508 -0.28915834 -0.030897634 -0.77065057
TTGGCT 0.37074545 -0.14319263 0.26559317 -0.81247646 0.40817958 0.044207733 0.08820786 -0.24840385 -0.07156573 -0.4526927 -0.4370806 -0.055311568 -1.2081957 -0.82828045 0.2409813 0.6669027 -0.47438732 -0.093539074 0.27440143 0.28645402 0.2028199 0.49956375 0.14395751 -0.65886635 -0.039980315 -0.3098182 -0.86585164 -0.8362602 0.5456791 -0.40279144 -0.47791207 1.8663719 -0.1790265 0.6932883 -0.22709033 -0.20018844 0.58306795 0.2116566 -0.34418026 0.22005406 0.8947253 -1.0340824 0.047797635 -0.3972456 0.7867605 -0.35299793 -0.119887464 -0.39503548 0.5944934 0.3561569 -0.11137218 -0.62426466 -0.5523099 0.20382486 0.0115934815 -0.11760528 -0.6277124 -1.4061085 -0.80458677 0.052596826 -0.2090196 -0.19014655 0.26646614 -0.0926768
GCCTGG 0.75488496 0.21589713 0.13496996 0.7713963 -0.6845088 1.6429844 -0.63876 0.6483501 -0.08271928 -0.22843477 -0.10426838 -0.10600727 -0.8481632 -0.76077855 -0.07236437 0.56811583 0.6266264 -0.28405654 0.45825243 0.63527805 0.8693417 0.2994041 -0.08803627 0.031776056 -0.02338178 0.029104372 -0.83464307 -1.5240512 -0.32514092 0.48268852 0.09519838 0.6345036 0.20108978 -0.336559 -0.27451324 -0.3215228 0.94640785 -0.60696197 -1.2834007 0.29422075 0.14743608 0.58614093 1.028963 0.3463905 0.44161713 -0.3963734 -0.15352714 0.17221932 -0.10852236 1.130993 -0.0643044 -0.3759906 0.5380514 -0.41405824 -0.5699003 0.989829 -0.17671861 -0.01830337 -0.19298276 0.6281136 -0.99222773 -0.5716631 0.25511596 -0.519633
GGACTA 1.3555497 -1.2186606 0.5069672 -0.7751321 -0.0362733 -1.0689464 0.42132756 0.4616694 -0.42895377 0.6755474 0.999226 -0.5822535 0.35251716 0.12136414 -0.04325222 -0.07193547 0.22041237 -0.2052947 1.0415547 1.3520919 1.4349018 0.89886415 0.025476985 -0.9979561 -0.35426873 0.2566937 -0.97442913 0.21684209 -0.07057001 0.60373306 -0.17337291 -0.35394785 -0.59435606 -0.33259842 -0.6496983 0.2698838 -0.09301892 -1.1967416 0.92945594 0.8481269 0.05286015 -0.28380704 -0.7295675 0.84957474 -0.5233739 0.031443425 -0.14744647 -0.30712947 0.17479852 -0.40448996 0.5872812 -0.493675 0.06755226 0.006064178 0.06931392 0.28722647 0.42679918 0.47250143 -0.50617135 0.55725247 0.34425765 -0.523158 -0.35691813 0.17562468
GGAATG 1.1291556 -0.19472042 0.44186896 0.47100693 0.1398884 1.7413921 -0.69366896 0.56275207 -0.72239405 0.32993367 -0.4483348 -0.48111877 -0.5438674 -0.08529501 0.7108882 0.45523286 0.5709903 -0.34870988 0.307385 1.3638654 0.40145144 0.78642786 0.1756697 -0.30148336 0.38649675 1.0343798 -0.34783804 0.22650515 -0.64396244 0.7963847 0.14437786 -0.051925432 -0.701236 -0.627052 0.11273629 0.2589909 -0.6698994 -0.07698927 0.34671792 0.87066585 0.81302065 -0.12701142 0.7060382 0.054044094 0.11932262 1.102749 -0.83029217 -0.60913795 -0.7192771 0.7955921 -0.38600844 -0.8116178 0.9928397 -0.2581512 -0.66929036 0.3888212 0.079674356 0.37560868 -0.5458375 0.47643968 -0.10630012 -0.029144013 0.1999487 -0.19883238
CGACCA 0.47453287 -0.099488355 -0.7732042 0.10145996 0.0286662 -0.421639 0.08114433 0.61858964 -0.35033202 -0.007903613 0.7365395 -0.58226526 -1.0657803 -0.581986 0.6044597 -0.24674383 0.027220331 -0.29312685 1.3912357 0.37242016 1.1407257 1.2418514 0.45030743 -0.009350414 -0.238597 -0.57795 -0.87888235 0.27743655 0.50053936 0.06843144 0.2773639 -0.5535519 1.0855402 -1.4014201 0.3883038 -0.15333915 0.32747397 0.025435532 0.20945425 0.17247637 0.011110438 0.021019487 -1.114884 -0.26722115 -0.47005892 0.47947097 -0.70318973 0.46595237 -0.74992216 1.2666934 -0.11762632 -0.3120502 0.046891168 -0.9675983 0.30041876 0.70660865 -0.2844014 -0.20549175 -0.60020465 0.39100632 -0.79694736 -0.454318 -0.12708122 0.60072774
TAGTCC -0.4335464 0.037995305 0.04821803 0.7608424 -0.12524025 0.046249587 -0.40860096 -0.128612 -0.82116807 -0.08988373 0.9608981 -0.054095566 0.22787815 -0.16874741 -1.0701481 -0.060160495 -0.13713366 0.021394845 -0.8094082 1.4057702 1.6313758 1.5360874 0.61659896 -0.52924097 0.326558 -0.028007954 -0.6669654 0.4478871 -0.9494595 -0.01738322 -0.3783751 0.1426599 0.8639263 -0.5153187 -0.2153669 0.48527655 -0.25851914 -0.5751998 -0.5181691 -0.5202955 0.71355295 0.008425359 0.9905828 0.3371105 0.420587 -0.41778743 -0.5877376 0.08828797 -0.13901483 0.83484834 -0.045805138 -0.8834682 -0.10351995 -0.513531 -0.11375972 -1.553946 0.57343644 -0.84185433 -0.8638572 0.17944819 0.35025835 -0.24124452 -0.46367124 -0.94095486
TCTCTT 0.029476775 -0.20067269 0.029344698 0.12751138 0.6431863 0.39946172 0.23251589 0.45400995 -0.56663835 0.04469253 0.40858448 -0.15176122 -1.3130809 0.10505915 -0.27061564 0.47968772 -0.17481232 -0.9045713 -0.10922039 0.25104 0.68372023 0.26529905 -0.11189022 -0.31674552 0.064798884 -0.013489296 -0.020984676 -0.7190966 0.23608948 -0.020377384 0.010586455 -0.8479413 -0.038790632 0.38189682 -0.18485749 0.49905258 1.496447 0.16102466 -0.62648755 -0.77892953 -0.04654056 0.25003675 -0.62127405 -0.5004062 0.8158388 -0.3264328 -0.52271557 -0.91268206 -0.21616723 0.64895135 -1.2572527 -0.394717 0.070633695 0.013644564 0.6740664 0.24238332 0.55209494 -0.7821342 -0.29431093 0.16494156 0.41741142 -0.38303638 0.46576497 0.4673796
CGAGTA 1.1951013 -0.26144224 -0.18125547 0.3589934 0.24843211 -0.2839158 0.08595126 -0.00042660546 -0.31827524 -0.9368574 0.8852379 -1.2114094 -0.50019306 -0.77403224 -0.14367804 0.22333956 0.6252419 -0.11512994 0.9061497 1.1478791 0.7829581 1.2226765 1.1591573 0.075021595 0.14081883 -1.2366683 0.7373299 -0.4096579 0.008981512 -1.0531218 -0.20796941 -0.26248607 0.20153546 -0.900602 -0.38242427 0.50642425 0.8925195 -0.22330385 -0.673384 0.38526523 0.29332286 -0.9486844 0.18519075 -0.21332514 -0.6776348 0.6761689 -0.54297537 -0.57948637 -0.5999536 1.2372736 -0.19752344 -0.6812226 -0.3307233 0.02322365 0.12234189 0.30764046 0.18695858 -0.49737975 -0.38472313 0.08633756 0.26771286 0.71167713 -1.1834661 0.483111
TACTCG 0.64612097 -0.88930345 -0.4245443 -0.34681553 0.031191405 -0.22421898 0.14001833 0.30023584 -0.54089963 -0.6289649 -0.043896884 -0.56607646 -0.62944084 0.46901387 0.5088979 -0.23705526 0.39457634 0.061685413 0.8044032 -0.24430755 1.2646741 2.0719213 -0.061855484 -0.09704568 -0.27139676 -0.481446 -1.462226 -0.25492692 0.892025 -0.22319436 0.26770723 -0.032471698 0.78710645 -0.17968673 -0.44735545 0.3505085 0.7407504 -0.22420701 -0.2653052 -0.32763097 0.8008264 -0.16041663 -0.5391037 0.14026357 -0.5477327 0.25350568 -0.27200755 -0.13444917 0.5410575 0.87164223 0.5298093 -0.53414637 0.61744255 -0.08398456 0.106704965 0.56209075 -0.5636357 -0.553023 -0.74809647 0.6110251 0.3943343 0.4237882 -1.1470423 0.7579241
AGCTCC 0.7640176 -1.0244062 -0.57845116 0.35961285 0.4896833 0.23999488 0.5976706 1.0938157 -1.2004405 -0.19180197 0.50701565 0.5354605 -0.43075046 -1.175908 -1.1595433 -0.102247536 -0.23323628 -0.1427538 0.19747746 0.7918352 0.15796146 0.012816753 -0.7865709 -1.1504143 -0.06940584 -0.023797272 -0.435543 -0.5551785 -1.7203124 -0.010740029 0.33027086 0.75134623 0.5775048 0.14135848 0.2721863 0.5777002 0.64770246 0.32197717 -0.49453694 -0.47131747 0.9981748 -0.19696002 0.7012054 0.2585962 0.15021399 -0.008481654 -1.3927913 0.41453162 0.04869229 0.38632113 0.80742437 0.04528422 0.1125579 -0.50289315 -0.062098194 -0.3429073 0.37480605 -0.45047814 0.4106743 0.7958941 0.1637267 -0.18709671 0.12735356 0.43865788
GAAGAG 0.2327561 -0.4184628 0.09476269 -0.23967616 -0.18333817 0.006362451 0.00011114273 0.25478727 -1.3307545 -0.94598 0.57341945 -0.14986828 -0.82863677 -0.5734596 0.054743458 -0.1463249 0.20818692 -0.14869465 0.035272375 0.61215734 -0.03339699 0.19860674 -0.007900631 0.055793595 -0.13763009 0.22960547 -0.044301063 -1.5327957 0.031089809 0.6994122 0.29022175 -0.15071751 -0.22779989 -0.7897046 -0.47756243 -0.0054806643 1.1933534 0.64654696 0.14413777 1.071787 0.14480658 -0.40893897 0.8366587 0.020226642 0.59805894 -1.2635633 0.03745893 0.7940976 -0.11044797 0.5384163 -0.96617365 -0.4424421 0.47189474 0.3651108 -0.0866042 -0.23760259 0.18443993 0.45207432 -0.93902856 1.6728145 0.0758427 0.2876294 -0.013215769 0.46782598
CTCTTC 0.7302152 0.009438594 -0.43011126 0.23320915 1.064766 -0.016035946 0.2519857 0.64420146 -0.35385042 0.10801746 0.15242925 -0.9900683 -1.6006035 0.21792884 -0.5529089 0.08298832 -0.45243573 -1.0651443 0.31926307 -0.38438103 0.6588188 -0.409397 0.31433967 -0.67657155 0.014867733 -0.121622324 -0.31950957 -1.1625863 0.5458468 0.17182754 0.24681956 -0.7241998 -0.024565335 0.40965426 -0.067078255 0.4868112 0.8404783 -0.36647543 -0.5723453 -0.22562046 -0.023373928 -0.15767184 0.01956959 -0.1316005 0.86745054 -0.3372907 -0.9755552 -0.9467576 0.011105438 0.26324698 -0.91690093 -0.5194911 1.0622854 -0.29257277 0.06808524 0.644539 0.55370176 -0.95573264 -0.2259539 0.48956868 0.6430221 -0.5642841 0.26205134 0.7600112
GGGAGC 0.19286634 0.010732118 -0.40887204 -0.04155797 0.7107251 0.62496096 0.1593081 1.0200472 -1.5733219 -0.62082386 0.3443196 1.306711 -0.44389197 -2.1122797 -0.49697325 0.036545694 0.10041559 -0.85622436 0.30892518 1.4179183 1.4974029 -0.062215462 0.54418254 -1.285576 0.70443374 -0.0811297 -1.4554358 -1.1104219 -0.06864848 0.1593838 0.72701544 0.106513195 -1.0429467 -0.0019539187 -0.19585766 -0.76501775 0.7294299 0.76492363 0.4794454 -0.80552685 -0.21396866 -0.03240266 0.047427353 0.6887241 -0.542758 -1.1386292 -0.5375449 -0.6311532 0.3872165 0.35270447 0.968841 0.3427994 -0.06638534 0.2600912 -0.290153 0.5679716 0.044309624 -0.63687766 -0.6938368 0.2655769 -0.2793114 0.04523702 -0.48753253 0.8607412
TCTCTC -0.1981512 -0.20204377 0.28383905 0.17002384 0.22487152 0.100562036 0.083805546 0.7704078 -0.559588 0.25171846 -0.33726215 0.058619127 -1.0573678 0.68263084 -0.70189077 0.22139467 -0.1011066 -0.12899305 -0.08189941 0.26028973 0.25322002 0.34619483 0.16909917 -0.57941365 -0.20050162 0.20774196 0.22138602 -0.54621565 -0.29061952 0.44170925 -0.5456371 -0.9164242 0.59516823 -0.10583225 -0.7036149 0.6090965 0.7807579 -0.06324744 -1.0094495 -0.250738 -0.037350338 -0.47861066 -0.8128287 -0.4602246 0.83186847 -0.71035874 -1.1103884 -0.8759284 -0.2635012 -0.03142439 -0.25808367 -0.4638549 0.3251821 0.34193406 -0.14670806 0.0475296 0.06648036 -0.61435366 -0.9135622 -0.111244656 -0.12620984 -0.3080313 -0.108170874 0.7619589
GTGTTA 0.7672719 -0.36131534 0.45373717 -0.5136335 -0.21143685 -0.62348425 0.59591556 0.28667787 -0.07878368 -0.7784334 1.3452622 -0.2190824 0.3371054 0.3539018 -0.28221247 -0.32271716 0.15257938 -0.1388744 -0.09450509 0.8967196 0.40655982 0.8581003 0.2850454 -1.9330041 0.26625335 1.2220905 -1.4887971 0.13607627 -0.6675313 0.24052621 0.44213766 0.05980186 0.04174487 -1.0029532 0.15856703 0.60432327 -0.6465788 0.55183476 -0.801091 0.20005462 0.20919523 -0.46423718 -0.45517838 1.3271232 0.72675097 0.41685066 -0.3179646 -0.71678376 0.4205254 0.14226861 0.25369325 -0.7498537 -0.045851834 0.88653123 1.1569254 -0.31907493 -0.007201502 0.256833 -0.31502062 0.8166693 -0.62180424 -0.2540822 -0.37244526 0.006841253
AAGAGA -0.022359772 -0.44287652 -0.047338426 -0.33460677 0.4653603 -0.4382445 0.45824602 0.5948067 -1.0774387 -0.59301394 -0.003977415 -0.4531196 -0.5642238 -0.70436084 0.18889296 0.16688089 0.18089375 -0.25862217 0.4719562 -0.03054562 -0.47135127 0.8577082 -0.29468393 -0.0964076 0.067131646 0.46894526 -0.044069473 -1.3829439 0.29564142 0.67911065 0.21350102 -0.24463971 -0.6516976 -0.03968285 -0.7330399 -0.19239323 0.8890169 -0.12071383 -0.33680612 1.1549282 -0.104025185 -0.06196966 0.7226758 -0.4025928 0.5735181 -0.6156839 0.32140046 0.0769128 0.11703164 0.69296885 -0.14377418 -0.20625058 0.27819327 0.37373385 0.88650036 -0.3899772 0.14143007 0.48908585 -0.4333761 1.5641843 -0.18937957 0.49248335 0.12882459 0.5434945
GAGAGA 0.49601808 -0.53189427 0.7258319 -0.42566115 0.48205307 -0.54635566 0.31036016 0.34692568 -1.5543563 -0.26505932 0.10602357 -0.32343182 -0.5557911 -0.9159545 0.12691322 -0.432183 0.28493953 -0.04187145 0.60774577 0.23473352 0.054602034 -0.16685756 0.20407256 0.26846412 -0.1401671 0.90440804 0.35229936 -0.23881479 0.3723513 0.7360104 0.6317763 -0.11793945 0.021199046 -0.37227443 -0.51081675 0.2653047 0.08569739 0.48773843 0.015828984 1.1868795 0.20225586 -0.107841045 0.30768332 -0.0900882 0.62646335 -0.6848465 -0.28780597 0.013076325 0.04999416 1.1009586 0.6796414 -0.46678683 0.5513686 0.02007299 0.9851282 -0.39322656 -0.03324281 0.09003372 -0.62966216 0.7029853 0.24379408 0.47006184 0.85767597 0.262317
CATTCC 0.6118556 -0.22863209 -0.4273526 -0.37509874 0.19366184 0.28056768 -0.18625803 -0.5359713 -0.08131092 0.04789484 -0.016052889 0.067382246 -1.4847536 -0.0042333584 -1.0485269 -0.032945048 -0.39212328 0.68649065 0.4910104 1.7472615 1.7260127 0.114264734 -0.75457054 -0.50504297 0.25572607 -0.24688345 -0.5486663 0.6226511 0.19617155 0.6112641 0.9196588 0.6074865 0.25438306 0.69958127 -0.35046428 0.40392306 -0.21573979 -0.46579483 -0.15381445 0.55915433 -0.3271684 0.6802667 -0.1880346 0.2514015 1.3126843 -0.3112598 -1.9318824 -0.5356645 -0.75603384 -0.37185615 0.38477066 -0.642239 -0.09896914 -0.052933916 0.17251594 0.4762539 -0.35543254 0.12913126 -0.5548654 0.24915557 0.325417 -0.28466016 -1.2972007 -0.07182696
CTGTCA 0.9957478 0.4831275 -0.15547879 -0.20472798 -0.04186074 -0.24094252 0.04074613 -0.25300145 -0.80734366 0.09898701 -0.0803071 -0.5709332 -2.0287464 0.6392253 -0.8068911 -0.05576977 -0.27232245 -0.91049695 0.067118995 0.85406834 0.090882316 -0.39833564 0.28745395 -0.19843288 -0.019706506 0.24314794 -0.55282146 -1.1931533 0.07557267 0.59812915 -0.51369876 -0.4240507 1.1669216 0.61342347 0.35750437 1.0100228 -0.123967215 -0.9935468 0.093741216 -0.39593807 -0.37221122 0.05410952 -0.45747614 0.8109478 0.10964125 -0.31529388 -0.6816492 -0.78576237 0.30919597 0.1448973 0.3075899 -0.5558904 -0.098757155 0.6368086 0.08838591 -0.016282754 0.061087184 -1.2099072 -1.0874588 0.23393169 -0.19431594 -0.31487703 0.35474128 0.509742
GTGCTC 0.45712322 -0.41366225 0.46703655 0.24824296 -0.20419244 -0.35463944 -0.20076917 1.4469763 -0.84865797 -0.28616276 0.6475777 -0.49007884 -1.066132 0.6309191 -0.9453169 -0.15596299 0.5404824 -0.45072523 0.36013475 0.5581401 0.047663167 0.81483424 -0.3069476 -1.4967637 0.8755009 1.2708992 -0.1728748 -0.9103117 -1.2038049 1.0856647 0.2264621 -0.6040791 0.8936526 -0.30558407 0.52557206 0.5663705 1.4127765 0.20601214 -0.10150843 -1.5297278 -0.42071018 -1.5996137 -0.15415056 -0.13109297 -0.16702165 -1.0106478 -0.9667874 -0.90730023 0.057666767 -0.36371183 -0.619049 -0.3760447 0.25053495 -0.24217845 -0.72499245 -0.5198988 0.89401746 -0.8349864 -0.4619311 0.5143392 0.15411972 -0.3684852 -0.15427412 0.039345067
CAGAAG 0.37760165 -0.48585233 -0.14301027 -0.6909969 0.041276157 -0.08629508 -0.1137107 0.45086578 -0.71445215 0.009680514 0.96724635 -0.8547174 -1.1347724 -1.3792784 0.16362497 -0.3015327 -0.052827246 -0.62601787 0.2452142 0.24365497 -0.45791134 -0.57738227 -0.31664008 -0.21576646 -0.552325 0.85746163 -0.22339974 -1.7318356 -0.3876112 0.78239393 0.036386184 -0.022931254 -0.66561055 -0.55196816 0.08504313 0.17040037 0.58472204 -0.701381 -0.0075077796 1.0984318 1.1629014 -0.43986025 0.24692762 0.0596225 0.5697854 -0.12487078 0.04395317 -0.09577931 -0.19934964 1.0370326 0.13899888 -0.55710894 0.31310073 -0.2728057 0.54331034 -0.5293865 0.038296532 -0.14010333 -0.5957857 0.80786526 0.7728605 0.9976845 -1.0777954 0.53073204
GGAGCT 0.7187846 -0.41649437 0.20366031 0.04412796 0.9583894 0.57588077 0.95023525 0.7463905 -1.714848 -0.3132391 -0.39524278 0.44418156 0.1408931 -0.7360043 -0.44982135 -0.33288157 0.0038328725 -0.69620013 0.46002993 1.1478139 0.56546247 0.46911702 -0.36735582 -1.275461 0.3729766 0.18330398 -0.7503727 -0.9898148 -0.50091505 0.007897669 0.8722896 -0.29183632 -0.1966767 0.03263187 -0.06907489 -0.2999481 0.17560159 -0.35975862 -0.32301912 -0.4245883 0.4392579 -1.0043315 0.017596776 0.82932377 -0.010201493 -0.5755829 -0.2507043 -0.18769339 0.25329554 -0.18009876 1.0537908 0.16904116 0.093177 0.3709617 -0.71785724 0.5869232 0.5863797 -0.58795005 0.2143044 0.21102437 -0.66208684 -0.16281673 -0.69062275 0.31936213
AGGATG 0.82170975 -0.03725351 -0.13802227 0.79916114 -0.67589283 -0.057554066 0.057955075 -0.20640837 -0.016199982 0.10327742 0.21950753 -0.6515267 -0.9551971 0.22700381 0.5932733 1.0260231 -0.2085843 -1.6898725 1.4006617 0.89583606 -0.1142828 0.77693737 -0.44947788 -0.47672078 0.58869773 0.42475128 0.34961623 -0.43458956 0.7067234 0.99374175 0.84534556 -0.38102117 -0.5766455 0.33718443 -0.99378484 -0.2048162 0.6741853 0.54729724 0.08335109 -0.027913718 1.0746212 -0.43836424 0.8017986 -0.400597 0.22863099 0.114225365 -0.30968902 -0.4395523 1.024671 0.52240336 0.6589389 0.047920186 0.41849506 0.07195198 -0.24624737 -0.13560231 -0.09349505 0.6941518 -0.18906301 -0.33252916 -1.2930518 0.26256946 -0.6727697 -0.16166818
TGACAG -0.11749966 -0.2005435 0.15314224 -0.9163576 -0.06744625 0.00585947 -0.49259198 0.049161747 -1.0021313 0.21345678 0.8324742 -0.3882894 -1.1304817 -1.2318058 0.1525362 0.22825296 -0.25539055 -0.25246334 0.560683 0.3015147 -0.14327976 -0.16671981 0.25489917 0.8054474 -0.11863732 0.849398 -0.7223395 -1.1081058 -0.42982703 1.422564 -0.33332253 -0.10359648 0.6095225 -1.0549246 0.5873494 -0.4942802 0.19827583 0.3352733 -0.1932202 0.5548232 0.7758334 0.26658523 0.23787226 0.19455546 -0.4182859 -0.15462394 -0.123050414 0.17237097 -0.67686 0.9244932 0.48854166 -0.71756303 0.23077972 -0.080359355 -0.07712913 -0.74450135 0.30883345 -0.24972299 -1.0023296 0.43168756 0.22038127 0.8523232 -0.24451987 0.38275895
CCAGGC 1.1193125 0.24224807 -0.7528165 -0.16805188 0.44111365 -0.19877869 -0.3120495 0.24290447 0.0882058 -0.3239234 0.28278244 0.77905524 -1.4692943 -0.3799632 -0.6385408 -0.13501336 -0.9294118 -1.2746942 0.45974115 1.5738667 0.6074198 -0.8308315 0.2745147 -0.49591762 0.7915964 -0.20357208 -0.6756096 -0.11247279 0.17555301 0.12851413 1.2250781 0.6210993 -0.5232813 -0.8034975 -0.043064717 -0.531886 0.9961836 -0.52833706 -0.07326184 0.6436632 0.09065515 0.654341 0.34742984 0.6476139 0.5245166 -0.2932625 -0.7698171 0.08382692 0.016072378 0.27017003 -0.6495204 -0.44626483 0.15490603 -0.7074552 0.39834207 0.91838723 -0.9051104 -0.11866311 -0.69905317 0.6715893 -0.12790626 0.11102081 -0.67002016 1.2628256
GAGCAC 0.6254026 0.17627351 -0.24725634 -0.5814963 0.83098054 -0.399522 0.7196704 -0.4922254 -2.4149268 -0.5378886 0.86251277 -1.0780598 -0.23366451 -1.9031861 -1.0647212 -0.6641956 -0.3932526 0.41860715 1.019709 -0.053348232 1.0647458 -0.16687785 -0.011753392 -1.1564894 -0.04044431 0.5892669 -0.5206919 -0.98019844 0.31581634 0.64035875 0.5153418 -0.9763754 0.017446227 -1.0544668 0.2208596 0.10122905 -0.064521715 0.22731702 -0.13545004 0.69041926 -0.16539556 0.12595822 0.7902761 -0.7555812 -0.02618683 -0.6950952 -0.68525606 0.5520058 0.10282352 0.8023077 1.1763316 0.21389551 0.110393964 -0.37790337 0.19494005 -0.7106167 0.53323156 -0.45644677 -0.45387346 0.4422504 0.46480063 -0.7474038 0.326516 1.0905045
CTTCTG 0.70183384 0.39449555 -0.029305104 0.51651525 -0.23389332 0.5051844 -0.24031979 0.1826615 -1.7290264 0.026298208 -0.5473381 0.14899005 -1.8835783 -0.12584949 -0.50053734 -0.08877038 -0.42449623 -0.96131486 -0.49206766 0.5767804 1.0742322 -0.11867154 0.29007953 -0.4578302 0.0020123145 0.15844256 -0.69661283 -1.781986 0.34432265 0.77876264 -0.11410139 0.115132205 0.6011129 -0.0033878712 -0.24693272 0.913759 1.0373973 -0.91209203 -0.19177197 -0.17458414 0.21336198 0.063120045 -0.7231904 0.40953407 0.61164314 -0.09022744 -0.5643827 -0.59681755 0.3263435 -0.76194817 -0.5612976 -0.21898796 0.03426907 0.018537046 0.48333588 -0.08845806 0.80915993 -1.05953 -0.9867206 -0.561682 0.061537948 -0.30964598 0.3134381 -0.2588983
TGGTCG 0.22175567 -0.4478911 0.013453237 -0.6313225 0.015032193 -0.4247083 0.16888644 -0.08335859 0.1717727 -0.5864144 -0.45406386 -1.3375552 -1.2354019 -0.30016392 -0.34067723 -0.29364347 1.5116968 0.36502644 -0.0032007406 0.7396082 1.110323 1.5233117 0.8124104 -0.14323996 0.38581714 -0.058925282 -0.43166 -0.32911453 -0.5228572 -0.36648038 -0.047079027 0.5229453 0.7392549 -0.82988566 -1.0317467 -0.3789754 0.56048185 -0.53122586 -1.33844 -0.23979157 -0.45260212 -0.7874711 0.44002116 0.4039858 -0.81984675 -0.38710868 -0.6043483 -0.2923681 0.060111333 1.0221444 0.24885774 -0.016118312 -0.36653444 -0.063993916 0.01776608 0.27683032 -0.40289772 -0.58560085 -1.1504383 0.6974067 -0.6309899 0.5295423 -0.03527369 0.9785407
CATCCT 0.5583835 0.31327477 0.4619976 0.52742696 -0.08650826 -0.11317245 -0.45165324 0.25838292 0.28219995 -0.89294964 0.74372864 -0.47547317 -0.8650156 -0.9984799 -0.78489435 1.3208467 -1.4774698 0.059187647 0.45738468 0.4253607 0.1204567 1.1339338 -0.8748188 -0.7890035 -0.15337084 -0.37288377 0.35067326 0.086702354 0.97162896 0.067411326 -0.3042533 1.9465322 0.47876823 0.4292855 -0.40688425 -0.12957229 0.7802858 0.9643783 -0.6407309 0.2138662 0.8101012 0.23436844 0.27100644 0.00076921 0.8472267 -0.19065781 -0.35638353 -0.7958249 0.3923165 0.36413562 0.141013 -0.5076153 -0.1418758 -0.6195743 -0.026527544 -0.2741511 -0.26667702 0.26856193 -0.4051333 -0.25493374 0.25818586 0.48278752 -0.036794856 0.79843867
CCACTC 1.1407415 -0.45077053 -0.08284946 -0.028955702 0.12753503 -0.55005383 0.30036774 0.10199074 -0.43224594 -0.54312223 0.59388644 -0.11592744 -0.7607435 0.7350833 -0.73457605 0.17274536 0.32082212 -0.06314783 0.8272596 0.40414563 0.51448727 0.38524106 -0.2523848 -0.24788786 -0.28343463 -0.6086814 -0.78072333 -0.14146091 0.09358614 0.278791 0.5344603 0.9693957 0.50116116 -0.084016405 0.2194172 0.20490912 0.7395499 -0.8608276 -0.55483335 -0.48836666 -0.6351445 -0.60957724 0.08417999 -0.8930461 0.67312235 0.540897 -0.5461535 0.3878325 0.17013 0.035690527 0.043771926 -0.31012744 0.77383363 0.05596292 0.3660157 0.18598829 -0.29693928 -0.108659975 -0.6425665 0.7426483 -0.4740404 -0.20235911 -0.27935907 0.92309535
TAACAC -0.5320399 -0.2227218 0.45120597 -0.029348856 -0.3781254 -0.5687088 -0.1318393 0.26313534 -1.4584997 0.279208 1.0133901 -0.30131462 0.4324566 0.052426036 -0.48825687 -0.32532102 -0.42144692 0.38240066 0.22579786 0.8240243 1.1096382 0.2003371 0.4412944 -1.4049433 -0.34562448 -0.10333775 -0.86406523 -0.085587755 -0.27451012 -0.07652143 0.44783524 1.1221942 0.9160546 -1.1108463 -0.2520994 0.43443346 0.101209775 -0.07549338 -0.582716 0.53686583 0.32834747 0.13775848 -0.4887564 -1.148959 -0.11145679 1.0249019 -1.270448 -1.245497 -0.58826727 0.41530818 1.1476527 -0.22892886 0.28435156 0.48004878 0.29198736 -0.5239363 0.690052 -0.46936694 -0.25870153 0.6832984 -0.5930747 -0.81498426 -0.12136887 -1.1962034
TGACTT 0.31455636 0.41411275 0.5910745 -0.45422706 0.5419393 -0.2209322 0.21432842 -0.08624295 -0.7796417 0.2527901 1.0179511 -1.0727232 -1.1104485 -0.0035545572 0.153335 0.77945715 0.41025266 -0.44513825 1.5319353 0.76028156 -0.25697374 0.5305861 -0.4464448 -0.25494638 -0.5187646 0.1994037 -0.4565363 -0.6453441 0.19002128 0.84881747 1.435343 -0.6552269 0.35296434 0.3157762 0.051268373 -0.17126536 1.2350241 0.05732585 -0.21829762 -0.73161787 1.824398 0.03851674 0.5066422 0.9427177 -0.32624525 -0.07308537 0.7079743 -0.21215701 -0.6727888 0.53178084 0.43678245 0.29175118 0.40515342 -0.32006276 0.40179896 -1.0533577 0.09820804 -0.022722753 -0.4493874 -0.31743842 0.10771471 -1.4477358 -0.38898978 -1.1076392
AAGTCA 0.20798226 0.5263295 -0.14801873 0.41577637 1.2593968 -1.444985 0.27072117 0.39728922 -0.7598682 -0.4598259 -0.3463243 -0.6858576 -1.1199148 -0.61610836 -0.5346856 1.6096815 -0.16825132 0.33951992 0.5712449 0.66157943 0.21085533 0.803514 0.004284329 -1.4244107 0.27492738 0.29775655 0.6903601 -0.6833178 -0.40829533 0.9057793 -0.22707212 0.538463 0.1044472 0.64645857 -0.052163534 -0.24073212 0.61980844 0.65411067 -0.26560742 -0.2348418 1.4270772 0.39807874 0.6365415 0.38629088 0.2915669 0.2319008 -0.08119608 -0.31529877 0.7513659 -0.0021688985 -0.49409983 0.8529652 -0.21804872 0.94661057 0.7156777 -0.10423399 -0.07919281 -0.6946983 -1.6551187 0.34483415 0.8241323 0.257362 -0.07297001 0.45239776
GAGTGG 0.5796464 0.36860612 0.0481029 -0.0015490372 -0.1493988 0.7620612 0.12764977 0.682749 -1.0183825 -0.50285536 0.012433793 -0.6144502 -0.28927195 -0.2273422 0.20591053 0.33242425 -0.33681956 -0.26847318 0.65452814 0.8800076 0.22199383 0.9255989 0.36400387 -0.031472176 0.20781174 -0.009670945 -0.4079132 -1.017442 0.43239036 0.091233455 0.62499243 0.37566322 0.1112685 -2.07165 -0.60651934 -0.75090206 0.033012222 0.5081436 -0.65164876 0.10303717 -0.036890354 -0.13317041 0.6968884 -0.04443352 -0.69127667 0.2801262 -0.6943949 -0.09807588 0.09585204 1.1321148 -0.8627203 -0.07093028 -0.1818343 0.0116452705 -0.22781096 -0.46869072 0.28076893 0.08484353 0.19006422 -0.25653535 -0.14742537 -0.48986042 -0.6217657 0.114551604
GGGGAA 2.301497 -0.96655285 -0.66849405 -1.1969082 -0.6581535 1.286886 -1.4071621 1.000402 -1.2738563 1.0790844 0.4278678 0.8891058 -0.770224 -0.67540264 0.028290788 0.64540225 0.7770087 0.39504346 0.708302 1.0894471 0.43816385 1.3910468 0.8682441 -0.8102638 -0.25129914 0.7245356 -0.19818537 0.83116 0.5880803 -0.11211238 -0.42753658 0.7974299 -0.22496922 -0.6087696 -0.23152383 -0.54732263 0.8649134 -0.019858308 0.33607072 0.5498336 0.53522104 -0.44121575 0.46755487 -0.6534947 0.09788022 -0.13044295 -0.117471606 -0.417707 -0.92625093 1.1846403 1.1700741 0.49547312 0.3816976 0.580105 -0.7818249 0.19439398 0.39759833 -0.63129306 -0.80086917 0.4808756 -0.9406942 -0.2559999 0.44766733 -0.010147895
TGTTAC 0.26310453 -0.5985399 0.26470998 -0.22537915 -0.3805791 -0.77882946 0.6607399 0.58247817 -0.099180624 -0.2078049 1.1619489 -0.61680335 -0.26396272 0.6598683 -0.19148654 -0.16350588 0.021608591 0.18178476 0.2682438 0.30842644 0.5445469 1.1308926 0.21554823 -1.163119 -0.0408242 0.9405121 -2.3416975 0.3505602 -0.9731416 0.61943436 0.327157 0.04889456 0.47720823 -1.2906886 -0.38148874 0.6081561 -0.36662355 0.3614672 -0.9148483 0.38001198 0.8197116 -0.253031 -0.60376215 0.6647413 0.6486357 0.41778353 -0.10247934 -0.61584765 0.2340503 0.019107401 1.023561 -0.77656525 -0.2675035 0.62294555 1.0309106 -0.30305576 -0.19102749 0.45864245 -0.5306867 0.6736011 -0.3228207 -0.34095934 -0.2753338 0.14327559
CAAGTC 0.8209449 -0.21775238 -0.75132626 -0.1143931 1.5070534 -0.46257177 0.48832273 -0.456095 -0.1989732 -0.6225454 0.41460696 -0.7315276 -0.6096619 -0.30952117 -0.281175 0.9524543 -0.62063926 -0.26869363 -0.6828693 0.34388518 0.016586548 1.2265967 0.4026615 -0.9957172 0.3720138 -0.838743 -0.05920191 -0.56016976 -0.7088262 0.03267445 -0.07732545 1.0434061 -0.14974324 0.24083956 -0.20440057 -0.12044345 1.3026054 0.028982736 -0.5063258 -0.11527985 0.828597 0.5106118 0.19826211 0.24664614 0.9923773 0.56760705 0.08663191 0.11707786 0.50503683 -0.10091297 -0.040785797 -0.22028936 0.7308666 -0.0010599715 0.18623784 0.04756688 -1.1060253 -0.64274883 -1.0449778 0.4004605 0.92429817 0.054598954 0.124471426 0.4220286
AGTCAT 0.5576682 0.5614763 -0.022464423 0.0667193 1.5430934 -0.43791136 0.011298881 -0.3674592 -0.5227446 -0.6314603 0.047546186 -0.9575968 -0.93357384 -0.49971268 -0.28829554 1.0643029 -0.46842417 0.52851945 0.20261835 1.0968539 -0.4255282 0.97426754 0.6224524 -0.58469754 0.33914125 0.23153536 0.098053865 -0.23866953 -0.7265085 0.74603313 0.106534794 0.24050991 0.25583303 0.12709044 -0.084863886 -0.08836397 -0.031133238 1.4627379 -0.68461245 0.29355705 0.84802175 0.82912964 1.2284924 -0.09972163 0.43819663 0.25108045 -0.3535806 -0.40913787 1.4017445 0.9364655 0.15129359 0.134555 -0.23016208 0.25913155 0.4080476 -0.50899404 -0.17993066 -0.9147076 -1.1214082 -0.25067037 0.41622102 0.24799755 0.014724134 0.41673335
GTAACA 0.01572264 0.033039276 0.56050986 0.025525624 -0.5492228 -0.78344333 -0.5033736 -0.15754673 -0.8226412 0.17503269 0.6335556 -0.5758547 0.10798544 -0.0036624982 -0.840749 -0.23475076 -0.22871716 -0.20224233 0.038554 1.6207882 0.77540207 0.16443104 0.79137015 -1.1944882 -0.358742 0.037316233 -0.36078575 -0.076739185 -0.9519929 -0.5597321 0.02837528 0.9562417 0.84013224 -1.5472894 -0.39619854 0.3839393 -0.10313321 0.1804831 -0.009742023 0.7553596 -0.45996895 0.059779655 -0.50878143 -0.44146562 -0.31027776 0.24013583 -1.2459888 -1.3380117 -0.42748725 0.90405554 0.618358 -0.28582916 0.065909415 0.48724675 0.88904184 -0.11154383 1.3936179 -0.6653574 -1.0182556 0.7205051 -0.6787408 -0.41151893 0.040633295 -0.83128726
GAATTA 0.23948076 -0.5281562 0.87441677 0.46761242 1.2756866 0.38771814 -0.587283 0.9501817 -1.037953 -0.0018020263 1.5735643 -1.2085866 -0.66421884 0.049207956 -0.4850218 -0.48822016 -0.45897675 -0.16725476 0.36449355 0.4688656 0.6483582 0.7480389 0.54478335 -0.62337905 0.019939538 0.50854844 -0.25371245 -0.53473794 -0.59407383 0.60611206 0.13510887 -0.75893015 -0.8422754 -0.35335666 0.535214 -0.729518 0.050886042 0.20442829 0.2537994 0.14364366 0.46599552 0.22809617 0.6954008 0.27664247 -0.3843388 0.07225983 0.05632727 1.5327206 0.008858523 -0.33761892 -0.60191727 -1.3235985 0.3948603 0.778908 0.39670235 -0.30805644 0.2708366 0.298186 -0.29999042 1.3012385 -0.8523433 -0.24950701 -0.6473957 -1.0490662
ATGACT 1.2128664 -0.54651684 0.6781996 -0.20082405 0.05775333 -0.32099473 -0.28428972 -0.014936234 -0.48237067 0.14852731 0.4559264 -0.6616626 -0.97509295 0.4308314 -0.1369511 0.90653336 -0.090689056 -0.2844288 1.0914158 1.1955025 -0.491571 0.68544346 -0.835569 0.2725652 -0.25689614 -0.24256633 -0.89954543 -0.24694975 0.52721167 1.067377 1.0519451 -0.62897235 0.9276898 0.8979914 -0.07374274 0.094822176 1.3105314 0.3169394 -0.15693165 -0.2828863 1.1434715 0.22208707 0.14751136 0.26741183 -0.2249234 -0.0118246125 0.0859663 -0.59872127 -0.6918469 -0.44207257 0.53861356 -0.5410323 0.4039262 0.4009391 -0.108920045 -0.63989097 0.56948274 0.64421636 -0.5332394 -0.38357964 -0.5556495 -1.2115971 -0.39297235 -0.54682404
GAATGA 0.84524614 0.7074174 0.43705907 0.15737493 0.18831636 1.3350878 -1.2083783 0.22217837 -0.30301222 0.35067362 0.057632998 -0.79109937 -0.65696293 -0.07353012 0.48992088 0.19806597 0.64612335 -0.39187977 1.0183258 1.6547776 0.1601124 0.98968154 -0.20304966 -0.040934384 0.95087785 0.7081813 -0.64482343 0.011943099 -0.28211164 0.82480586 0.4378471 0.0035378637 -0.69503945 -0.16561474 -0.110345505 0.2611097 0.6793312 -0.13686872 0.19959068 1.4726833 0.963307 0.024151567 0.9605836 0.29050213 -0.1579153 1.0608897 -0.6032315 0.091827326 -1.0546123 0.28720313 -0.12450746 -0.41254863 1.4067359 0.3249409 -0.042664584 0.15734696 0.4780842 0.3298064 -0.60290706 0.50904197 -0.39437658 -0.8946506 -0.06463265 0.13480142
GACTTG 0.670631 -0.7755256 0.06963678 0.32024193 0.014520877 -0.33143076 0.04185568 -0.18629725 -1.0380585 0.59859306 -0.049267888 -0.88141185 -1.0677831 -0.55073935 0.40203553 0.47055712 0.13175845 -0.19608915 1.5526843 0.51933306 0.3642966 0.317278 -0.25678113 0.16568261 -0.17473753 -0.36708057 -0.47981498 -0.94034874 -0.026909305 0.21052653 0.6536399 -0.22238557 -0.5799903 0.40221384 -0.31828058 -0.11560262 1.637902 0.69960487 0.18722412 0.081470825 1.0841033 0.24535935 0.36556938 1.0035361 -1.0093269 -0.22566757 0.5678578 -0.18033692 -0.014624096 0.69965535 -0.5611639 -0.6807742 0.056746453 0.17828657 0.1325034 -0.56492674 0.004034926 0.08415521 0.272152 -0.4842959 -1.1602049 -1.1673892 -0.5493111 -0.92488813
GGTCCG -0.32778168 0.27565467 0.65474147 0.24635142 -0.09940118 0.6600632 -0.23581947 1.1399993 0.53826886 0.1549808 1.095243 -0.40319318 0.356419 -0.74570054 0.2587344 1.5833441 0.8569891 -0.594002 0.058506146 0.88806826 0.7713456 0.9300411 -0.17186306 -0.7538784 0.22689104 0.4144612 0.20638545 -0.32083917 0.32895067 -0.15714586 0.79359686 0.34044737 1.076337 -0.09918179 -0.9637873 0.024133388 0.6476523 -1.1956589 -0.21260354 0.31887305 -0.5375759 -0.029815845 1.6914886 0.25954098 0.26396075 0.24455132 -0.18242255 0.30083683 -0.6990907 1.5878743 0.10204211 -0.36144355 -0.373077 -0.14768058 -0.7046203 0.7663579 0.36307535 -0.061683968 -1.0051346 1.1685396 -0.3358824 -1.074726 0.6930855 0.06840394
GAGGGA 0.33079913 0.14025953 0.8245811 0.31897035 0.2010549 -0.3896972 0.6688438 0.59116393 -1.1480554 -0.13891798 -0.35099682 0.44188982 -0.67539126 -0.48270217 0.36088234 0.45013198 0.6301544 0.010975991 1.1488708 0.6312322 1.1254274 0.25733525 0.23162979 0.11523191 1.0331937 0.4638639 0.6213934 -0.7980177 0.7699072 -0.54608417 0.35982782 -0.64459205 -1.0141963 -0.34508136 -0.6173889 -0.5657549 0.3981117 -0.15700571 0.6110575 -0.43048477 0.23274092 -0.3445025 -0.28967175 -0.18678069 0.40230274 -0.115326904 -0.3859685 0.19667868 -0.03789494 1.3949544 0.83295107 0.31998888 0.60831255 0.51984346 0.048071984 -0.08682105 -0.03959381 0.059306398 -0.47021818 0.15125161 0.30831218 0.8495355 -0.023757251 -0.36570957
ATGCTG 0.13496572 -1.2879418 0.114440486 1.97351 0.63611007 -0.07127168 -0.086571805 0.2597927 -0.53909 0.26438364 0.21613058 -1.5696878 -0.54673153 -1.124782 -0.5243896 -0.2925182 -0.3669815 -1.3908546 0.6871007 0.6541954 0.80964434 1.1876714 0.19120632 0.4481538 -0.31704575 0.6505158 -0.58830816 0.3506837 -0.25811842 0.61279416 -0.05877914 0.99962175 0.20695373 0.662626 0.10385432 0.26602164 0.38511518 -0.73993236 -0.29830438 -0.456254 -0.15054648 0.02075858 0.50572956 0.35872898 0.9330106 -1.1504896 0.7002392 -0.6362953 -0.7266024 0.11625073 -0.005470472 -0.29575166 -0.14298558 0.58374095 -0.50265694 -0.16969334 0.41145334 -0.9719542 -0.35878548 -0.19102652 -1.2932686 0.9842291 -0.67404747 0.1752987
TTTGGG 0.20730916 -0.57266134 -0.18219525 -1.2178633 -0.30200595 0.1935623 -0.14202982 1.1428955 -1.0324392 0.63932645 -0.014986516 0.5770942 -0.9283576 -1.0722283 0.7554064 0.603278 0.3721043 -0.49011388 0.21792118 0.8481367 0.71796405 1.076517 0.6103893 -0.1557683 0.46517518 0.8910247 -0.2278345 -0.2230038 -0.037262138 -0.36322397 0.18255644 0.3691647 0.7562673 -0.08157534 0.12992708 -1.2134562 0.6979823 0.25659972 -0.55195314 0.071980745 -0.10245231 -0.09227432 -0.4296591 -0.1529487 0.11366639 -1.3127009 0.23826107 -0.5297782 -0.18803361 0.44251835 0.2037843 -0.47740188 0.3752715 0.18835802 0.08080467 -0.97353035 0.22993936 -0.20132105 0.2859913 -0.75245064 -0.13800733 -0.21814504 0.7926578 -0.17925188
